{
  "layers": [
    {
      "0": {},
      "1": {},
      "2": {},
      "3": {}
    },
    {
      "0": {
        "bias": 0.19945420993653545,
        "weights": {
          "0": 0.566895306351373,
          "1": 0.6595087924706918,
          "2": -1.1552325926874558,
          "3": -0.7791095385745838
        }
      },
      "1": {
        "bias": -0.13930422963584527,
        "weights": {
          "0": 0.13229770370075097,
          "1": -0.15970940334816341,
          "2": 0.1600100857721514,
          "3": 0.24868000672372403
        }
      },
      "2": {
        "bias": -0.1339901940767805,
        "weights": {
          "0": -0.12127178664723068,
          "1": -0.20010637308404433,
          "2": 0.5280265653245969,
          "3": 0.11288692801691584
        }
      },
      "3": {
        "bias": 0.3326662395839883,
        "weights": {
          "0": 0.28626786167534624,
          "1": 0.7967041339078479,
          "2": -1.0066626865927786,
          "3": -0.4603003604367405
        }
      },
      "4": {
        "bias": 0.2646116836758898,
        "weights": {
          "0": 0.33951519040049133,
          "1": 0.43725591314135287,
          "2": -0.6878790951678296,
          "3": -0.5410359176739606
        }
      },
      "5": {
        "bias": -0.205788019596895,
        "weights": {
          "0": -0.40214451357343356,
          "1": -0.7712319150522746,
          "2": 1.594112261752002,
          "3": 0.5622564453912601
        }
      }
    },
    {
      "0": {
        "bias": -0.2216762972713355,
        "weights": {
          "0": 1.4789860567424935,
          "1": -0.7172669309490239,
          "2": -0.5106105215353053,
          "3": 1.2121924412177247,
          "4": 0.7226833986289352,
          "5": -2.392615282575796
        }
      },
      "1": {
        "bias": -0.46708902028304544,
        "weights": {
          "0": -0.5559920591535226,
          "1": -0.5461917796753721,
          "2": 0.03614240160113092,
          "3": -0.3939125961410725,
          "4": 0.10611630379817343,
          "5": 0.7764842523660267
        }
      },
      "2": {
        "bias": -0.3453846587586682,
        "weights": {
          "0": -1.734246739005356,
          "1": 0.09354146395832584,
          "2": 0.3768029032741327,
          "3": -1.4203006066216088,
          "4": -1.0504392745160098,
          "5": 1.1725905634689
        }
      }
    }
  ],
  "outputLookup": false,
  "inputLookup": false
}
