{"linear_relu_stack_0_weight": [[-0.08529040217399597, -0.2080688327550888, -0.0624590739607811, 0.2203730046749115, -0.048986077308654785, 0.10559682548046112, 0.05230288207530975, 0.17999184131622314, -0.9220765233039856, 0.0676032230257988, -0.017828773707151413, 0.043381813913583755, -0.003860756754875183, 0.002791849197819829, 0.09736018627882004], [-0.17859873175621033, -0.11101140826940536, 0.13031455874443054, -0.246638685464859, -0.16012786328792572, -0.011389756575226784, 0.19253414869308472, 0.1015959084033966, -0.02330448292195797, -0.08871042728424072, -0.1516345590353012, 0.02783343382179737, -0.20280468463897705, -0.17001987993717194, 0.12266193330287933], [-0.24482461810112, -0.16928407549858093, -0.05309262126684189, 0.16288016736507416, -0.17146530747413635, 0.04115046560764313, -0.13460052013397217, -0.2541876435279846, -0.06272506713867188, -0.178193137049675, -0.08319606631994247, 0.25478166341781616, -0.026819957420229912, 0.1729569286108017, 0.20487169921398163], [-0.07066605240106583, -0.050549186766147614, 0.26669830083847046, -0.12409308552742004, 0.057502590119838715, -0.12274683266878128, 0.1427423655986786, 0.3687357008457184, -0.2229684293270111, -0.14118631184101105, 0.25696805119514465, -0.22419889271259308, 0.016250580549240112, 0.12753795087337494, -0.13235920667648315], [0.09053297340869904, 0.04014260321855545, -0.12759913504123688, 0.0485687330365181, -0.17309455573558807, -0.005055952351540327, 0.18764489889144897, 0.2410551756620407, -0.47559356689453125, -0.12914405763149261, 0.02950359508395195, -0.0772782415151596, 0.0004775114939548075, 0.17400024831295013, -0.09174909442663193], [-0.13824842870235443, 0.05168222635984421, 0.23405976593494415, -0.035641059279441833, 0.09422964602708817, 0.04479759559035301, -0.04377742484211922, -0.14965133368968964, 0.1980212926864624, -0.24385538697242737, 0.34520798921585083, -0.010783588513731956, -0.013972328044474125, 0.0106816366314888, 0.06272777915000916], [0.16042374074459076, -0.15412472188472748, 0.21578358113765717, -0.16807349026203156, 0.03257099911570549, 0.21773995459079742, -0.22976988554000854, 0.009306935593485832, -0.04779359698295593, 0.020870652049779892, -0.07508505880832672, 0.09105214476585388, 0.18333029747009277, 0.007144687697291374, 0.10995660722255707], [0.15202157199382782, 0.20357836782932281, -0.02414705604314804, 0.11126533895730972, 0.07861283421516418, -0.14722523093223572, 0.3345487415790558, 0.100217305123806, -0.47500109672546387, 0.19452251493930817, 0.15957185626029968, 0.004768970422446728, -0.08634573221206665, -0.04661651700735092, 0.18474264442920685], [-0.14711548388004303, -0.02148842252790928, 0.006193490233272314, 0.15786848962306976, -0.1385110765695572, 0.10318028181791306, 0.22576096653938293, 0.06307276338338852, 0.09257636219263077, -0.23009702563285828, -0.13515546917915344, 0.21875649690628052, -0.08881687372922897, -0.13522657752037048, 0.024772197008132935], [-0.18068811297416687, -0.023851070553064346, -0.11761898547410965, -0.027059393003582954, -0.2570580840110779, -0.04808713495731354, -0.17774634063243866, -0.12533296644687653, 0.15190856158733368, -0.08489569276571274, 0.0911267027258873, 0.22787712514400482, 0.06900884211063385, 0.04348568990826607, 0.11951858550310135], [-0.14264939725399017, 0.10407373309135437, -0.07281222939491272, -0.12774674594402313, 0.07042796164751053, 0.12715929746627808, -0.26174744963645935, 0.23387180268764496, 0.008864962495863438, -0.013829927891492844, 0.02401786670088768, -0.053837668150663376, 0.38454917073249817, 0.006521853618323803, -0.09919986873865128], [-0.08098417520523071, -0.09035896509885788, -0.08828530460596085, -0.1899816393852234, -0.1224827915430069, 0.22978250682353973, -0.1303248405456543, 0.12657824158668518, 0.036718957126140594, -0.0351361408829689, 0.1081598550081253, 0.10907961428165436, -0.16866931319236755, 0.027554916217923164, -0.18133285641670227], [0.23533864319324493, 0.0789642259478569, -0.1556539237499237, 0.17157186567783356, -0.050480473786592484, 0.24535775184631348, -0.252187043428421, -0.1640326827764511, -0.17541661858558655, 0.0883331373333931, -0.10829910635948181, 0.21891315281391144, 0.1449846625328064, -0.21253208816051483, 0.015846500173211098], [-0.0850398987531662, -0.1870485246181488, -0.12670432031154633, -0.19458961486816406, -0.19356200098991394, -0.18878218531608582, 0.06896454840898514, 0.10446789115667343, -0.1449466496706009, 0.1986292600631714, -0.003318329341709614, -0.01167092565447092, -0.003998991567641497, -0.2303231805562973, -0.036689870059490204], [-0.23978489637374878, -0.2303718775510788, -0.19325484335422516, -0.09681335091590881, -0.1595003753900528, 0.23293112218379974, -0.23662585020065308, -0.044753383845090866, -0.14065304398536682, 0.17273016273975372, 0.003878365969285369, 0.004848727025091648, -0.14553503692150116, -0.14388573169708252, 0.1711001694202423], [-0.21686291694641113, 0.14744575321674347, 0.033111605793237686, -0.18649142980575562, -0.014767087064683437, -0.25364410877227783, 0.014148754067718983, -0.022749558091163635, -0.16258379817008972, 0.08529312163591385, 0.15678834915161133, 0.19755063951015472, -0.02393512986600399, -0.1665620058774948, 0.02910824492573738], [0.10257650911808014, 0.27127447724342346, 0.3278559744358063, -0.21029265224933624, -0.11025878041982651, -0.17326153814792633, 0.14429335296154022, 0.20670846104621887, -0.2101159393787384, 0.07851853221654892, -0.13504883646965027, -0.03438914567232132, 0.17062845826148987, 0.1263127326965332, 0.08791830390691757], [-0.27329501509666443, 0.2905786335468292, -0.4042246341705322, 0.11360090970993042, -0.11922331154346466, 0.10819021612405777, 0.16467395424842834, 0.027193205431103706, 0.069137342274189, 0.04833730682730675, 0.15414845943450928, 0.2190423160791397, 0.19598017632961273, 0.06963682919740677, -0.10897502303123474], [0.13796283304691315, -0.11776559799909592, 0.2567984461784363, -0.20216262340545654, -0.11461911350488663, -0.010723917745053768, 0.22245733439922333, -0.015272303484380245, -0.1191326454281807, -0.1577187031507492, 0.09195397049188614, 0.038292452692985535, -0.20394282042980194, 0.11516320705413818, -0.22850213944911957], [-0.05762574449181557, 0.3245973289012909, 0.1688614785671234, 0.1174565926194191, -0.25157997012138367, 0.07482025772333145, 0.09865940362215042, -0.09058266133069992, 0.37155380845069885, 0.07559698075056076, 0.06910961121320724, 0.014833672903478146, -0.13826805353164673, 0.2303033471107483, 0.09457959979772568], [-0.010276520624756813, 0.03898040950298309, -0.06257158517837524, -0.14661505818367004, 0.23518209159374237, 0.0033611587714403868, -0.04213055968284607, -0.030169012024998665, 0.08324234187602997, -0.16675569117069244, -0.1056048646569252, -0.10834050178527832, 0.10570330172777176, -0.03016044571995735, 0.004492457024753094], [0.17681068181991577, 0.14684940874576569, 0.09498970210552216, 0.11465658992528915, -0.18684178590774536, 0.23477615416049957, 0.005378720350563526, -0.21000464260578156, 0.12448639422655106, -0.21303319931030273, -0.168147474527359, 0.019508738070726395, 0.09657138586044312, -0.09905843436717987, 0.20261988043785095], [0.13037312030792236, 0.18724417686462402, -0.20986707508563995, -0.14559505879878998, 0.02869628556072712, -0.24949690699577332, -0.21918317675590515, -0.21821360290050507, -0.15214142203330994, 0.21983574330806732, 0.2341075837612152, 0.12122412770986557, 0.21540246903896332, 0.1262606829404831, 0.15635544061660767], [-0.08325719833374023, -0.07959838211536407, -0.2334040254354477, -0.12354742735624313, -0.03683152049779892, 0.11506257206201553, -0.25409257411956787, -0.12939631938934326, 0.1165008470416069, -0.10306938737630844, -0.04769829288125038, -0.017599312588572502, -0.21298848092556, -0.04472041875123978, 0.24266138672828674], [-0.08305687457323074, 0.07725857943296432, -0.10588065534830093, 0.23434177041053772, -0.17564713954925537, -0.2025725543498993, 0.02304757945239544, -0.041338901966810226, 0.33379092812538147, 0.15685102343559265, -0.0648551806807518, -0.12649495899677277, -0.07671387493610382, 0.1771918386220932, -0.028416192159056664], [-0.2221512347459793, 0.09704352170228958, -0.07828910648822784, -0.14180175960063934, -0.2120758295059204, 0.04633084312081337, -0.05906376242637634, -0.05705658718943596, -0.2003849297761917, 0.07999042421579361, -0.18991993367671967, 0.053583621978759766, -0.17609712481498718, 0.2316722869873047, 0.2112560123205185], [0.3001023232936859, -0.2015705555677414, -0.06101686879992485, 0.2053217738866806, 0.18138091266155243, -0.1548895686864853, 0.17298558354377747, 0.013251835480332375, 0.38677817583084106, 0.08775737881660461, -0.18901145458221436, -0.177382230758667, 0.18801249563694, 0.020154869183897972, 0.141244038939476], [0.21449671685695648, 0.05315900966525078, 0.3317371904850006, -0.1886868178844452, -0.07519141584634781, -0.06809581071138382, 0.21141521632671356, -0.1369103640317917, 0.10620599240064621, 0.0830795168876648, 0.009961757808923721, -0.17124612629413605, 0.030853770673274994, -0.11877274513244629, -0.09115047007799149], [-0.14796321094036102, -0.03486784175038338, -0.19240538775920868, 0.23606042563915253, -0.243785560131073, -0.07406225800514221, 0.22437222301959991, 0.23708988726139069, -0.3316800892353058, -0.06631030142307281, -0.030596628785133362, 0.043223027139902115, 0.06709783524274826, 0.15678949654102325, 0.1809975951910019], [-0.18955647945404053, 0.44974586367607117, -0.20076362788677216, -0.13122695684432983, -0.07228182256221771, -0.009008741937577724, -0.1348005086183548, 0.17933562397956848, 0.3506825268268585, -0.15930619835853577, 0.015586618334054947, -0.05872471630573273, 0.10285526514053345, 0.11737173795700073, -0.07961231470108032], [-0.10950128734111786, -0.07716627418994904, 0.2691574692726135, 0.2543778419494629, 0.010128898546099663, -0.07244783639907837, 0.13906343281269073, -0.18265824019908905, 0.20698092877864838, -0.15778566896915436, 0.2541184723377228, -0.017330816015601158, 0.09855994582176208, 0.009240478277206421, 0.05985895171761513], [-0.11391880363225937, -0.0825720801949501, 0.21838533878326416, 0.14715918898582458, 0.06797933578491211, -0.1476164013147354, 0.10684264451265335, 0.009258080273866653, 0.05396106466650963, 0.19251352548599243, 0.15727689862251282, -0.13238954544067383, -0.1359739452600479, -0.1995375007390976, 0.22044304013252258], [0.1036701425909996, -0.0035892522428184748, -0.16371965408325195, 0.23306596279144287, -0.1913512498140335, 0.18994151055812836, -0.22734642028808594, -0.1877124011516571, 0.2263469398021698, -0.04628061130642891, -0.05553286895155907, 0.09804023057222366, -0.10055363923311234, -0.23316830396652222, -0.034344982355833054], [0.06857109069824219, -0.21546658873558044, -0.23057164251804352, 0.14546261727809906, 0.022972680628299713, 0.1838196963071823, -0.2236759066581726, -0.1092420369386673, 0.16019991040229797, -0.24836960434913635, -0.013784968294203281, 0.13527043163776398, 0.009802413173019886, -0.15410466492176056, 0.1090313196182251], [-0.24014577269554138, -0.08188992738723755, -0.012020700611174107, -0.18202443420886993, -0.04589848220348358, 0.19992034137248993, -0.18030023574829102, -0.14431923627853394, -0.029580654576420784, -0.08758291602134705, 0.04293976351618767, 0.12344175577163696, 0.236953467130661, -0.20428042113780975, -0.035245850682258606], [-0.002975178649649024, -0.12140904366970062, 0.17419584095478058, -0.23067709803581238, -0.13356028497219086, 0.22225576639175415, -0.07287544757127762, 0.1768827587366104, -0.03740060701966286, -0.2641852796077728, 0.11808113008737564, -0.27142104506492615, 0.20004358887672424, -0.05235104262828827, -0.14499546587467194], [-0.05980062857270241, -0.06307987123727798, -0.007285679690539837, 0.2556363642215729, 0.13900405168533325, -0.06120036542415619, -0.1693452000617981, 0.19947406649589539, 0.08773579448461533, 0.06650980561971664, -0.2313556969165802, -0.06800474226474762, -0.15915875136852264, -0.13185086846351624, -0.009627768769860268], [-0.09542770683765411, 0.08627686649560928, 0.07805357873439789, -0.10082738846540451, 0.19642919301986694, -0.24232831597328186, -0.17246317863464355, 0.24774840474128723, -0.12607884407043457, -0.15815883874893188, -0.20233631134033203, 0.029862532392144203, -0.019170893356204033, -0.023755069822072983, -0.22366821765899658], [0.21541492640972137, -0.1448432356119156, -0.03396184742450714, -0.16805747151374817, -0.09584522247314453, 0.2103705257177353, 0.24615031480789185, -0.1517096906900406, -0.20157770812511444, -0.11695622652769089, -0.15111525356769562, -0.17128129303455353, 0.1249920204281807, 0.025633826851844788, 0.1964118927717209], [-0.010120922699570656, 0.08274564892053604, -0.07527999579906464, 0.11573682725429535, -0.2218758761882782, 0.05652151629328728, -0.14573681354522705, 0.20323483645915985, 0.16045327484607697, -0.16888739168643951, -0.2554975748062134, 0.030103148892521858, -0.20736156404018402, -0.09021854400634766, -0.15134917199611664], [-0.10186605155467987, -0.17304271459579468, 0.1273428350687027, -0.23665334284305573, -0.1605016142129898, -0.09820929914712906, 0.0028338225092738867, -0.06572859734296799, -0.1855979710817337, -0.19348903000354767, 0.1530814915895462, -0.014121167361736298, -0.2439553588628769, 0.1693437248468399, -0.06872019916772842], [0.088674396276474, 0.058083705604076385, 0.09600673615932465, -0.17569862306118011, 0.06412619352340698, -0.09666689485311508, -0.046905841678380966, -0.13589957356452942, -0.040692709386348724, -0.183912992477417, -0.22995804250240326, -0.1176435723900795, -0.0796772688627243, -0.18991069495677948, 0.1666884869337082], [-0.03239407017827034, -0.026991533115506172, 0.16363553702831268, -0.1598949134349823, -0.2548312544822693, 0.1091308668255806, 0.3675600290298462, 0.31742218136787415, -0.21728475391864777, -0.11364812403917313, -0.6639186143875122, 0.044490307569503784, -0.03418309986591339, 0.02753724530339241, 0.00359961180947721], [-0.05888562649488449, 0.025624791160225868, -0.211947500705719, -0.021982355043292046, 0.19858522713184357, 0.0697091594338417, 0.19939060509204865, 0.08579909801483154, -0.16803333163261414, 0.06278659403324127, 0.054817624390125275, -0.16548408567905426, -0.055695727467536926, 0.025318920612335205, 0.1538291871547699], [0.039241183549165726, 0.17838698625564575, 0.1006692573428154, 0.21521657705307007, -0.15199053287506104, 0.03917364031076431, 0.20972318947315216, -0.26412883400917053, 0.2841886579990387, 0.12044773250818253, 0.22682389616966248, 0.037140484899282455, -0.12442205846309662, -0.012753461487591267, -0.1966918557882309], [-0.119368776679039, 0.19075624644756317, 0.01254349946975708, 0.15113826096057892, 0.021264098584651947, -0.2294677495956421, 0.09205394238233566, -0.22902412712574005, -0.1929897665977478, 0.033142849802970886, 0.1931990385055542, -0.2499696910381317, -0.13711054623126984, 0.014056076295673847, -0.19650019705295563], [0.22762173414230347, 0.03621858358383179, 0.11350996047258377, 0.025627337396144867, -0.027224404737353325, 0.01756192184984684, -0.13089515268802643, -0.0350605808198452, -0.11228155344724655, 0.1592961847782135, -0.1214609369635582, -0.07027016580104828, 0.15768377482891083, -0.18569496273994446, 0.07249404489994049], [-0.06933725625276566, 0.06275738030672073, 0.11278726160526276, -0.21379707753658295, -0.21787723898887634, 0.08407777547836304, 0.01630372926592827, -0.035210900008678436, -0.13516993820667267, -0.21849270164966583, -0.38790181279182434, 0.1885034590959549, 0.01769743487238884, 0.00017906051652971655, 0.08946138620376587], [0.04709814861416817, 0.5483851432800293, -0.13010993599891663, -0.19520969688892365, 0.15211662650108337, 0.18972352147102356, 0.22808170318603516, 0.08538329601287842, 0.4834637939929962, -0.20403152704238892, 0.29918578267097473, 0.031953245401382446, 0.0650465339422226, 0.22910645604133606, 0.29797667264938354], [0.14227750897407532, -0.04419044032692909, 0.1571313887834549, 0.016339480876922607, -0.1244092583656311, -0.11440873146057129, -0.1342882513999939, -0.13459905982017517, 0.3597355782985687, -0.1830427497625351, 0.09576673805713654, -0.017697153612971306, -0.18704485893249512, 0.012165357358753681, -0.08192671090364456], [-0.09755091369152069, 0.07313739508390427, -0.27322185039520264, 0.10217340290546417, -0.06831800937652588, -0.013269349932670593, 0.07264115661382675, 0.13694481551647186, 0.37265273928642273, -0.22231926023960114, -0.03912805765867233, -0.12898823618888855, -0.10783089697360992, -0.12009132653474808, 0.08765341341495514], [0.2419176548719406, 0.029460469260811806, -0.14671070873737335, -0.15800368785858154, -0.10406394302845001, -0.24119816720485687, 0.04897727817296982, -0.04188554361462593, 0.27904799580574036, 0.21396568417549133, -0.20153415203094482, 0.18144096434116364, 0.07318387180566788, -0.26136574149131775, 0.16705749928951263], [-0.18382695317268372, 0.07415241748094559, -0.23888874053955078, 0.2457362413406372, 0.0244342852383852, 0.06272740662097931, -0.22797593474388123, -0.017715109512209892, -0.014295361004769802, 0.19482426345348358, 0.1730940043926239, -0.01066921092569828, 0.10828427225351334, 0.044227004051208496, -0.1405336707830429], [0.16088956594467163, 0.20502178370952606, 0.12065880000591278, -0.15218991041183472, 0.04139745607972145, 0.2328484207391739, -0.18632838129997253, 0.22423779964447021, -0.03779862821102142, 0.22322021424770355, 0.06166256219148636, -0.22694875299930573, -0.051362406462430954, -0.23305778205394745, -0.04006361961364746], [-0.09801607578992844, -0.22771134972572327, 0.04343807324767113, 0.22800076007843018, 0.23825383186340332, 0.019941989332437515, -0.09596524387598038, -0.038781918585300446, 0.03165045380592346, -0.02160186506807804, 0.101338230073452, -0.13967134058475494, -0.18732184171676636, 0.25904083251953125, 0.19686999917030334], [0.23186233639717102, 0.18935713171958923, 0.2122071087360382, -0.20418968796730042, -0.07128770649433136, 0.14050596952438354, -0.06443682312965393, -0.2043485939502716, 0.04232361540198326, -0.04950423911213875, -0.11630278825759888, 0.04027721285820007, 0.034412141889333725, -0.24698610603809357, -0.11824454367160797], [-0.010948372073471546, -0.15507474541664124, -0.09140285849571228, 0.15888093411922455, -0.17869161069393158, 0.020348094403743744, -0.08989443629980087, -0.09360702335834503, 0.048083655536174774, 0.10676787793636322, 0.006380755919963121, 0.15958024561405182, 0.16036276519298553, -0.06951593607664108, 0.1378365159034729], [-0.05590558797121048, -0.22057309746742249, -0.20373091101646423, 0.18108952045440674, 0.20816874504089355, -0.18707777559757233, -0.010454324074089527, 0.013573055155575275, 0.26256129145622253, 0.0248454287648201, 0.08957336843013763, -0.07061413675546646, 0.09994018077850342, 0.10610245913267136, -0.1594032496213913], [0.11455594003200531, 0.0013647722080349922, -0.08310446888208389, -0.08049696683883667, -0.012147395871579647, 0.11715740710496902, -0.16971082985401154, 0.03786291554570198, -0.22202211618423462, -0.21724005043506622, 0.05518059432506561, 0.19059596955776215, 0.006763040088117123, 0.1414240449666977, 0.17394012212753296], [0.07048419117927551, 0.18772806227207184, 0.23080918192863464, -0.118419349193573, 0.10587644577026367, 0.16887862980365753, 0.14635993540287018, 0.19506216049194336, -0.20620353519916534, 0.05569407343864441, 0.10517186671495438, -0.170965775847435, -0.11488718539476395, 0.14989297091960907, -0.17285043001174927], [0.1538369059562683, 0.2063247561454773, -0.12030796706676483, -0.07158788293600082, 0.23212583363056183, -0.057357851415872574, 0.24299414455890656, 0.35007616877555847, -0.25749456882476807, 0.1982606202363968, 0.2177857756614685, 0.051071394234895706, -0.14301569759845734, 0.002417173469439149, 0.0979534164071083], [0.08276166021823883, 0.18370527029037476, 0.09126804769039154, -0.060767270624637604, 0.24904504418373108, 0.019791439175605774, 0.18562035262584686, -0.17852286994457245, 0.41242003440856934, -0.11804042756557465, -0.060999080538749695, -0.0429522879421711, -0.15240168571472168, 0.21322697401046753, -0.06177932769060135], [-0.1784285455942154, -0.10862047225236893, -0.24575766921043396, 0.01964450068771839, -0.02107868157327175, -0.16762889921665192, -0.05542498454451561, -0.030302774161100388, 0.007708346471190453, 0.13079601526260376, 0.029357407242059708, 0.16760602593421936, -0.08803331106901169, -0.2244899719953537, 0.22763073444366455], [0.0621349960565567, 0.10275164991617203, -0.217697873711586, -0.10560902208089828, 0.21102547645568848, 0.2571907341480255, 0.11857487261295319, -0.04187975823879242, -0.015875406563282013, -0.06726720184087753, -0.17871589958667755, -0.053689368069171906, 0.2179810255765915, -0.21555691957473755, 0.02932647615671158]], "linear_relu_stack_0_bias": [0.13447576761245728, -0.10718029737472534, 0.03493078052997589, -0.058486729860305786, 0.24056707322597504, -0.174803227186203, -0.18926626443862915, 0.004041227046400309, -0.19923515617847443, -0.21592938899993896, -0.07720889896154404, -0.05690822750329971, 0.09654467552900314, -0.05328536406159401, -0.07131709903478622, -0.2516750991344452, -0.011543182656168938, 0.25726568698883057, 0.14216913282871246, -0.046077389270067215, -0.08481845259666443, 0.06149183213710785, -0.17552000284194946, -0.037425968796014786, 0.20858478546142578, -0.23799023032188416, -0.05597185343503952, 0.2195061445236206, 0.11743050813674927, 0.16851136088371277, -0.2606472671031952, 0.11906292289495468, -0.07224544882774353, 0.20297126471996307, 0.2458035945892334, 0.26423072814941406, -0.1698257327079773, -0.07927771657705307, 0.23847010731697083, -0.15064913034439087, -0.10494707524776459, -0.09055712819099426, -0.20507311820983887, 0.0852256566286087, 0.04120500013232231, -0.17036056518554688, -0.10818851739168167, 0.17852695286273956, 0.15423990786075592, 0.25768905878067017, 0.22528678178787231, 0.14885570108890533, 0.04405811429023743, -0.13758763670921326, 0.17201541364192963, -0.1762121319770813, -0.011513734236359596, 0.02370385453104973, -0.24898695945739746, -0.19289405643939972, 0.26164835691452026, 0.06767171621322632, -0.06513123959302902, -0.21135865151882172], "linear_relu_stack_2_weight": [[-0.12341873347759247, -0.004409417510032654, -0.09977230429649353, -0.06439061462879181, -0.06408283114433289, 0.0683131217956543, -0.06052537262439728, 0.02532973885536194, 0.08508163690567017, -0.12242990732192993, 0.11938875913619995, -0.046936988830566406, 0.04153814911842346, -0.009894981980323792, 0.09419259428977966, -0.019459635019302368, 0.011424034833908081, 0.028421714901924133, -0.10059668123722076, -0.055415078997612, -0.08790101110935211, -0.11393830180168152, 0.04084497690200806, 0.025597602128982544, -0.06537538766860962, -0.026583582162857056, -0.1069759726524353, 0.01462504267692566, -0.08760583400726318, -0.1195683479309082, 0.052202627062797546, -0.04092125594615936, -0.006236091256141663, -0.03135058283805847, 0.05772791802883148, 0.015124678611755371, -0.11277306079864502, 0.04439133405685425, -0.026124969124794006, -0.013731703162193298, 0.0681479275226593, 0.055400148034095764, 0.02223162353038788, 0.029966041445732117, -0.06662905216217041, -0.06621377170085907, 0.11932322382926941, 0.006820082664489746, -0.018816903233528137, 0.08848835527896881, 0.06426069140434265, 0.07479284703731537, 0.04475843906402588, -0.029512539505958557, -0.09196287393569946, -0.013114646077156067, 0.030274808406829834, -0.0567173957824707, -0.033922821283340454, 0.0009284019470214844, -0.10386087000370026, -0.04244831204414368, 0.053718194365501404, -0.012018203735351562], [-0.10110210627317429, -0.018804248422384262, 0.0007506310939788818, 0.043425582349300385, 0.11454014480113983, 0.12081144750118256, -0.10565776377916336, 0.0267278291285038, -0.08159448206424713, -0.06769903004169464, 0.09158056229352951, -0.11802127957344055, 0.06702268123626709, 0.017508432269096375, -0.09735685586929321, -0.0074958354234695435, 0.13835260272026062, -0.11361975967884064, 0.013393925502896309, -0.07711824029684067, 0.02607549913227558, 0.10954072326421738, 0.005333439912647009, -0.11759831011295319, -0.04764805734157562, 0.09564128518104553, 0.0199984610080719, 0.1477659046649933, -0.03944001719355583, 0.063113734126091, 0.06252091377973557, 0.0024790544994175434, 0.07990792393684387, 0.11877670884132385, -0.011850587092339993, 0.11500633507966995, 0.10435701906681061, -0.11918441951274872, -0.11291506886482239, -0.08250614255666733, -0.036377523094415665, 0.004030480980873108, -0.03457269072532654, 0.030451439321041107, 0.017324507236480713, -0.015087470412254333, -0.030769536271691322, -0.05867793783545494, 0.05819866061210632, -0.08271170407533646, -0.04883117973804474, 0.11246459186077118, 0.008428829722106457, 0.042561162263154984, -0.09413839131593704, 0.04468785598874092, -0.09934279322624207, 0.014089665375649929, 0.03858193755149841, -0.07333492487668991, -0.09802484512329102, 0.11337146908044815, -0.09897203743457794, 0.10212985426187515], [-0.003796502947807312, 0.0032638811971992254, -0.06229422986507416, 0.01737772859632969, 0.0666220411658287, 0.013046497479081154, -0.04077361524105072, -0.0536113902926445, 0.0253659188747406, 0.07081356644630432, -0.005293211899697781, 0.09073634445667267, 0.001255914568901062, -0.00689832866191864, -0.08076107501983643, 0.054623931646347046, -0.048821061849594116, -0.04944770783185959, 0.09085717052221298, 0.020216021686792374, -0.011762941256165504, 0.049850743263959885, -0.10384425520896912, 0.09072907269001007, -0.08524422347545624, 0.060946986079216, 0.10320461541414261, 0.08508632332086563, 0.11064760386943817, -0.06311541050672531, -0.007863301783800125, -0.06412629783153534, -0.00701083242893219, 0.11976107954978943, 0.034604012966156006, -0.11693983525037766, -0.12001152336597443, 0.09935939311981201, -0.09764490276575089, 0.002797749824821949, 0.0839449018239975, 0.07327196002006531, 0.09914226084947586, -0.10347002744674683, -0.020050546154379845, 0.037891700863838196, -0.004188819322735071, -0.007890270091593266, -0.028105832636356354, -0.07099263370037079, 0.10259570181369781, 0.06683200597763062, -0.09489241242408752, 0.1218886598944664, -0.11673049628734589, 0.020162995904684067, 0.07501368224620819, -0.08227956295013428, -0.06935182213783264, -0.10812011361122131, -0.08855677396059036, 0.08538598567247391, -0.04719604551792145, -0.11654554307460785], [0.007110610604286194, -0.0973549634218216, -0.02276921272277832, 0.06791016459465027, -0.07280883193016052, 0.06133460998535156, -0.022569715976715088, -0.07843220233917236, -0.029378220438957214, 0.08030785620212555, 0.09274177253246307, -0.04634825885295868, 0.03557145595550537, -0.02366255223751068, 0.008679941296577454, -0.10508997738361359, -0.1162530779838562, 0.08562605082988739, 0.020699143409729004, -0.008692055940628052, 0.04787902534008026, 0.010763987898826599, 0.02141636610031128, 0.10575729608535767, -0.06718377768993378, -0.05673222243785858, 0.03861103951931, -0.09908793866634369, -0.11928264796733856, -0.1081208884716034, -0.03228910267353058, -0.06345966458320618, -0.046564966440200806, -0.027123048901557922, 0.0317552387714386, 0.0790901929140091, -0.06608575582504272, -0.03237880766391754, 0.02965165674686432, -0.017336294054985046, -0.11252878606319427, 0.047487229108810425, -0.0683402419090271, 0.02493719756603241, 0.11913013458251953, -0.11029955744743347, -0.08964131772518158, 0.10065208375453949, -0.07395753264427185, -0.08982570469379425, -0.015482544898986816, 0.05711880326271057, 0.07811728119850159, -0.10407741367816925, -0.07849135994911194, 0.11191841959953308, 0.0340554416179657, 0.0940723568201065, -0.011924982070922852, 0.08397303521633148, -0.07921922206878662, -0.08206050097942352, 0.06860114634037018, 0.11057542264461517], [0.08178645372390747, 0.0937466248869896, 0.05135263502597809, -0.015298235230147839, -0.033623188734054565, 0.10132622718811035, -0.0419108122587204, 0.09742878377437592, 0.10265733301639557, -0.013063251972198486, 0.016592729836702347, 0.025637000799179077, -0.016560137271881104, 0.060861602425575256, -0.1155179888010025, 0.10757404565811157, -0.0980604961514473, -0.06462187319993973, 0.08065309375524521, -0.04151441529393196, 0.016267066821455956, -0.09544526040554047, 0.09535063058137894, 0.11883923411369324, 0.01819748431444168, -0.05401398241519928, 0.03229348734021187, -0.0673103928565979, -0.040082015097141266, -0.08339221775531769, 0.0896611362695694, 0.04838024824857712, -0.08788135647773743, -0.03345997631549835, -0.01891711726784706, 0.09392354637384415, -0.10494755208492279, -0.0916304737329483, 0.08614416420459747, -0.034947723150253296, 0.052505042403936386, 0.11934652924537659, -0.06635504961013794, 0.1045086458325386, 0.1036553829908371, 0.03989496827125549, -0.11488644778728485, 0.10027991235256195, -0.031426526606082916, -0.027458176016807556, 0.02332441881299019, 0.009684497490525246, -0.03115619719028473, -0.06494233757257462, 0.10410556942224503, 0.06037624552845955, -0.01681278645992279, -0.11180147528648376, -0.004780620336532593, 0.014219104312360287, 0.06396793574094772, -0.11545837670564651, 0.08300603926181793, 0.06217658519744873], [-0.028095649555325508, -0.001303815864957869, 0.013373300433158875, 0.10004239529371262, -0.028717130422592163, -0.10390149056911469, 0.02913319319486618, 0.018105458468198776, 0.05106359347701073, 0.10637083649635315, 0.074337437748909, 0.10581523180007935, -0.04285283386707306, -0.10271251201629639, 0.06734339892864227, -0.032238975167274475, 0.12454980611801147, 0.1568482220172882, -0.03666148707270622, 0.021247023716568947, 0.03594007343053818, -0.08590693771839142, 0.003004562808200717, -0.07491771876811981, 0.0318836010992527, -0.014587536454200745, 0.016849027946591377, -0.006596921943128109, 0.09195785969495773, 0.1850850135087967, 0.0006944629130885005, 0.009415915235877037, -0.11501370370388031, 0.028334632515907288, -0.07072116434574127, 0.1209975853562355, -0.0873858779668808, -0.029417723417282104, -0.049551188945770264, -0.08540090918540955, 0.0531185045838356, -0.046458929777145386, -0.08524972200393677, -0.08143452554941177, -0.08675812929868698, -0.12470448017120361, -0.027890704572200775, 0.10745042562484741, -0.015867929905653, -0.0015917625278234482, -0.07258989661931992, -0.10709214955568314, 0.12461192160844803, 0.04192773252725601, 0.0491408035159111, -0.07059784233570099, 0.07637548446655273, 0.07972016930580139, -0.025285527110099792, -0.11446303874254227, 0.15283191204071045, 0.01705333963036537, -0.08292107284069061, -0.05411500483751297], [-0.09523293375968933, 0.11449704319238663, -0.05719134211540222, 0.06448151916265488, -0.08871433138847351, -0.1503649801015854, -0.049075253307819366, -0.07152626663446426, 0.03883755952119827, 0.09815919399261475, 0.10963477939367294, 0.08550120890140533, 0.027184128761291504, -0.05910469591617584, -0.12336534261703491, 0.09737761318683624, -0.12643446028232574, 0.16042731702327728, -0.05260687321424484, 0.051651403307914734, -0.03235117346048355, 0.004561783280223608, 0.05070621520280838, -0.11724096536636353, 0.07013324648141861, 0.07760612666606903, 0.03355012834072113, -0.040865905582904816, -0.009188522584736347, 0.0685596689581871, -0.11822520941495895, -0.03613627329468727, -0.037199005484580994, 0.1133052408695221, 0.06451259553432465, -0.0666620135307312, 0.055698245763778687, -0.09742194414138794, 0.05805573984980583, -0.10708050429821014, -0.06187829375267029, -0.07876536250114441, -0.15702800452709198, -0.010338865220546722, 0.09541729837656021, 0.11528366804122925, 0.03847319260239601, -0.0662115141749382, 0.09433946013450623, -0.060898084193468094, 0.07502772659063339, 0.11837698519229889, -0.09378277510404587, -0.012320944108068943, -0.11534497141838074, -0.08046790212392807, -0.007740601897239685, 0.11825896799564362, -0.006376981735229492, 0.09086024016141891, 0.14401189982891083, -0.11279574781656265, -0.02570667862892151, -0.08186288177967072], [-0.2554366886615753, -0.11349012702703476, 0.05964121222496033, 0.06616571545600891, 0.03326152265071869, -0.03338223323225975, 0.10797593742609024, -0.0884072333574295, -0.09535329788923264, 0.0694531500339508, -0.031365055590867996, -0.05322633683681488, -0.0284193754196167, -0.08353915810585022, -0.12295165657997131, -0.0744946300983429, 0.02615625597536564, 0.20783132314682007, -0.03565921261906624, 0.13112814724445343, -0.09394048154354095, 0.12652094662189484, -0.028840042650699615, 0.08622407913208008, 0.14481332898139954, -0.00620095431804657, 0.10018718242645264, -0.027846330776810646, 0.013585807755589485, 0.2681434452533722, 0.05916109308600426, -0.012579496949911118, 0.007173746824264526, -0.0767182856798172, -0.10848358273506165, -0.048149336129426956, -0.0710451751947403, 0.066984161734581, -0.005616812966763973, -0.10181824862957001, 0.09975931793451309, 0.028538808226585388, -0.18069122731685638, -0.044706933200359344, 0.1944398283958435, -0.09352312982082367, -0.004552697297185659, 0.005220941733568907, 0.3510521352291107, 0.12057057023048401, 0.22023363411426544, -0.0009558671154081821, -0.048714738339185715, -0.03306889906525612, -0.0851580947637558, -0.019647173583507538, -0.0902169793844223, 0.048016998916864395, 0.020041778683662415, 0.03815455734729767, 0.16829204559326172, 0.08267868310213089, -0.10266831517219543, 0.06720133870840073], [-0.0032529777381569147, -0.10980144143104553, 0.007318437099456787, 0.017473919317126274, 0.02929271012544632, 0.0817059874534607, 0.0716901570558548, 0.08476275950670242, -0.024485159665346146, -0.09461799263954163, 0.017085036262869835, -0.1240067332983017, -0.0040886253118515015, 0.03418351709842682, 0.08501574397087097, -0.09917861223220825, 0.0694308876991272, 0.16383573412895203, -0.145722895860672, -0.06206401810050011, 0.1243499219417572, -0.09967213124036789, 0.006384262349456549, -0.010395586490631104, 0.0007158617954701185, -0.11422201991081238, -0.032134152948856354, 0.039165593683719635, 0.0167124941945076, 0.0837126150727272, 0.056728463619947433, -0.0731130912899971, -0.03173072636127472, 0.04399915039539337, 0.06801244616508484, -0.027955155819654465, 0.004054859280586243, 0.07658033072948456, 0.016101479530334473, -0.06542561203241348, 0.0021620525512844324, 0.02531111240386963, -0.05042976140975952, 0.08578793704509735, 0.12939386069774628, -0.04862488806247711, -0.09495443105697632, -0.11333838105201721, 0.2255915403366089, 0.030510542914271355, 0.1422472894191742, 0.1335780918598175, -0.05302964150905609, -0.004015231039375067, -0.008425450883805752, -0.06911807507276535, 0.07841518521308899, -0.044145602732896805, 0.026427000761032104, -0.054836686700582504, 0.07956643402576447, 0.06028337776660919, -0.1033976823091507, 0.03648494929075241], [0.10456011444330215, -0.057447388768196106, -0.04020524024963379, -0.08114701509475708, -0.050737276673316956, 0.024857327342033386, 0.07336431741714478, 0.025850431993603706, -0.007405117154121399, 0.058634594082832336, -0.059129711240530014, 0.0325133353471756, 0.04516090452671051, 0.09848879277706146, 0.10994333028793335, -0.0798521339893341, -0.028836002573370934, -0.10604963451623917, -0.044100355356931686, -0.09855541586875916, 0.017677104100584984, -0.07727136462926865, 0.04058152437210083, -0.06383538246154785, 0.06723631173372269, -0.035349294543266296, -0.07757388800382614, -0.08423987776041031, 0.11397774517536163, 0.12411214411258698, 0.05895766615867615, 0.005281334277242422, -0.019565045833587646, -0.09387411177158356, 0.017245043069124222, 0.07303272932767868, -0.03942041099071503, 0.011963769793510437, 0.09985686093568802, -0.08320724964141846, -0.11892879009246826, 0.05516734719276428, 0.05487126111984253, 0.027437973767518997, -0.12439314275979996, -0.05621826648712158, 0.07212244719266891, -0.07249919325113297, -0.11136758327484131, 0.02696276269853115, 0.08048246800899506, -0.11963938921689987, -0.1090526133775711, 0.05295844376087189, -0.00877488311380148, 0.0470973402261734, 0.018342122435569763, -0.12290550768375397, 0.07978452742099762, -0.08980628103017807, -0.09327525645494461, 0.08259616047143936, 0.09636494517326355, -0.10387855768203735], [-0.07525976002216339, 0.022707657888531685, -0.06230625510215759, -0.08724236488342285, -0.04534393548965454, 0.08307322859764099, 0.05655312538146973, -0.022843731567263603, 0.09829813241958618, -0.05802004039287567, 0.06292001157999039, -0.02779318392276764, 0.0023772716522216797, 0.046876370906829834, 0.08409292995929718, -0.021904632449150085, 0.0999692901968956, -0.006325962021946907, -0.02445671707391739, 0.060583166778087616, 0.11668969690799713, -0.03965899348258972, -0.014730080962181091, -0.06754148006439209, -0.060299187898635864, -0.10855184495449066, -0.015618163160979748, 0.011867959052324295, -0.11053688824176788, 0.0022089153062552214, 0.00013879987818654627, 0.07314358651638031, 0.010351359844207764, -0.013549864292144775, 0.10123641788959503, -0.08670827001333237, -0.003034830093383789, -0.108514204621315, -0.11576101928949356, 0.0030513773672282696, 0.042490243911743164, 0.11225397884845734, -0.05211450532078743, -0.006704286206513643, -0.11525879800319672, -0.07598312199115753, 0.10959481447935104, -0.06984895467758179, -0.0002984429011121392, -0.0012850746279582381, 0.11085711419582367, -0.08719174563884735, 0.022411182522773743, 0.09164533019065857, 0.042529743164777756, -0.031080778688192368, 0.10667714476585388, -0.07340962439775467, 0.000805392861366272, -0.05884893238544464, 0.11237827688455582, 0.02100772224366665, -0.06875546276569366, -0.01814313232898712], [-0.00011079631804022938, -0.04715171456336975, -0.05993352830410004, 0.010893773287534714, -0.10934644192457199, -0.08684606850147247, 0.03536601364612579, -0.07646093517541885, -0.05265514552593231, 0.0007160753011703491, 0.1158885732293129, -0.11769354343414307, -0.037888482213020325, -0.05882194638252258, -0.06862138211727142, -0.031127646565437317, 0.11697180569171906, 0.060741424560546875, -0.0488903671503067, 0.1014813780784607, -0.0060884952545166016, 0.016238374635577202, -0.07496179640293121, 0.015530183911323547, -0.10484147071838379, -0.11970102787017822, -0.1216418668627739, -0.11984872817993164, 0.04470646381378174, -0.0848824679851532, -0.10894595086574554, -0.011563257314264774, 0.005838915705680847, -0.11228519678115845, -0.057015661150217056, -0.054140347987413406, -0.06274789571762085, -0.0454227477312088, 0.08828398585319519, -0.06700603663921356, -0.11757376790046692, -0.011303544044494629, 0.06987933069467545, -0.017748547717928886, 0.046669524163007736, 0.07726843655109406, 0.03720083832740784, -0.09540308266878128, -0.08425910025835037, 0.09093540906906128, 0.012005815282464027, -0.06830426305532455, -0.04605662822723389, 0.01403401792049408, -0.08418846130371094, 0.10277591645717621, 0.08858969807624817, 0.03917713463306427, -0.03576585650444031, -0.06201162934303284, -0.0031538407783955336, -0.07096806168556213, 0.003152981400489807, 0.10144945979118347], [0.33586496114730835, -0.12276510149240494, 0.10764625668525696, 0.124268539249897, 0.2771666646003723, 0.0070337336510419846, 0.08377629518508911, 0.24699988961219788, -0.00010252954962197691, -0.051622048020362854, 0.04260821267962456, 0.01325330138206482, -0.07745818793773651, 0.11585262417793274, -0.12419393658638, 0.0820758193731308, 0.04330543056130409, -0.05621115863323212, 0.13510972261428833, -0.12766070663928986, 0.11995481699705124, 0.056369759142398834, 0.10810714960098267, -0.023954227566719055, -0.08291247487068176, -0.10800501704216003, -0.15865878760814667, 0.0582185760140419, 0.05786706134676933, -0.0704028531908989, -0.00759138585999608, 0.005456745624542236, 0.11421346664428711, -0.062422797083854675, 0.003289696527644992, 0.012418167665600777, -0.05827261507511139, -0.023519665002822876, 0.03847859427332878, 0.058447837829589844, 0.0031504908110946417, 0.11602605879306793, 0.23676733672618866, 0.1335463672876358, -0.14489999413490295, 0.09377101063728333, -0.08230340480804443, 0.18930301070213318, -0.18886972963809967, -0.18383298814296722, -0.15159571170806885, -0.056641586124897, 0.0007546617998741567, -0.03177526965737343, 0.10461267083883286, 0.0378572940826416, -0.03385096788406372, -0.054483454674482346, 0.050022512674331665, 0.12973017990589142, 0.16035854816436768, -0.12332545220851898, 0.06336526572704315, -0.07301449775695801], [0.03721530735492706, -0.008283358067274094, -0.0283287912607193, 0.12413392215967178, -0.0010140999220311642, 0.004280754365026951, 0.11895925551652908, 0.008482836186885834, 0.04812396317720413, -0.00457802414894104, -0.031281109899282455, -0.09333404898643494, 0.08188800513744354, 0.04841397702693939, 0.01714080572128296, -0.05789931118488312, 0.03303446248173714, -0.08943501114845276, 0.1347811222076416, -0.036497339606285095, -0.09835649281740189, 0.1175505742430687, -0.047790125012397766, -0.053197428584098816, 0.038883842527866364, 0.04147997498512268, -3.1245328955264995e-06, -0.05918015539646149, 0.031036650761961937, -0.06075932830572128, 0.03946894779801369, 0.08820154517889023, -0.1145000010728836, -0.03737613558769226, 0.08401808142662048, 0.13842235505580902, 0.08333948254585266, 0.09467929601669312, -0.09489749372005463, 0.06401282548904419, -0.11904235184192657, 0.04548993706703186, 0.13797461986541748, 0.0031618147622793913, 0.0686841681599617, -0.07733149826526642, 0.11575456708669662, 0.005428086034953594, 0.059031181037425995, -0.08495630323886871, 0.07148217409849167, -0.036032915115356445, 0.05244116857647896, 0.09580834209918976, -0.0533418171107769, 0.11119284480810165, -0.03622572124004364, -0.017931517213582993, -0.05858460068702698, -0.0884045884013176, 0.03689366951584816, 0.011071896180510521, 0.028586581349372864, 0.017095442861318588], [-0.05020669475197792, -0.03304100036621094, -0.022957324981689453, -0.03217063099145889, -0.13350313901901245, -0.0664966031908989, 0.07908915728330612, 0.024297544732689857, 0.009725707583129406, 0.0738300234079361, 0.03954460471868515, 0.11163243651390076, 0.03301779925823212, -0.049051642417907715, 0.10968492925167084, -0.001255229115486145, 0.046951133757829666, -0.11787423491477966, -0.03616496920585632, -0.11415581405162811, 0.07753387093544006, 0.07796016335487366, 0.014579427428543568, 0.013680785894393921, 0.014555856585502625, -0.06751415133476257, 0.11067964881658554, 0.061216939240694046, 0.08951243758201599, -0.03149285912513733, 0.02130315825343132, -0.011128588579595089, 0.004982367157936096, 0.02557799220085144, 0.058325883001089096, 0.02664746530354023, 0.011958733201026917, -0.043244123458862305, 0.021366264671087265, -0.02812204509973526, 0.033073991537094116, 0.01099713146686554, 0.06637722998857498, 0.0333726592361927, -0.08887351304292679, -0.12080036103725433, -0.08748035132884979, 0.0062828054651618, -0.02229563146829605, -0.05686573311686516, -0.061893537640571594, 0.06394044309854507, -0.02221253514289856, 0.012206153944134712, -0.062912218272686, -0.01481186505407095, 0.08132873475551605, 0.08214663714170456, 0.022792771458625793, -0.0189150832593441, 0.029103167355060577, 0.02384614199399948, 0.023784056305885315, -0.12131915241479874], [-0.03524715080857277, 0.0896928608417511, 0.021541282534599304, 0.09114222228527069, 0.12431203573942184, -0.1306028664112091, 0.10293500870466232, 0.05615801364183426, -0.08132363110780716, 0.056217074394226074, 0.057640738785266876, 0.10634908080101013, -0.0020872503519058228, 0.10490778088569641, 0.0609818696975708, 0.08131739497184753, 0.013524188660085201, -0.005316115915775299, -0.07430970668792725, -0.11611703783273697, 0.02432049624621868, 0.0843832716345787, 0.048630375415086746, 0.010985270142555237, -0.05661753937602043, -0.09573158621788025, -0.15842437744140625, 0.08526281267404556, -0.018830977380275726, 0.0705355852842331, -0.10946723073720932, -0.006569696124643087, -0.004544690251350403, 0.01232728362083435, -0.12239283323287964, -0.1156064048409462, 0.006359279155731201, 0.02270515263080597, -0.013682707212865353, 0.1246987134218216, 0.05135592445731163, -0.02832813560962677, -0.12161637097597122, 0.05916711688041687, -0.06390047073364258, 0.08489750325679779, -0.07000147551298141, -0.06217954307794571, -0.010438205674290657, -0.09141241014003754, -0.082728311419487, -0.011697684414684772, -0.12053150683641434, -0.06639842689037323, -0.11028022319078445, 0.05169888213276863, -0.0956069827079773, 0.09482969343662262, 0.06077715754508972, -0.09006085246801376, 0.06510896980762482, 0.00422314926981926, 0.017089009284973145, -0.09368936717510223], [0.053024664521217346, 0.06681978702545166, -0.014907106757164001, -0.03727451339364052, -0.07888089120388031, -0.0640019029378891, 0.07560867816209793, -0.06517896056175232, 0.015446024015545845, 0.07321146130561829, 0.02406717650592327, 0.0363590270280838, 0.12299764156341553, 0.08775869011878967, -0.0938214659690857, 0.10366114974021912, -0.01209469884634018, 0.08902599662542343, 0.12130765616893768, -0.09662356972694397, -0.042348507791757584, 0.07864422351121902, 0.04972200095653534, -0.019532933831214905, -0.07944659143686295, -0.11696891486644745, 0.021295253187417984, 0.09375807642936707, -0.0864643082022667, -0.0874335840344429, -0.06443663686513901, -0.11000582575798035, -0.027237534523010254, -0.09260597825050354, 0.03864920884370804, 0.02328779734671116, -0.03362642228603363, 0.05373765528202057, -0.03307538479566574, 0.06010483205318451, 0.10201582312583923, 0.011519595980644226, 0.025806816294789314, 0.1065823957324028, -0.060520708560943604, 0.04770450294017792, 0.11980215460062027, -0.06997473537921906, -0.0752759724855423, 0.07906578481197357, -0.01784304715692997, 0.036312904208898544, 0.1197698712348938, -0.10634475201368332, -0.051190584897994995, -0.0775379091501236, 0.06810219585895538, -0.11782222986221313, 0.05132541060447693, 0.0613953098654747, -0.11461181193590164, -0.12130510807037354, 0.08070696890354156, -0.020559579133987427], [-0.07759727537631989, 0.1110496073961258, -0.007002145051956177, -0.005897114519029856, 0.16498541831970215, -0.05097407102584839, -0.05536286160349846, 0.11239632219076157, 0.005819819401949644, -0.009800389409065247, 0.11241594702005386, 0.016031458973884583, 0.0018948167562484741, 0.0955495834350586, 0.1192844957113266, 0.03424425423145294, 0.040756773203611374, 0.25948721170425415, -0.02788335457444191, 0.1567443609237671, -0.0947706401348114, 0.0067156050354242325, -0.0450500026345253, -0.0249631404876709, -0.03640960529446602, -0.1067691445350647, 0.0616065077483654, 0.05682666599750519, 0.041635170578956604, 0.2570943534374237, -0.15618297457695007, -0.043457649648189545, -0.0646112859249115, 0.05456867814064026, -0.08660776913166046, -0.010837720707058907, 0.038074105978012085, -0.0629379004240036, -0.0891830325126648, 0.045314427465200424, -0.09743013232946396, 0.0051030367612838745, -0.037479519844055176, 0.0446656197309494, 0.01725923828780651, 0.11685653030872345, -0.09736177325248718, -0.020421909168362617, 0.2849620580673218, -0.10876430571079254, 0.02288661152124405, -0.04364653304219246, 0.03818706423044205, 0.07495076954364777, 0.09782528132200241, -0.07702554762363434, 0.10736323893070221, 0.0544152557849884, -0.12379533052444458, -0.04326963797211647, 0.08614882826805115, 0.07844843715429306, 0.014924183487892151, 0.07381506264209747], [-0.08706077933311462, 0.10931100696325302, -0.053588077425956726, 0.02189762145280838, -0.0600055567920208, 0.001250433619134128, -0.06879550218582153, 0.11786685883998871, -0.013937264680862427, 0.10940711200237274, -0.0894937589764595, 0.08978526294231415, 0.008809655904769897, 0.0065343379974365234, -0.04237690567970276, -0.11216199398040771, -0.08204764127731323, -0.024746065959334373, 0.03544998914003372, 0.045035265386104584, -0.07995721697807312, -0.07579358667135239, 0.0987200140953064, 0.06597757339477539, -0.09982419013977051, 0.012538865208625793, -0.07936461269855499, 0.09929385036230087, 0.07894383370876312, 0.08495524525642395, 0.12001702934503555, -0.04966181144118309, -0.04698638617992401, 0.0985770970582962, -0.04385741800069809, -0.1079322025179863, 0.10600310564041138, -0.04025822877883911, 0.0712551698088646, -0.10708867758512497, 0.08507373929023743, -0.06900738179683685, -0.019560936838388443, 0.09605689346790314, -0.019083907827734947, -0.030648529529571533, 0.009038238786160946, -0.08803936094045639, 0.06912458688020706, 0.029054826125502586, 0.0062770843505859375, -0.06824512034654617, 0.0004849318356718868, 0.06819525361061096, 0.0609019510447979, 0.008862282149493694, 0.0638071596622467, 0.04672938212752342, 0.06764985620975494, 0.09193405508995056, -0.06651806831359863, -0.05336848273873329, 0.10505005717277527, 0.0356326699256897], [-0.013631880283355713, -0.08298775553703308, 0.04978150129318237, 0.060234054923057556, -0.08435027301311493, -0.06702162325382233, 0.07892787456512451, -0.11378945410251617, 0.11052578687667847, -0.0964268147945404, 0.09955115616321564, 0.08957982063293457, -0.07639151811599731, 0.12379702925682068, 0.055111780762672424, 0.005726754665374756, -0.01829896867275238, 0.06359851360321045, -0.09633727371692657, -0.0010668635368347168, 0.059057533740997314, -0.08764125406742096, -0.013146281242370605, -0.06809870898723602, -0.04738415777683258, 0.09417235851287842, 0.06288455426692963, -0.03681665658950806, -0.009337097406387329, -0.1157025694847107, -0.1107785552740097, -0.029623419046401978, -0.08078084886074066, -0.1050264835357666, 0.09690098464488983, 0.08124776184558868, -0.06569190323352814, 0.09218287467956543, -0.0717625617980957, -0.08404611051082611, -0.03282195329666138, 0.06162981688976288, -0.11893130838871002, 0.03263379633426666, -0.11829666793346405, -0.08845128118991852, 0.09292443096637726, -0.11071935296058655, -0.07446525990962982, 0.11891436576843262, -0.0254276841878891, 0.027200400829315186, -0.009565919637680054, -0.04240182042121887, 0.051753342151641846, -0.12145939469337463, -0.0426764190196991, 0.050395309925079346, -0.11627380549907684, 0.10845881700515747, 0.09020185470581055, 0.09646113216876984, 0.05751091241836548, 0.003621995449066162], [-0.09066170454025269, -0.09627047181129456, 0.08345896005630493, -0.021318277344107628, -0.0021488480269908905, -0.19778749346733093, -0.03569318354129791, -0.059817153960466385, 0.030263176187872887, 0.057699620723724365, -0.0022298567928373814, -0.1146010160446167, -0.1171446293592453, 0.034066468477249146, -0.1066121906042099, -0.013105213642120361, -0.006617640145123005, 0.15246517956256866, -0.06895138323307037, 0.12944740056991577, -0.0815233439207077, -0.054935745894908905, -0.08678535372018814, -0.0595635324716568, 0.112672820687294, 0.12418507039546967, -0.15714053809642792, -0.11698673665523529, 0.10132063180208206, 0.07931455969810486, 0.028524894267320633, 0.023915108293294907, 0.10372716188430786, 0.04567970335483551, 0.028930485248565674, 0.08853153884410858, -0.07237868010997772, 0.07534633576869965, 0.02092755399644375, -0.0844457671046257, 0.047526076436042786, 0.010551735758781433, -0.2619222402572632, 0.01669156365096569, -0.0507897324860096, -0.11421996355056763, 0.039606284350156784, -0.13413839042186737, 0.24022206664085388, 0.11439887434244156, 0.07514812052249908, -0.0459415428340435, 0.022150514647364616, 0.06907563656568527, 0.047056276351213455, -0.010083617642521858, 0.08679318428039551, -0.029564524069428444, 0.08780603110790253, -0.11760421842336655, 0.12726949155330658, 0.05301545187830925, -0.024174943566322327, 0.10039877146482468], [0.056963928043842316, 0.04161248356103897, -0.06258447468280792, -0.029726702719926834, 0.057131409645080566, -0.01062657032161951, -0.05515917390584946, 0.03453567996621132, -0.11550720781087875, 0.10222719609737396, -0.02816084586083889, 0.07327812910079956, 0.026781484484672546, -0.10577820241451263, 0.08358128368854523, 0.07271753251552582, 0.05218853801488876, 0.09929978847503662, 0.0592905692756176, -0.09270116686820984, 0.09103375673294067, -0.12431857734918594, -0.07441715151071548, 0.07636885344982147, -0.07702776789665222, -0.007655397057533264, -0.028770145028829575, 0.10208752006292343, 0.08763273060321808, 0.034107986837625504, -0.10826771706342697, 0.04518260061740875, -0.030583634972572327, 0.09603261947631836, 0.056736938655376434, 0.04978850483894348, -0.113305002450943, 0.023063287138938904, -0.031805120408535004, -0.028986604884266853, 0.08542300760746002, 0.06003120541572571, -0.08190884441137314, -0.004497144371271133, -0.09919032454490662, -0.05373528599739075, 0.12539689242839813, -0.037986576557159424, 0.035107340663671494, -0.11022814363241196, 0.0646212175488472, 0.044730935245752335, -0.07438240200281143, 0.11500861495733261, -0.10055318474769592, 0.05461126193404198, -0.1089981347322464, 0.061764348298311234, -0.06437377631664276, -0.08100035786628723, 0.09240579605102539, -0.09128125011920929, -0.0002516806125640869, -0.1183842122554779], [0.06307567656040192, -0.1097671389579773, 0.02335551381111145, -0.11868450045585632, 0.11276538670063019, -0.0290127694606781, 0.06297004222869873, -0.03399375081062317, 0.05987270176410675, 0.09959520399570465, -0.12331759929656982, -0.03304260969161987, -0.0031713545322418213, -0.004642456769943237, -0.03573611378669739, 0.01786486804485321, -0.02738770842552185, -0.11780057847499847, 0.014149516820907593, 0.010091513395309448, -0.004402324557304382, -0.042584747076034546, -0.09847159683704376, 0.09998781979084015, -0.06740272045135498, 0.07118915021419525, -0.12432534992694855, -0.12484109401702881, -0.11094021797180176, 0.08537666499614716, -0.041430920362472534, -0.08148054778575897, 0.08012384176254272, 0.05983994901180267, 0.03007441759109497, 0.07714879512786865, 0.10357306897640228, -0.09265626966953278, -0.08015432953834534, 0.11035391688346863, -0.07857507467269897, -0.02743855118751526, -0.08761714398860931, -0.03364449739456177, -0.03618378937244415, -0.031346291303634644, -0.10476402938365936, -0.04358172416687012, -0.09995132684707642, -0.013869091868400574, -0.009481891989707947, 0.037625640630722046, 0.0991019755601883, 0.03850303590297699, -0.0950390100479126, 0.027808651328086853, -0.08369289338588715, 0.06591683626174927, -0.01584470272064209, 0.08043065667152405, -0.025898203253746033, 0.022077172994613647, -0.11375313997268677, -0.12142005562782288], [0.06294912844896317, -0.035790055990219116, -0.042955249547958374, -0.047641608864068985, 0.10312888771295547, -0.0005292743444442749, -0.07351107895374298, -0.06022404879331589, 0.022650867700576782, -0.021267756819725037, -0.07278735190629959, 0.07352283596992493, -0.11003616452217102, 0.0350174605846405, -0.09047755599021912, 0.058759599924087524, -0.10841280221939087, 0.0401022844016552, 0.04049187898635864, 0.04120546951889992, 0.046258438378572464, -0.0623834952712059, 0.09979499876499176, 0.04938630759716034, 0.02942650578916073, -0.008973583579063416, 0.06644462794065475, 0.07115243375301361, 0.08333810418844223, 0.05995792895555496, 0.04650305211544037, 0.045061469078063965, 0.03958664834499359, -0.0998440533876419, 0.11433471739292145, 0.10228794813156128, -0.11406859755516052, -0.010841667652130127, -0.10925105214118958, -0.09938323497772217, -0.03809720277786255, 0.02942018210887909, 0.03921927884221077, 0.029050692915916443, -0.08438197523355484, -0.05487115681171417, -0.11108072847127914, 0.012323389761149883, -0.09978475421667099, -0.00705281225964427, -0.007864238694310188, -0.017665604129433632, 0.10395923256874084, -0.019972726702690125, -0.11006713658571243, 0.10814058780670166, 0.09887869656085968, -0.04944787174463272, 0.11875243484973907, 0.06536313146352768, -0.07229357212781906, 0.055271536111831665, -0.09866650402545929, -0.07152548432350159], [-0.03878648579120636, -0.03425772488117218, 0.027329623699188232, 0.09848618507385254, -0.08965058624744415, -0.0299547016620636, 0.03336559236049652, -0.09886425733566284, 0.11768956482410431, 0.02808043360710144, -0.07008253037929535, -0.014430955052375793, 0.09514451026916504, 0.09367786347866058, -0.09601657092571259, -0.04386451840400696, -0.00776749849319458, -0.039765775203704834, -0.11771194636821747, -0.0066025108098983765, 0.08569219708442688, -0.08112634718418121, -0.054973021149635315, -0.06335759162902832, 0.08817434310913086, 0.020404770970344543, -0.02662120759487152, -0.022358432412147522, -0.000600665807723999, 0.01751638948917389, 0.05551959574222565, -0.05615372955799103, 0.07876220345497131, 0.008280068635940552, 0.028215184807777405, 0.05444164574146271, 0.04449911415576935, 0.09260010719299316, -0.03574320673942566, 0.017508000135421753, 0.063187375664711, -0.1090657114982605, -0.015654563903808594, 0.0295354425907135, -0.009349241852760315, -0.05225314199924469, -0.026585176587104797, 0.03217765688896179, -0.08950480818748474, 0.08572986721992493, -0.008012428879737854, -0.0988893061876297, -0.06742967665195465, 0.11147069931030273, 0.012115716934204102, 0.04933890700340271, 0.05950529873371124, -0.09951213002204895, 0.028343334794044495, -0.0356287807226181, -0.1229901909828186, -0.09429050981998444, -0.018177121877670288, -0.11767245829105377], [-0.037602633237838745, 0.022373367100954056, -0.06138433516025543, -0.013736952096223831, 0.12105058878660202, 0.020954415202140808, 0.04750610888004303, 0.1013370081782341, -0.12490705400705338, -0.10268931090831757, -0.05954193323850632, -0.07614865899085999, -0.037915587425231934, -0.08059771358966827, -0.06581039726734161, -0.10041722655296326, -0.09361343085765839, 0.05770371854305267, 0.011019203811883926, -0.01513941865414381, 0.07782533019781113, 0.1047934964299202, -0.08689454197883606, 0.0793483555316925, -0.07009989023208618, -0.06982412934303284, -0.05166418477892876, 0.09888748824596405, -0.06496088951826096, 0.08910899609327316, -0.11043408513069153, -0.06208360195159912, -0.11456702649593353, -0.027466028928756714, 0.07584166526794434, -0.07867292314767838, 0.10219380259513855, 0.11992816627025604, -0.08183525502681732, -0.08379301428794861, -0.05281497538089752, 0.008926182985305786, 0.07012712955474854, -0.09746121615171432, -0.0213765986263752, -0.049102723598480225, 0.10957369208335876, 0.0674104318022728, -0.10169652849435806, -0.023120734840631485, -0.05249699577689171, 0.029534436762332916, 0.061676159501075745, -0.12170341610908508, 0.004268571734428406, -0.0014306086814031005, 0.04807262122631073, 0.07184785604476929, 0.03924174606800079, -0.09469449520111084, 0.0062934523448348045, -0.02599487267434597, -0.041269391775131226, 0.011052376590669155], [-0.10297226905822754, 0.0034789741039276123, -0.08688060939311981, -0.021164916455745697, -0.014029963873326778, 0.052195001393556595, 0.0725424662232399, -0.0684797391295433, 0.10529173910617828, 0.1168389618396759, -0.12020629644393921, -0.07711982727050781, 0.04355977475643158, -0.11011232435703278, -0.03617122769355774, 0.11005128920078278, -0.08598685264587402, 0.03202301263809204, -0.08968193829059601, -0.05171196535229683, 0.06356377899646759, -0.1104571595788002, -0.011847532354295254, -0.07776501774787903, 0.12043280899524689, 0.04011678695678711, -0.05863150581717491, 0.09104634076356888, -0.0316031277179718, 0.07482181489467621, -0.12295155227184296, -0.08774296194314957, 0.09885656833648682, -0.05884431302547455, -0.08109677582979202, -0.056839823722839355, 0.07720908522605896, 0.07124732434749603, 0.05508081242442131, 0.039526402950286865, 0.06865185499191284, 0.03800395131111145, 0.04268783703446388, 0.0035765094216912985, 0.08084677904844284, -0.007288873195648193, -0.033919911831617355, -0.015742789953947067, -0.0989813581109047, -0.08838051557540894, -0.10729053616523743, -0.0836285650730133, 0.01722957193851471, -0.10041925311088562, -0.029379356652498245, 0.0942772924900055, 0.02344334125518799, 0.007652877829968929, 0.1180470734834671, -0.11268778145313263, 0.06844419986009598, -0.0957925096154213, -0.12273047864437103, 0.0938042551279068], [-0.02254282683134079, 0.026664573699235916, 0.10394448041915894, -0.06395377218723297, 0.09313763678073883, 0.026575550436973572, -0.03559644892811775, 0.039516083896160126, 0.09737726300954819, -0.05013689398765564, -0.07305024564266205, 0.00925186276435852, 0.0816606879234314, 0.0011254996061325073, -0.028937101364135742, -0.10500477254390717, 0.11022620648145676, -0.06667691469192505, 0.09313064813613892, -0.09958614408969879, -0.12177472561597824, -0.0369885079562664, -0.01939346455037594, -0.08238282799720764, -0.03588351607322693, 0.03003200888633728, -0.10328198969364166, 0.10433150082826614, 0.07720030844211578, -0.03239735960960388, -0.03394438698887825, -0.05483681708574295, -0.08455806970596313, 0.03970138728618622, 0.026838170364499092, 0.061469316482543945, -0.10289841890335083, 0.05343696475028992, 0.03466729447245598, 0.04382280632853508, -0.04571758210659027, -0.10003282129764557, -0.07524090260267258, -0.01678849384188652, -0.08518525213003159, 0.00821007788181305, 0.07426047325134277, -0.10958265513181686, -0.0086970841512084, 0.08408908545970917, -0.0745619535446167, 0.06796117126941681, -0.018739255145192146, 0.12846575677394867, -0.022522689774632454, 0.07031615078449249, -0.06675682961940765, 0.11975529044866562, -0.0003917515277862549, 0.021422941237688065, 0.11932457238435745, -0.026534387841820717, 0.017940953373908997, -0.09685992449522018], [-0.031038567423820496, -0.09915958344936371, -0.040723830461502075, -0.11710160970687866, -0.10928584635257721, -0.014884427189826965, 0.11732181906700134, 0.0049555301666259766, -0.052564337849617004, 0.0272548645734787, 0.11498481035232544, 0.02575942873954773, 0.10335581004619598, -0.05485232174396515, -0.042794644832611084, -0.0671670138835907, 0.018197864294052124, -0.0014511346817016602, -0.10185398161411285, -0.0829332172870636, -0.020744547247886658, -0.055153608322143555, 0.045876502990722656, -0.10208694636821747, -0.08056402206420898, -0.028021186590194702, 0.02946186065673828, -0.07463547587394714, 0.03410153090953827, -0.011956900358200073, -0.07135413587093353, -0.12350070476531982, -0.004987359046936035, 0.064872607588768, 0.10740785300731659, -0.07415898144245148, 0.10558734834194183, -0.10939261317253113, 0.005452975630760193, 0.06507788598537445, -0.09964516758918762, 0.08750477433204651, 0.12447747588157654, -0.030250459909439087, 0.11063668131828308, -0.12456394731998444, -0.02011910080909729, -0.05699315667152405, 0.03042951226234436, -0.01573885977268219, -0.037528008222579956, -0.01939186453819275, -0.07676440477371216, -0.046756595373153687, -0.027665644884109497, 0.02238216996192932, 0.11251287162303925, 0.06366986036300659, -0.02552253007888794, -0.09084345400333405, 0.11561989784240723, -0.056870102882385254, -0.09611299633979797, 0.1197948157787323], [-0.09564727544784546, 0.012582138180732727, 0.03627583384513855, -0.08539813756942749, 0.04445710778236389, 0.08197017014026642, -0.022276222705841064, 0.07607728242874146, 0.02399413287639618, -0.08731184899806976, 0.10102099180221558, 0.038117051124572754, -0.02663692831993103, -0.08911822736263275, 0.11895474791526794, -0.09489713609218597, 0.10878323018550873, -0.03354513645172119, 0.006552413105964661, -0.06739409267902374, 0.08981755375862122, 0.10374677181243896, 0.11841517686843872, -0.04276636242866516, -0.05454355478286743, 0.11751525104045868, -0.06854663789272308, 0.014847785234451294, 0.002076759934425354, -0.08383791148662567, 0.028577685356140137, -0.08949653804302216, -0.03843672573566437, -0.0010750144720077515, 0.04202669858932495, -0.058990031480789185, -0.027570828795433044, -0.043588101863861084, 0.02125982940196991, 0.034940317273139954, -0.03391827642917633, -0.10227373242378235, -0.1246451586484909, -0.024240821599960327, 0.029030293226242065, 0.019189953804016113, -0.005654498934745789, -0.06176362931728363, 0.012191012501716614, -0.066300168633461, -0.07427452504634857, 0.11466479301452637, 0.0005044937133789062, -0.016937941312789917, -0.054775625467300415, 0.04003430902957916, 0.04578375816345215, -0.10494470596313477, 0.08339360356330872, -0.08444072306156158, 0.017294317483901978, -0.009070426225662231, -0.037081435322761536, 0.08213920891284943], [-0.024097658693790436, 0.08782525360584259, -0.052419304847717285, 0.15824148058891296, 0.017523404210805893, 0.13187485933303833, 0.042221587151288986, -0.06856327503919601, 0.03187953680753708, -0.06544505059719086, 0.08192085474729538, 0.06419792771339417, -0.09397312998771667, 0.022846132516860962, 0.12165369093418121, 0.08843010663986206, 0.08503618091344833, 0.12235048413276672, 0.053096968680620193, -0.12683016061782837, 0.11659181118011475, -0.023536967113614082, -0.07886193692684174, -0.056461915373802185, -0.09123064577579498, -0.04288491606712341, -0.02268402837216854, -0.03535116836428642, -0.010936882346868515, -0.11812303960323334, 0.11203671246767044, -0.06781548261642456, 0.06329993903636932, -0.070640429854393, -0.03985869139432907, 0.013717468827962875, -0.03408081829547882, 0.12089201807975769, -0.04195202514529228, 0.03638690710067749, 0.01567530632019043, -0.12157928943634033, 0.06358494609594345, 0.009302720427513123, 0.07530198991298676, 0.06756706535816193, -0.09981820732355118, 0.12298458069562912, -0.14443132281303406, -0.06892339885234833, -0.08271075040102005, -0.0916350930929184, 0.02724144421517849, 0.07890871167182922, -0.09367121756076813, 0.08514169603586197, -0.07391174137592316, -0.11615180224180222, 0.028318360447883606, 0.07952283322811127, 0.06287620961666107, 0.0046563660725951195, 0.041504889726638794, -0.10862968116998672], [-0.09793229401111603, 0.008074615150690079, -0.014650478959083557, -0.10828576236963272, 0.037444762885570526, -0.07899931818246841, 0.017438698559999466, -0.013063433580100536, -0.0694563165307045, -0.11059030890464783, 0.10708597302436829, -0.12236495316028595, -0.09037730097770691, -0.09786786139011383, 0.06721222400665283, -0.002036377787590027, -0.05621469393372536, 0.031680721789598465, -0.04943237826228142, 0.09960668534040451, -0.042357929050922394, -0.04115067794919014, -0.06415315717458725, -0.027917802333831787, -0.003081483067944646, -0.04792247712612152, 0.02021738700568676, 0.08237175643444061, 0.10942447930574417, -0.0641423761844635, 0.02083623595535755, -0.051338911056518555, -0.022076651453971863, 0.05682834982872009, 0.11795674264431, -0.04960494861006737, 0.022011205554008484, -0.1104179173707962, 0.06475969403982162, -0.02201336994767189, 0.04807610809803009, -0.12434101104736328, -0.07365640252828598, 0.003379990579560399, 0.04151242598891258, -0.045362114906311035, 0.04826347529888153, 0.030310403555631638, -0.12927550077438354, 0.09363114088773727, 0.05066793039441109, 0.10753723233938217, 0.029073014855384827, 0.11679140478372574, 0.006512708030641079, -0.01931949146091938, 0.04350130259990692, 0.027032561600208282, 0.0699857622385025, -0.0727236270904541, 0.07855037599802017, 0.048462990671396255, -0.06837595999240875, -0.010815066285431385], [-0.19590313732624054, 0.11663772165775299, -0.04135949909687042, -0.04153190180659294, -0.15927746891975403, -0.0913868397474289, -0.034606851637363434, -0.14651764929294586, -0.0013478681212291121, -0.03494398295879364, -0.029457159340381622, 0.06752051413059235, 0.08121536672115326, -0.07322445511817932, -0.11760573089122772, -0.0726756751537323, 0.05097992345690727, 0.13650554418563843, 0.054802004247903824, 0.12900134921073914, 0.0285098347812891, -0.05811820551753044, 0.08240516483783722, 0.07059186697006226, 0.06921693682670593, 0.11082004010677338, 0.11345933377742767, 0.09671001136302948, -0.035596057772636414, 0.1532212644815445, 0.04020822048187256, 0.049248725175857544, 0.11619885265827179, -0.12154163420200348, 0.11830462515354156, 0.06345830857753754, 0.04727943241596222, -0.05415196716785431, 0.08097149431705475, -0.053595371544361115, -0.09845954924821854, 0.038447603583335876, -0.15769165754318237, 0.014831150881946087, -0.049494363367557526, 0.04345583915710449, -0.04994362220168114, 0.042950209230184555, -0.022234637290239334, -0.07888416200876236, 0.034345563501119614, -0.08239436894655228, -0.09295187890529633, -0.06079873442649841, -0.004398451652377844, 0.0995180681347847, -0.12200911343097687, 0.11905286461114883, -0.10746218264102936, -0.0806846022605896, 0.12694284319877625, 0.12263654172420502, 0.11347374320030212, 0.021346017718315125], [0.07325699925422668, 0.08865174651145935, 0.009793654084205627, 0.10174936056137085, 0.12615779042243958, 0.11070606112480164, 0.0646316260099411, 0.1084185466170311, 0.11681036651134491, -0.040835052728652954, -0.13266532123088837, -0.030425027012825012, 0.08756102621555328, -0.03398631513118744, 0.11320112645626068, 0.10060428082942963, 0.11278243362903595, -0.00600481778383255, 0.012867461889982224, -0.10608085989952087, -0.09130989015102386, 0.07625165581703186, -0.07477977871894836, -0.002520635724067688, -0.07787550240755081, -0.01463066041469574, 0.021359676495194435, 0.15197549760341644, 0.14155031740665436, -0.0731949731707573, 0.042298123240470886, 0.10055544972419739, 0.07686585187911987, 0.0587177574634552, 0.08807626366615295, 0.1172308623790741, -0.10673011839389801, -0.009367436170578003, 0.1386726349592209, -0.11600220203399658, -0.026728685945272446, -0.08657382428646088, 0.05494304373860359, -0.055133819580078125, -0.04144398495554924, 0.11665256321430206, 0.0379294827580452, -0.06347151845693588, -0.08014526218175888, 0.0902845486998558, 0.03614787757396698, -0.10127736628055573, -0.07339467853307724, 0.06237005442380905, -0.01772858388721943, -0.04260249808430672, -0.038016244769096375, -0.019241798669099808, -0.12073828279972076, 0.09759824723005295, -0.06816761195659637, -0.006492182146757841, -0.10452061891555786, 0.047459427267313004], [0.0470181368291378, 0.11046113073825836, -0.029427722096443176, -0.023114454001188278, 0.057751674205064774, 0.006068304181098938, 0.06859774887561798, -0.05385233089327812, 0.054583095014095306, 0.07638679444789886, 0.0004979389486834407, -0.08323445916175842, 0.09220536053180695, 0.07645340263843536, -0.11665594577789307, 0.08908575773239136, 0.021011704578995705, 0.05917595326900482, -0.12497061491012573, 0.05802974849939346, 0.08916886150836945, 0.04514344409108162, 0.10071052610874176, 0.1056995838880539, 0.07661132514476776, -0.06065894663333893, -0.11420891433954239, -0.04578881338238716, -0.08534380793571472, -0.00448521738871932, 0.0068003833293914795, -0.025525188073515892, 0.022838085889816284, -0.05004657804965973, -0.12414029985666275, 0.029473397880792618, 0.07999876141548157, -0.018327713012695312, 0.04873133450746536, -0.08556893467903137, -0.12363994121551514, -0.11339911818504333, -0.09693799912929535, -0.09295443445444107, -0.10809425264596939, 0.07586947083473206, 0.06597176194190979, 0.12355046719312668, -0.12446640431880951, -0.09305348247289658, 0.11811474710702896, 0.11781973391771317, -0.09463776648044586, -0.11875134706497192, -0.04308657348155975, 0.10988333076238632, -0.01873078942298889, -0.1046857088804245, -0.11320802569389343, 0.09444981068372726, 0.08364198356866837, -0.08615611493587494, -0.023292139172554016, 0.059182267636060715], [0.0018374795326963067, -0.019133638590574265, -0.0030559897422790527, 0.13974107801914215, 0.1077323853969574, -0.11087164282798767, -0.030788028612732887, 0.21891368925571442, 0.03865901380777359, -0.09591524302959442, -0.00533216493204236, 0.017636239528656006, 0.04258066415786743, -0.0808643251657486, -0.0108746737241745, -0.04643769562244415, 0.13655421137809753, 0.13732582330703735, 0.11013255268335342, 0.12256060540676117, -0.06530050933361053, 0.02196408063173294, -0.020760321989655495, 0.062314361333847046, 0.05087616294622421, -0.023421019315719604, -0.10675226151943207, 0.06853048503398895, 0.2172086089849472, 0.04842137172818184, 0.09692643582820892, 0.014388457871973515, -0.026156485080718994, 0.03562168776988983, 0.08680605888366699, 0.12990814447402954, 0.09435616433620453, -0.02708311378955841, 0.16315238177776337, -0.07114443928003311, -0.003332769265398383, -0.059886664152145386, 0.11325570940971375, 0.03778042271733284, -0.03488333895802498, 0.06104019284248352, 0.012193325906991959, 0.01238563284277916, 0.29630130529403687, -0.005721699446439743, 0.08669792115688324, -0.10939215868711472, 0.029452433809638023, 0.04673958569765091, -0.04558740183711052, -0.05859639495611191, -0.05725280940532684, 0.11282511800527573, -0.04527956247329712, 0.03867796063423157, 0.12736988067626953, 0.09567531198263168, 0.017229586839675903, -0.11053325235843658], [-0.2128039449453354, 0.10201458632946014, -0.07328090071678162, 0.07825004309415817, 0.07186431437730789, -0.0013048157561570406, -0.07953117042779922, -0.045361969619989395, 0.10142569988965988, 0.09591791033744812, -0.06560581177473068, 0.12013645470142365, 0.11999039351940155, -0.06632977724075317, 0.06012794375419617, -0.014415189623832703, 0.005521801300346851, 0.10703994333744049, -0.15290939807891846, 0.0919816642999649, -0.05673831328749657, 0.01386543270200491, 0.03496198728680611, 0.10278302431106567, 0.09588747471570969, -0.015062034130096436, -0.045179158449172974, -0.07038281112909317, -0.09872007369995117, 0.10615377128124237, -0.00047211797209456563, -0.025687627494335175, -0.1105872392654419, 0.013619497418403625, -0.11138873547315598, -0.0010979445651173592, 0.0645046979188919, -0.05407777428627014, 0.05119302123785019, -0.013351688161492348, 0.12264122068881989, -0.05879896879196167, -0.11969135701656342, 0.053403228521347046, 0.09664338082075119, 0.056047841906547546, 0.06401877850294113, -0.014179584570229053, 0.10873876512050629, -0.03465593233704567, 0.04624018445611, 0.009467643685638905, 0.035361237823963165, -0.10883349925279617, -0.07165291160345078, -0.015912385657429695, -0.04916335642337799, 0.1284765750169754, -0.07776938378810883, 0.06395106762647629, -0.04183113947510719, -0.10017518699169159, 0.09165579080581665, -0.06699783354997635], [-0.01310303620994091, 0.06962952017784119, -0.055586740374565125, 0.12304902076721191, -0.0716906413435936, 0.004309473093599081, 0.097804494202137, -0.011036376468837261, 0.010696351528167725, -0.021444737911224365, -0.11231555789709091, -0.10925935208797455, 0.04586157202720642, 0.05429747700691223, 0.037406474351882935, -0.06422650814056396, -0.06760106235742569, 0.09657080471515656, 0.0069227456115186214, -0.1197877824306488, 0.08832079917192459, 0.09640982002019882, -0.09438341110944748, 0.0043687522411346436, 0.06069020554423332, 0.018227532505989075, 0.055575769394636154, -0.015685297548770905, 0.08951280266046524, -0.050227321684360504, -0.032953597605228424, -0.0631924495100975, 0.02141675353050232, -0.03189896047115326, -0.09738814830780029, 0.03700849041342735, -0.019789189100265503, -0.08066433668136597, -0.09358891099691391, -0.0277099609375, 0.02366785705089569, 0.124964639544487, -0.11071088165044785, -0.03946109488606453, -0.07031333446502686, 0.09415331482887268, -0.07296773046255112, -0.042060788720846176, 0.028959404677152634, -0.019971393048763275, -0.11349721997976303, 0.06566636264324188, -0.029759138822555542, 0.11528995633125305, 0.06290610879659653, -0.017236188054084778, 0.10475967824459076, -0.0940558984875679, 0.003255784511566162, 0.006816595792770386, 0.027311258018016815, 0.00682818191125989, 0.07221303880214691, -0.06260016560554504], [-0.1739247441291809, 0.08215508610010147, -0.018675997853279114, -0.06690716743469238, 0.14416463673114777, -0.12406620383262634, 0.023560941219329834, -0.057038985192775726, -0.07973617315292358, 0.010173380374908447, 0.15164814889431, 0.03901715576648712, -0.0046820491552352905, 0.038144469261169434, 0.04663114249706268, 0.10687287151813507, 0.12565568089485168, -0.00031364650931209326, -0.00038990905159153044, -0.0019950249698013067, -0.08630862087011337, -0.034092213958501816, 0.09261363744735718, -0.12487737834453583, 0.111857108771801, -0.10964156687259674, -0.11237242817878723, -0.007591918110847473, 0.02415257878601551, 0.12249652296304703, -0.12333749979734421, 0.03506588190793991, 0.045937731862068176, -0.05813570320606232, -0.11407870799303055, -0.106536865234375, 0.061512887477874756, 0.03738333284854889, -0.01462442334741354, 0.11462613195180893, -0.03541257977485657, -0.0002615004777908325, -0.031693242490291595, 0.143446147441864, 0.04952853545546532, 0.0795908272266388, 0.07641356438398361, 0.09758918732404709, 0.12426993995904922, 0.07610675692558289, 0.07103671878576279, 0.002315192250534892, 0.1175222173333168, -0.06362072378396988, 0.003233525436371565, 0.10781614482402802, -0.10564441978931427, -0.0969572588801384, -0.009358823299407959, 0.1043199896812439, 0.13792560994625092, 0.12253423780202866, 0.053548529744148254, 0.05692370980978012], [-0.06906726956367493, -0.08813194930553436, 0.034984394907951355, -0.01756887696683407, -0.03628133237361908, -0.0798080638051033, 0.0011796875623986125, 0.0649728924036026, -0.09484940767288208, -0.09210602939128876, 0.1491893231868744, -0.07819315791130066, -0.11237779259681702, -0.10013848543167114, -0.057205259799957275, 0.01937563717365265, 0.003183577209711075, 0.08442477881908417, -0.11421190947294235, 0.14555656909942627, -0.07900966703891754, 0.0675380751490593, -0.020169200375676155, 0.027926459908485413, 0.03642535209655762, 0.04283764958381653, -0.03059348091483116, -0.08957972377538681, -0.059477753937244415, 0.1428443342447281, -0.04555228352546692, -0.05431939288973808, -0.05332237482070923, 0.00472104549407959, 0.12223054468631744, -0.029921866953372955, 0.11503139138221741, -0.013347387313842773, 0.09545117616653442, -0.0034147193655371666, -0.08097844570875168, -0.07432547211647034, -0.20186525583267212, 0.12196233868598938, -0.07420925796031952, -0.0960768610239029, -0.09085321426391602, -0.08713363111019135, 0.2412332147359848, 0.09950638562440872, 0.031921252608299255, 0.0590638741850853, -0.054486311972141266, 0.09043075889348984, 0.04439326748251915, 0.06259961426258087, 0.07612176239490509, -0.054256513714790344, -0.03740625083446503, 0.05238446965813637, 0.16720743477344513, 0.09038950502872467, -0.0337505042552948, -0.08361130952835083], [-0.09579620510339737, 0.062324028462171555, -0.05715319514274597, -0.029054971411824226, -0.1700039505958557, 0.09719197452068329, -0.11726220697164536, -0.1467510461807251, -0.11737339943647385, -0.05549405515193939, 0.017773151397705078, -0.008324027061462402, -0.021487563848495483, -0.04305334389209747, 0.02939644455909729, 0.11862604320049286, 0.03630611300468445, -0.17193834483623505, -0.08361578732728958, 0.18965691328048706, 0.010790927335619926, 0.1058761328458786, -0.007317451760172844, -0.10603603720664978, -0.05162766948342323, -0.10572290420532227, 0.04012938216328621, 0.1372879147529602, -0.20764632523059845, 0.014994634315371513, 0.0787786990404129, 0.009251288138329983, 0.08147096633911133, -0.04426759481430054, -0.08338708430528641, 0.021418850868940353, 0.08114473521709442, 0.06171952188014984, -0.013020236976444721, -0.01966521330177784, -0.06014643609523773, -0.006053447723388672, -0.07689734548330307, -0.032997436821460724, 0.05643029510974884, 0.06453123688697815, -0.014224579557776451, -0.054262932389974594, 0.17823199927806854, 0.16484542191028595, 0.08707735687494278, 0.050114765763282776, 0.06473654508590698, -0.0786275565624237, 0.05011849105358124, 0.03496745973825455, 0.0699426680803299, 0.08418735861778259, -0.05759550631046295, 0.05345119163393974, -0.14987291395664215, 0.18279601633548737, -0.08880992233753204, 0.03448780998587608], [0.26316648721694946, -0.11776594817638397, -0.10090005397796631, -0.007475581485778093, 0.23752252757549286, 0.1401439607143402, -0.08688310533761978, 0.11903774738311768, -0.056451328098773956, 0.032057568430900574, 0.10991346836090088, 0.10708571970462799, -0.11847466230392456, 0.11926129460334778, 0.11481764912605286, 0.12498587369918823, 0.036095164716243744, 0.0773497223854065, 0.032877836376428604, -0.16493447124958038, 0.07487920671701431, -0.05029945820569992, 0.11840373277664185, 0.0009607523679733276, -0.12692570686340332, -0.06638222932815552, -0.13301703333854675, -0.05057905241847038, 0.018459485843777657, -0.13119573891162872, 0.1214509978890419, -0.09215393662452698, -0.12323099374771118, -0.11236745119094849, -0.08768833428621292, -0.0776180550456047, 0.11133129894733429, 0.024550601840019226, 0.06176096200942993, -0.08838687837123871, 0.06140821799635887, 0.1152447760105133, 0.2203209102153778, 0.13639476895332336, -0.13536587357521057, -0.012080401182174683, -0.03363785520195961, -0.019886784255504608, -0.12193431705236435, -0.006619038060307503, -0.08951248228549957, -0.08825991302728653, 0.09128659218549728, 0.06948620826005936, 0.030237345024943352, -0.014590619131922722, 0.012998014688491821, -0.1199868693947792, -0.0028122812509536743, 0.14344361424446106, 0.16291163861751556, -0.20425789058208466, -0.08597943186759949, 0.06721320003271103], [0.15551450848579407, 0.04651089385151863, 0.0182407945394516, 0.11030250042676926, 0.11461199820041656, 0.012540483847260475, -0.06742595881223679, 0.06176535040140152, 0.017045358195900917, -0.058326318860054016, -0.11281184107065201, -0.07702162861824036, -0.06527909636497498, 0.11602646112442017, 0.06209905445575714, 0.06612364947795868, 0.1023758053779602, -0.07423767447471619, -0.022645432502031326, 0.09089858084917068, -0.04400860145688057, -0.0983535647392273, -0.015180537477135658, -0.10368035733699799, -0.08887425065040588, -0.008297011256217957, -0.0916324332356453, 0.07148714363574982, 0.11187898367643356, -0.1360403597354889, 0.06064649298787117, 0.056253861635923386, 0.013965845108032227, -0.0568242073059082, -0.09411690384149551, 0.06989742070436478, 0.07140640914440155, -0.08706627786159515, 0.05846941098570824, 0.10091212391853333, -0.09220437705516815, 0.11673147976398468, 0.20936988294124603, 0.07981963455677032, -0.10301695764064789, 0.06316320598125458, -0.09594056755304337, 0.19548584520816803, 0.06856171041727066, 0.04645243659615517, -0.14792494475841522, -0.08384432643651962, -0.01630680076777935, 0.0076070986688137054, 0.038051895797252655, 0.0069415331818163395, -0.019533634185791016, 0.0715271383523941, -0.06157882511615753, 0.02378288097679615, 0.20248425006866455, -0.13927021622657776, -0.12381239235401154, 0.04198358952999115], [0.25753289461135864, -0.11689335852861404, -0.0672345757484436, 0.07650738209486008, 0.08384933322668076, 0.05255389213562012, 0.06266830116510391, 0.16918081045150757, 0.1095338687300682, 0.008856579661369324, -0.08599872887134552, 0.0793839544057846, 0.07749675214290619, 0.10637560486793518, 0.06640924513339996, -0.0970400869846344, 0.10395707190036774, -0.0755123570561409, 0.0708979144692421, -0.18147914111614227, -0.11131975799798965, -0.05845802277326584, -0.044298190623521805, 0.10753148794174194, 0.0028632397297769785, 0.009658485651016235, -0.11010535061359406, -0.0810287594795227, 0.06946983933448792, 0.004871281795203686, 0.03922802582383156, -0.03877983242273331, -0.040777042508125305, 0.08142051100730896, 0.10444353520870209, 0.08789550513029099, -0.03519055247306824, 0.12038092315196991, 0.050079021602869034, 0.08006709069013596, 0.0635853260755539, 0.08894091844558716, 0.07346212863922119, 0.0471101850271225, -0.1793772131204605, -0.014540329575538635, -0.10206122696399689, 0.11243343353271484, -0.18620143830776215, -0.09572483599185944, -0.09569432586431503, -0.19565491378307343, -0.03242265060544014, -0.029552794992923737, 0.04108872637152672, 0.10255803167819977, -0.019558638334274292, -0.0412362702190876, -0.06722667813301086, -0.03194499760866165, 0.12528082728385925, -0.13603806495666504, 0.02077159285545349, 0.09866485744714737], [0.0518694669008255, -0.11265615373849869, 0.10980291664600372, 0.006717858370393515, 0.15543504059314728, 0.11440759897232056, 0.06891368329524994, 0.03485869616270065, 0.06585850566625595, 0.11471812427043915, -0.11550698429346085, -0.023600980639457703, 0.025490298867225647, -0.10907156765460968, -0.012305468320846558, -0.09142805635929108, 0.19013111293315887, -0.021272551268339157, 0.04964018613100052, 0.08736072480678558, -0.07988975942134857, 0.09745654463768005, -0.005163026973605156, 0.06963902711868286, -0.10591758787631989, -0.0333806574344635, -0.04930644854903221, -0.001228976878337562, 0.05396956577897072, -0.1264151781797409, 0.0287412591278553, 0.0393090583384037, 0.05764135718345642, -0.0893404632806778, 0.03938670456409454, -0.005673692096024752, -0.07831454277038574, 0.016899317502975464, 0.0762401670217514, -0.008256305009126663, 0.12163831293582916, -0.11222116649150848, 0.12432604283094406, -0.011624622158706188, 0.03722653165459633, 0.06879410147666931, 0.10863350331783295, 0.13940630853176117, 0.14582818746566772, -0.12566924095153809, -0.10649114847183228, -0.1264910101890564, -0.09996029734611511, -0.06377547979354858, 0.09353038668632507, -0.11405742913484573, -0.0410136878490448, -0.08402377367019653, 0.09619054198265076, 0.05994260311126709, -0.00911778211593628, -0.07576437294483185, -0.06640753149986267, -0.052457600831985474], [0.19245554506778717, -0.11409696191549301, 0.057017698884010315, 0.1110684722661972, -0.03942713513970375, 0.01694326661527157, 0.06782207638025284, -0.02095131017267704, 0.026164628565311432, -0.10207588970661163, -0.1025627851486206, -0.032062605023384094, -0.042882755398750305, -0.039646267890930176, 0.04538296163082123, 0.060853466391563416, 0.20446231961250305, -0.05698367580771446, 0.04977849870920181, 0.037043485790491104, -0.09340370446443558, -0.00940091535449028, 0.052872635424137115, 0.07775801420211792, 0.0843048244714737, -0.05269573628902435, 0.11009906977415085, 0.1431753784418106, -0.011441328562796116, -0.06731179356575012, 0.132259801030159, 0.029915815219283104, -0.06847399473190308, 0.08501933515071869, 0.09517796337604523, 0.13222084939479828, 0.06049543619155884, 0.08411465585231781, 0.003789141308516264, -0.06650979071855545, 0.012319112196564674, -0.10331380367279053, -0.010625679045915604, 0.011058949865400791, 0.08686511963605881, -0.0760120302438736, 0.0716046541929245, 0.01644355244934559, 0.022619599476456642, 0.02800425887107849, -0.08110693097114563, -0.10775948315858841, -0.06847129017114639, 0.06189582124352455, -0.0358382910490036, -0.0928114503622055, 0.02737291157245636, -0.10286665707826614, -0.08444955945014954, 0.027628779411315918, 0.041727859526872635, 0.01401490904390812, 0.02474452555179596, -0.10279112309217453], [-0.0391969233751297, -0.08629214763641357, 0.11732056736946106, -0.1114622950553894, -0.06950490176677704, -0.034361302852630615, -0.0745144933462143, -0.015229478478431702, -0.10615645349025726, -0.1238279640674591, 0.07012610137462616, -0.11039690673351288, -0.05598151683807373, 0.05818374454975128, -0.06484216451644897, -0.058086708188056946, -0.04596225917339325, 0.08267742395401001, 0.020179107785224915, 0.03127525746822357, 0.07509863376617432, -0.11267392337322235, 0.09151004254817963, -0.03157070279121399, 0.08150114119052887, 0.011109188199043274, -0.06460730731487274, -0.12198702991008759, -0.06851105391979218, -0.12128998339176178, 0.042713314294815063, -0.07439054548740387, 0.010894179344177246, -0.03912833333015442, 0.11853928864002228, 0.052823811769485474, -0.062254324555397034, 0.035173818469047546, -0.10911504924297333, 0.06991426646709442, -0.051761627197265625, -0.0072828978300094604, -0.08089931309223175, -0.007543012499809265, -0.06650830805301666, -0.08534300327301025, 0.1009320616722107, -0.015188276767730713, -0.02194570004940033, -0.03066524863243103, 0.09689733386039734, 0.053167924284935, -0.03906676173210144, -0.09111905097961426, -0.02563662827014923, 0.06140081584453583, 0.0431646853685379, -0.11096052825450897, -0.04039977490901947, 0.05756552517414093, -0.0737052708864212, 0.07934799790382385, -0.1026822030544281, 0.12260997295379639], [0.18822705745697021, 0.06498941779136658, 0.08391781151294708, 0.13606087863445282, -0.13152821362018585, 0.051412228494882584, -0.055706411600112915, -0.07906182110309601, -0.10246144235134125, -0.11131522059440613, -0.17844092845916748, -0.10170046985149384, -0.07243923842906952, 0.049667611718177795, 0.0387454628944397, 0.0588374137878418, 0.08697166293859482, -0.07112313061952591, 0.1507669985294342, 0.06433887779712677, -0.09144485741853714, 0.12776604294776917, -0.09546948969364166, 0.0015566647052764893, 0.06614421308040619, -0.06968799233436584, 0.17019890248775482, 0.07730762660503387, -0.04766353964805603, -0.0974670797586441, 0.05255814641714096, -0.043820641934871674, -0.06850126385688782, 0.022032231092453003, 0.015648964792490005, 0.026810431852936745, -0.05242680013179779, 0.12090723216533661, 0.06392304599285126, 0.0018103383481502533, 0.07399839907884598, -0.10730865597724915, 0.05479664355516434, 0.023735104128718376, 0.056966956704854965, 0.11572854220867157, -0.023478928953409195, 0.06417404860258102, 0.04369465634226799, 0.17785006761550903, 0.07133450359106064, -0.06638448685407639, -0.000856754370033741, -0.011580323800444603, 0.04663251340389252, 0.10204824060201645, -0.034367144107818604, 0.04951237514615059, 0.019473478198051453, 0.11674890667200089, -0.0016207161825150251, 0.060440436005592346, -0.011244639754295349, -0.11584501713514328], [0.03611728176474571, 0.03728766366839409, -0.05472424626350403, 0.08121088892221451, 0.05654365196824074, -0.040164247155189514, 0.07401570677757263, -0.07670407742261887, 0.05058355629444122, 0.046845898032188416, -0.04527163878083229, 0.027053967118263245, 0.02106642723083496, -0.119771808385849, 0.009528979659080505, 0.003989160060882568, -0.10842037945985794, -0.08274175226688385, 0.018162870779633522, 0.11281315982341766, -0.022546617314219475, -0.01770360767841339, 0.025942789390683174, 0.006749436259269714, -0.06730354577302933, -0.017835423350334167, -0.0932694748044014, 0.1190054640173912, 0.021629024296998978, -0.10018893331289291, 0.09867330640554428, 0.05573229864239693, -0.06893548369407654, -0.011619433760643005, -0.028824692592024803, 0.06413178145885468, -0.030891597270965576, 0.04401504993438721, -0.09775105118751526, 0.12383139133453369, -0.0455702506005764, -0.062468141317367554, -0.03548823669552803, 0.11608560383319855, 0.11066704243421555, 0.028284966945648193, -0.006715876515954733, 0.10801471024751663, -0.05227917805314064, -0.07233797758817673, 0.023634258657693863, 0.01920722797513008, 0.030299007892608643, 0.04176141321659088, 0.08757679164409637, 0.04168781638145447, 0.06411705911159515, -0.06456880271434784, 0.07068146765232086, 0.06385527551174164, -0.09662975370883942, 0.03359511122107506, -0.07184061408042908, -0.0957564115524292], [0.003172927303239703, 0.044813573360443115, 0.1194976270198822, 0.056532278656959534, 0.0968238115310669, -0.13131357729434967, -0.009755317121744156, -0.02367319166660309, 0.04523221030831337, 0.11370828747749329, 0.028918787837028503, 0.11251628398895264, -0.00989493727684021, -0.028610989451408386, -0.012959688901901245, -0.10722950100898743, 0.09021750837564468, 0.026017947122454643, -0.12079069763422012, -0.008063800632953644, 0.11218287795782089, 0.09707291424274445, 0.07638303935527802, -0.049826860427856445, -0.03310619667172432, 0.005860775709152222, 0.04724260792136192, -0.05697602778673172, -0.00731994491070509, 0.08124220371246338, -0.07937079668045044, -0.018995661288499832, 0.046137914061546326, 0.11004562675952911, 0.09424745291471481, -0.12782926857471466, -0.044445693492889404, -0.02644805610179901, -0.015125424601137638, -0.09431681782007217, 0.01221742294728756, 0.1160387396812439, -0.11743924021720886, -0.08654234558343887, -0.07617352157831192, 0.09803725779056549, -0.08077340573072433, -0.006567998323589563, 0.11729398369789124, 0.08900671452283859, -0.062347665429115295, 0.10416549444198608, 0.06260277330875397, -0.09252709895372391, -0.1099494993686676, 0.01751806028187275, 0.022552773356437683, -0.05650543421506882, 0.10279549658298492, -0.030345307663083076, 0.05079592391848564, 0.10648968070745468, 0.07512027025222778, 0.026853172108530998], [-0.012718215584754944, -0.1018831729888916, 0.03014323115348816, -0.014684468507766724, -0.04040989279747009, 0.033780619502067566, 0.08258791267871857, -0.0784580409526825, -0.12017057836055756, -0.012257397174835205, -0.026978179812431335, 0.049498051404953, 0.009630769491195679, 0.0901554673910141, -0.014147564768791199, 0.11643418669700623, 0.029208138585090637, 0.05636094510555267, -0.11120821535587311, -0.028300702571868896, 0.013056114315986633, 0.015626132488250732, -0.11900056898593903, 0.06734827160835266, -0.022263571619987488, -0.05325639247894287, -0.12099871039390564, 0.02515554428100586, -0.09438472986221313, 0.06101895868778229, 0.06770190596580505, 0.01232263445854187, -0.01023237407207489, -0.08945703506469727, 0.0791776180267334, 0.03898797929286957, 0.05672749876976013, 0.08135718107223511, 0.11550512909889221, -0.0013173967599868774, -0.10478672385215759, -0.12039871513843536, 0.11396351456642151, -0.11420376598834991, -0.006326228380203247, -0.04747743904590607, -0.08059434592723846, -0.11815455555915833, -0.0903504490852356, 0.06524816155433655, -0.04180477559566498, -0.11930371820926666, -0.009015515446662903, 0.01376408338546753, -0.0753377228975296, 0.06405781209468842, 0.1009301096200943, -0.12458193302154541, -0.07156617939472198, -0.11349503695964813, -0.018184125423431396, -0.021939560770988464, 0.11107689142227173, 0.12282991409301758], [0.3528716266155243, -0.0616624653339386, -0.10535919666290283, 0.17941781878471375, 0.14149409532546997, 0.14221101999282837, 0.08183713257312775, 0.04703906923532486, -0.09362310916185379, 0.05704411864280701, -0.05413302406668663, 0.061474770307540894, 0.07509040832519531, -0.12148083746433258, 0.05935940146446228, 0.0009591132402420044, 0.16541312634944916, -0.007482923101633787, 0.06605441123247147, 0.07611571252346039, 0.05017269402742386, -0.10838162899017334, -0.12066047638654709, -0.060068726539611816, -0.06795541942119598, -0.03457948565483093, 0.08351121842861176, -0.024801159277558327, 0.08776898682117462, 0.006963611114770174, -0.051468051970005035, 0.04598092660307884, 0.07438009977340698, -0.07085487246513367, -0.04467834532260895, 0.13572555780410767, 0.011871546506881714, 0.053859129548072815, 0.15875302255153656, 0.0818435549736023, 0.10535196214914322, 0.09054945409297943, 0.24461987614631653, -0.011656416580080986, -0.03501283749938011, 0.018001466989517212, 0.08742037415504456, 0.1403806358575821, 0.014151821844279766, -0.09497283399105072, -0.15667957067489624, -0.13898169994354248, 0.08657130599021912, 0.05562129244208336, -0.04630919545888901, -0.09422652423381805, -0.06819315254688263, -0.09637759625911713, 0.07775856554508209, 0.12403393536806107, 0.14186659455299377, 0.06250206381082535, -0.03437627851963043, 0.1016908586025238], [-0.04624558612704277, 0.05393752455711365, -0.07153818011283875, 0.108772873878479, 0.14306242763996124, -0.0524512454867363, -0.05528311803936958, 0.017182856798171997, 0.04094458371400833, -0.038257330656051636, 0.14984019100666046, 0.034544095396995544, -0.06130988895893097, 0.11427643895149231, -0.03540971875190735, -0.004478141665458679, 0.07619662582874298, 0.06835663318634033, -0.04667123407125473, -0.0070608314126729965, -0.06184471771121025, -0.0034449573140591383, -0.09287966787815094, -0.08701694011688232, 0.06040896102786064, 0.05333787202835083, 0.009874016046524048, -0.13306045532226562, 0.06864383071660995, 0.0973338708281517, 0.02229604683816433, -0.01692039519548416, 0.0744745284318924, -0.04376421868801117, 0.07554229348897934, 0.0033849691972136497, 0.09434404969215393, 0.0182437002658844, 0.036627400666475296, 0.026847997680306435, 0.08944625407457352, -0.12078732252120972, 0.101616770029068, 0.10100442916154861, 0.05862933397293091, -0.019138365983963013, 0.07552694529294968, 0.005096901208162308, 0.05723142251372337, -0.005074711982160807, 0.0009922848548740149, -0.023180007934570312, -0.007538304664194584, -0.047061800956726074, 0.10788888484239578, -0.06176535412669182, 0.05558137595653534, 0.06228841096162796, -0.04453209042549133, -0.07061140984296799, 0.14113739132881165, 0.045289747416973114, 0.11275821924209595, -0.06224541738629341], [-0.12860523164272308, -0.032797008752822876, -0.04148422181606293, 0.08001634478569031, 0.024162359535694122, -0.05256834998726845, 0.0383605994284153, 0.13473427295684814, 0.016811111941933632, 0.12277133762836456, -0.02925599180161953, 0.11605276167392731, 0.01650269329547882, 0.09069493412971497, 0.104819655418396, 0.07146754860877991, 0.10139425843954086, 0.11074120551347733, 0.01393586304038763, -0.029303384944796562, 0.02038531005382538, 0.0900978073477745, 0.026703370735049248, -0.0043954998254776, -0.10310184210538864, -0.03164081275463104, -0.11843196302652359, -0.023850781843066216, -0.03187820687890053, 0.08736646920442581, -0.10351217538118362, -0.06049683690071106, -0.023338034749031067, 0.09025552868843079, -0.05906566232442856, 0.08437902480363846, 0.11016753315925598, -0.016548484563827515, -0.015004938468337059, -0.02818410098552704, -0.08242437988519669, -0.024674057960510254, -0.021494220942258835, 0.08498896658420563, 0.0580592080950737, -0.014525532722473145, 0.004658919293433428, 0.04727982357144356, 0.09059488773345947, -0.12974080443382263, 0.11986900866031647, -0.0815124660730362, -0.08924959599971771, -0.022660084068775177, -0.09335257112979889, -0.0678420215845108, -0.09371516108512878, -0.07232025265693665, -0.005377724766731262, 0.13183428347110748, 0.08436296880245209, 0.057136170566082, 0.09199778735637665, 0.09958574175834656], [0.09146153926849365, -0.08474977314472198, -0.05537500977516174, 0.08444719016551971, 0.017995448783040047, 0.02789250947535038, 0.12432388961315155, 0.13756163418293, -0.01567176915705204, -0.051290929317474365, 0.062451135367155075, 0.09961733222007751, 0.04450015723705292, -0.11922089755535126, -0.06276300549507141, 0.025724798440933228, 0.09648580849170685, 0.107273630797863, 0.13163568079471588, 0.11741690337657928, -0.03210025653243065, -0.04749990999698639, -0.08637665957212448, 0.024124085903167725, 0.1217847615480423, -0.10770183801651001, 0.0586385615170002, 0.0473768413066864, -0.06062355637550354, 0.03953814506530762, -0.11317843943834305, 0.013346980325877666, 0.03728702664375305, -0.08810831606388092, -0.11210626363754272, 0.12567445635795593, 0.12046349048614502, -0.05689172446727753, -0.08894918859004974, 0.10161978751420975, 0.08168318122625351, 0.06250515580177307, 0.0763089656829834, 0.0924379974603653, -0.07877431809902191, -0.007631614804267883, 0.11076906323432922, 0.054813653230667114, 0.25846225023269653, -0.11333020776510239, -0.033612869679927826, -0.11028893291950226, -0.12244443595409393, -0.010714690200984478, 0.04886520281434059, -0.02995203621685505, -0.026752561330795288, -0.018171751871705055, 0.11269919574260712, 0.05872425064444542, 0.2004258632659912, 0.09012546390295029, 0.12134619057178497, -0.09245454519987106], [-0.07305791974067688, 0.11842410266399384, 0.11526098847389221, -0.10412058234214783, 0.04205824434757233, -0.06604818999767303, -0.013868525624275208, -0.11076538264751434, -0.02157643437385559, -0.07464705407619476, -0.010713383555412292, -0.06313921511173248, -0.09402723610401154, 0.07415799796581268, 0.02613776922225952, -0.093178391456604, 0.06243962049484253, 0.032134294509887695, 0.029178276658058167, -0.016152650117874146, -0.083986297249794, -0.024917736649513245, -0.11756445467472076, -0.09506228566169739, -0.09890340268611908, -0.059737429022789, -0.037329643964767456, -0.06101837754249573, -0.011488199234008789, 0.1128244549036026, 0.045775264501571655, 0.02440856397151947, -0.09851446747779846, -0.026563182473182678, 0.0576455295085907, 0.022972360253334045, -0.06954476237297058, 0.061069294810295105, 0.06990808248519897, -0.05514262616634369, 0.06882801651954651, 0.10928675532341003, -0.10609997808933258, -0.01151302456855774, 0.017705842852592468, -0.036748006939888, -0.1106644719839096, -0.11670096218585968, -0.017046868801116943, 0.05180862545967102, -0.08498796820640564, -0.04735511541366577, -0.07336720824241638, -0.04606017470359802, -0.02256721258163452, -0.10178036987781525, 0.10259518027305603, -0.11429759860038757, 0.06392322480678558, 0.0741640031337738, 0.04205426573753357, -0.04363460838794708, 0.08133788406848907, -0.08418649435043335], [0.04204065725207329, -0.009107401594519615, 0.12301315367221832, 