{"linear_relu_stack.0.weight": [[0.09666386991739273, -0.23003774881362915, 0.050525933504104614, 0.1141723021864891, -0.18179692327976227, 0.15020573139190674, -0.11579111218452454, -0.10968983173370361, -0.2388003170490265, -0.017889831215143204, -0.03343409299850464, -0.014811408706009388, -0.021977907046675682, 0.1655941754579544, -0.04299841821193695], [-0.14879058301448822, 0.25449368357658386, -0.018650587648153305, 0.03882242366671562, 0.245037242770195, -0.23589113354682922, -0.2859674394130707, -0.25819551944732666, 0.1517142653465271, 0.269750714302063, 0.05361206457018852, 0.13941437005996704, 0.008852186612784863, 0.20649170875549316, -0.14076460897922516], [-0.1749764382839203, 0.3521761894226074, -0.25375238060951233, -0.24309825897216797, 0.09544134885072708, 0.16122323274612427, -0.10812529176473618, -0.03854046016931534, 0.17292273044586182, 0.23896725475788116, 0.0037372130900621414, -0.27334871888160706, 0.07811401784420013, 0.011855789460241795, 0.12237439304590225], [0.13393767178058624, 0.12739132344722748, -0.14332854747772217, 0.13739976286888123, 0.25116902589797974, 0.20711059868335724, 0.2750609815120697, 0.05959092825651169, 0.2596595585346222, 0.19807270169258118, 0.15885229408740997, -0.15636876225471497, 0.013938679359853268, -0.2605050504207611, -0.007122649811208248], [0.1807403862476349, -0.2618715167045593, 0.08323243260383606, 0.053115423768758774, 0.12533043324947357, -0.22829827666282654, 0.2189575880765915, 0.1705879420042038, 0.16089466214179993, -0.1505083292722702, 0.19245772063732147, 0.04619942605495453, -0.24646426737308502, -0.07812132686376572, -0.06799975037574768], [-0.21012835204601288, -0.10215752571821213, 0.1278260499238968, -0.18479272723197937, 0.05869254469871521, -0.13202382624149323, 0.3873469829559326, 0.23472779989242554, -0.3433966636657715, -0.014386299066245556, 0.05008986219763756, -0.12446800619363785, 0.16807085275650024, -0.07007834315299988, -0.2106636017560959], [0.1118408739566803, -0.01879579946398735, 0.07953877747058868, -0.02528003603219986, 0.09426265209913254, 0.22325359284877777, 0.18752481043338776, 0.04344458132982254, 0.34091901779174805, 0.022248264402151108, -0.2223934382200241, 0.035669390112161636, 0.08370095491409302, 0.07832370698451996, -0.11352972686290741], [-0.19215671718120575, 0.19822552800178528, 0.0015416016103699803, -0.010022580623626709, -0.010263524018228054, -0.19091540575027466, -0.21283049881458282, -0.05959172546863556, -0.20855411887168884, 0.17445731163024902, 0.03339524194598198, 0.046821411699056625, 0.20496000349521637, -0.1301007717847824, -0.12292426824569702], [0.19104473292827606, -0.15136249363422394, -0.20488356053829193, -0.19472327828407288, 0.06798246502876282, -0.17818424105644226, 0.1668456643819809, 0.2522605061531067, -0.6087185144424438, 0.07439310103654861, -0.00887309666723013, 0.047038037329912186, -0.1534387171268463, -0.14574183523654938, -0.0025895421858876944], [0.03253951296210289, -0.1570724993944168, -0.013242708519101143, 0.23628731071949005, -0.01904361881315708, -0.09296751022338867, 0.08269547671079636, 0.11950255930423737, 0.5041260719299316, -0.11060807853937149, 0.2029903084039688, 0.2299010455608368, 0.2452733814716339, -0.02986600436270237, -0.20194868743419647], [-0.2502484619617462, -0.24950531125068665, 0.20471428334712982, -0.21874752640724182, -0.030222130939364433, -0.0628376305103302, -0.08450925350189209, -0.004016628488898277, -0.10843206942081451, -0.10802753269672394, -0.18945428729057312, 0.007448688615113497, -0.20704160630702972, 0.17259898781776428, -0.08556924760341644], [-0.07745687663555145, 0.04580388218164444, -0.20351152122020721, 0.05482538789510727, 0.09473462402820587, 0.23986831307411194, 0.04013408347964287, -0.1693682223558426, 0.05123278126120567, 0.151444673538208, -0.11611346900463104, -0.12965738773345947, 0.19375017285346985, 0.08718246966600418, -0.14920960366725922], [0.12810459733009338, -0.2392531931400299, -0.23891615867614746, -0.05935130640864372, 0.011331483721733093, -0.07899588346481323, 0.2703286409378052, 0.0766708105802536, -0.06076952442526817, -0.02632276713848114, -0.08823739737272263, -0.16856171190738678, 0.03320608660578728, 0.4373483955860138, 0.0566365122795105], [-0.09237121045589447, 0.07485218346118927, 0.05476877838373184, -0.22360508143901825, -0.035058364272117615, 0.059432607144117355, -0.06598180532455444, -0.015326490625739098, 0.02833317220211029, -0.11912635713815689, -0.060717660933732986, 0.11171267181634903, 0.2828001379966736, 0.05146205425262451, 0.01280776783823967], [-0.09021015465259552, -0.018745824694633484, -0.15425832569599152, 0.10055581480264664, -0.24200834333896637, 0.0004348047368694097, 0.1548604667186737, 0.228363037109375, -0.06715156883001328, -0.125950425863266, -0.048001378774642944, 0.06266775727272034, 0.15583544969558716, 0.012075572274625301, -0.015482624992728233], [-0.13940680027008057, 0.1204327717423439, -0.2294146865606308, -0.19140945374965668, 0.002335441065952182, -0.03630100190639496, -0.08430503308773041, 0.02012266404926777, 0.12308225780725479, -0.03884949907660484, -0.047714944928884506, -0.13074927031993866, 0.003106103278696537, -0.1194794625043869, 0.007050614804029465], [-0.0715794563293457, -0.09180605411529541, 0.1459122747182846, 0.10872818529605865, -0.12078090757131577, -0.12212642282247543, -0.02054971270263195, -0.024470306932926178, -0.20202575623989105, 0.11995046585798264, 0.00187856110278517, 0.21896624565124512, 0.22869683802127838, 0.24780578911304474, 0.08355962485074997], [-0.1725080907344818, 0.04557767137885094, 0.19839632511138916, 0.10252594947814941, 0.25280794501304626, 0.178945854306221, -0.002251790137961507, -0.11030587553977966, -0.27738410234451294, -0.21061129868030548, -0.05011985823512077, 0.10990408807992935, -0.07204722613096237, 0.0011133917141705751, 0.23192137479782104], [0.023412929847836494, -0.2323254644870758, -0.21801835298538208, 0.16290727257728577, -0.15573354065418243, 0.17865295708179474, -0.21123087406158447, 0.27909669280052185, -0.06085808947682381, 0.053092435002326965, 0.6082215309143066, -0.2783120274543762, 0.023486057296395302, -0.02499636635184288, -0.1786385476589203], [0.15872667729854584, 0.019187012687325478, -0.0637115016579628, 0.19372227787971497, -0.03067714162170887, 0.008483916521072388, -0.07224559038877487, -0.05826083943247795, 0.41671863198280334, 0.07929764688014984, -0.12389540672302246, 0.06740029901266098, 0.03620653226971626, -0.001787669025361538, 0.19757628440856934], [0.30163872241973877, 0.15852206945419312, -0.10400068759918213, -0.23881494998931885, 0.04697543382644653, -0.22928830981254578, 0.0043902150355279446, 0.02571384236216545, -0.2354658544063568, -0.2025071680545807, 0.26300132274627686, 0.041033897548913956, -0.2384989857673645, -0.11805946379899979, 0.04733841493725777], [-0.0010897272732108831, 0.07995491474866867, 0.15968270599842072, -0.0951177254319191, -0.0813031792640686, 0.13670746982097626, 0.34564077854156494, 0.29817327857017517, -0.2907385528087616, 0.09509697556495667, 0.1836138516664505, 0.14205791056156158, -0.1348155438899994, 0.06679005175828934, 0.11978407204151154], [0.1123628318309784, 0.17170731723308563, 0.06699885427951813, 0.2546499967575073, 0.17714600265026093, 0.0745188370347023, -0.11319157481193542, -0.055591218173503876, -0.1385774165391922, -0.2067030519247055, 0.21157507598400116, 0.20230752229690552, -0.16465304791927338, 0.0650181770324707, -0.05458978936076164], [0.18326088786125183, -0.08991781622171402, -0.1404857635498047, -0.1600404530763626, -0.15703889727592468, 0.04773777350783348, 0.18402142822742462, -0.08579660952091217, -0.027790550142526627, 0.22616004943847656, -0.0693531185388565, -0.25811100006103516, 0.1676139086484909, -0.2136525809764862, -0.04628760367631912], [-0.24873457849025726, -0.05951310694217682, 0.04752851650118828, 0.193434938788414, -0.023028986528515816, 0.22976858913898468, 0.26970869302749634, 0.5584637522697449, -0.07896320521831512, 0.017122821882367134, -0.7200344204902649, 0.0689779669046402, 0.00914768222719431, -0.04859352111816406, -0.042769163846969604], [-0.1726018637418747, 0.2551429867744446, -0.12722834944725037, -0.2329631745815277, 0.18771691620349884, -0.14371536672115326, 0.11818339675664902, -0.09436452388763428, -0.0056665800511837006, -0.1770266443490982, 0.24271705746650696, 0.07285613566637039, 0.2045113444328308, -0.03936522826552391, 0.0940154567360878], [-0.053933631628751755, 0.09018375724554062, 0.28508031368255615, 0.007593988906592131, 0.10441438108682632, 0.19357270002365112, 0.2506401240825653, 0.4159672260284424, -0.14327563345432281, -0.17081420123577118, -0.16417136788368225, -0.21207743883132935, -0.2127782702445984, -0.08275739848613739, -0.05043929070234299], [-0.2058483213186264, -0.2825348973274231, 0.04754738509654999, 0.16672132909297943, 0.21339145302772522, -0.24893838167190552, 0.18252968788146973, 0.1782376915216446, -0.08337650448083878, -0.041217438876628876, -0.008597336709499359, -0.04094880074262619, -0.10068352520465851, 0.1593598574399948, -0.20554354786872864], [0.08129379153251648, 0.1689128279685974, 0.20217178761959076, 0.02025674097239971, -0.01228637620806694, 0.011978300288319588, -0.0889972373843193, -0.2569983899593353, 0.2996194660663605, 0.1598137468099594, 0.13502511382102966, -0.01956704445183277, 0.06030645594000816, 0.18404003977775574, -0.14191526174545288], [0.1582566499710083, -0.21768413484096527, 0.06312238425016403, -0.166831836104393, -0.0973280742764473, 0.16524836421012878, 0.29279276728630066, 0.21226179599761963, 0.24186505377292633, 0.1108977198600769, 0.02454526536166668, 0.10463256388902664, -0.06866201013326645, -0.15275320410728455, 0.09509358555078506], [0.06921874731779099, 0.05442306771874428, 0.14097115397453308, 0.10932721942663193, -0.12679556012153625, -0.20098018646240234, 0.044309306889772415, 0.05031897872686386, -0.10836566984653473, 0.14507347345352173, 0.1628730446100235, 0.09791513532400131, 0.1279832124710083, 0.170197993516922, 0.030314724892377853], [0.013797472231090069, -0.12880077958106995, 0.18363697826862335, 0.04091664403676987, 0.03473472595214844, 0.13580194115638733, -0.09450158476829529, 0.10777609050273895, -0.06926260888576508, 0.023273907601833344, -0.21882635354995728, -0.22200559079647064, -0.11539366841316223, 0.04193051904439926, 0.07284455746412277], [-0.0220715943723917, -0.03792564570903778, 0.15548427402973175, 0.04374464973807335, -0.00817704014480114, -0.18066354095935822, 0.13648322224617004, -0.15957432985305786, 0.3586386740207672, 0.17302928864955902, 0.04236019775271416, -0.15495246648788452, -0.1483103185892105, 0.14518271386623383, 0.030263515189290047], [-0.09809812158346176, 0.016320200636982918, -0.17705295979976654, -0.10774467140436172, -0.02031916193664074, -0.06378854066133499, -0.20614738762378693, -0.04585317522287369, -0.039686061441898346, -0.11420618742704391, -0.25696033239364624, 0.017889535054564476, -0.2356240600347519, 0.2314043790102005, 0.05196359381079674], [-0.23726794123649597, -0.1322941929101944, 0.24138255417346954, 0.23175279796123505, 0.07626914232969284, -0.2554560601711273, -0.11091142892837524, 0.21862289309501648, 0.11936984211206436, -0.23243515193462372, 0.19326980412006378, 0.16006985306739807, -0.19330431520938873, 0.00993974506855011, 0.10586649179458618], [-0.15211543440818787, -0.09715497493743896, 0.24454642832279205, 0.02281847409904003, 0.043073367327451706, 0.11279835551977158, -0.156403049826622, 0.15081742405891418, -0.02760188654065132, 0.21013924479484558, -0.03151373937726021, -0.005160186905413866, -0.14989957213401794, -0.09419919550418854, -0.2517770528793335], [0.21038571000099182, 0.18928851187229156, 0.0002804228279273957, 0.1931420862674713, 0.18293146789073944, -0.20073741674423218, 0.08419167995452881, -0.10354935377836227, 0.028910309076309204, 0.17548298835754395, -0.017748402431607246, 0.007754279766231775, 0.17194904386997223, -0.16450455784797668, 0.030489075928926468], [0.20957566797733307, 0.022578759118914604, -0.1968509405851364, 0.2422541379928589, 0.03411765769124031, -0.24325625598430634, 0.274690717458725, 0.27075478434562683, 0.03329205513000488, 0.2299164980649948, -0.2278958559036255, 0.13606303930282593, 0.09624862670898438, 0.2215719372034073, 0.01684487611055374], [-0.17927230894565582, 0.11678612977266312, 0.17344336211681366, -0.11226939409971237, -0.05640498921275139, 0.18455460667610168, 0.18305447697639465, -0.23168781399726868, -0.009784063324332237, -0.05916277691721916, -0.8560634851455688, -0.09363390505313873, -0.0057296790182590485, -0.012839474715292454, 0.046368230134248734], [0.03261062130331993, -0.06803010404109955, 0.16886109113693237, -0.2429790198802948, 0.021875128149986267, 0.12728121876716614, 0.22884975373744965, -0.18759490549564362, 0.2952379584312439, 0.1262977421283722, 0.10331957787275314, 0.0984719768166542, -0.19343048334121704, 0.2186937928199768, -0.13006404042243958], [-0.0413522943854332, -0.18611635267734528, -0.17279210686683655, -0.03048957698047161, -0.033514637500047684, 0.1272115409374237, -0.11902417242527008, 0.09610412269830704, -0.0053516533225774765, -0.25059446692466736, 0.2089058756828308, -0.0005282711936160922, -0.11690327525138855, 0.1499875783920288, -0.005357643589377403], [0.26610425114631653, 0.2763708531856537, 0.0592573881149292, -0.1578487604856491, 0.13652850687503815, 0.2271973192691803, -0.11095807701349258, 0.1658865362405777, -0.22570063173770905, -0.19970865547657013, 0.1629980355501175, -0.012866608798503876, 0.17431879043579102, 0.10497018694877625, -0.2550346255302429], [-0.1303185224533081, -0.07195283472537994, -0.04179908335208893, 0.07411856949329376, -0.2583026885986328, -0.10513845831155777, 0.08777865022420883, -0.002902669832110405, 0.24251754581928253, -0.24590559303760529, -0.030376162379980087, -0.27567917108535767, -0.345816969871521, -0.0010149000445380807, -0.19152836501598358], [0.16002678871154785, -0.12994174659252167, -0.015614310279488564, 0.00864730216562748, 0.04379697144031525, -0.2557414472103119, 0.08887441456317902, -0.19566597044467926, 0.32479193806648254, 0.17596539855003357, -0.0329744815826416, -0.051160357892513275, 0.009170169942080975, 0.12117180228233337, 0.005409379955381155], [0.11963361501693726, 0.15735182166099548, 0.1831846833229065, -0.0141933998093009, -0.10751250386238098, -0.011491671204566956, 0.04074617102742195, -0.17822431027889252, -0.24760368466377258, 0.22300750017166138, -0.14797668159008026, 0.07735901325941086, 0.35409438610076904, -0.20765945315361023, -0.150665283203125], [-0.2303016036748886, -0.19903819262981415, -0.06816593557596207, 0.2568764388561249, 0.19126875698566437, 0.05684245377779007, 0.2041858583688736, -0.15020029246807098, -0.026116549968719482, -0.04143447056412697, -0.016057772561907768, 0.0391198992729187, 0.2130204290151596, 0.07660616189241409, -0.048051152378320694], [0.10549575090408325, 0.07880204916000366, 0.11032986640930176, 0.166099414229393, 0.21077056229114532, -0.11775123327970505, 0.27396857738494873, 0.20541943609714508, 0.2261236608028412, -0.042122066020965576, -0.1192958727478981, -0.10606005787849426, 0.154146209359169, -0.2357742339372635, -0.16714932024478912], [0.2278570979833603, 0.1792304664850235, -0.03008800745010376, 0.060189008712768555, 0.10633870959281921, 0.10008597373962402, 0.13328096270561218, 0.1629207730293274, 0.19670917093753815, -0.16818401217460632, 0.11117929220199585, 0.2706400156021118, -0.016436273232102394, -0.03552405536174774, -0.11596567183732986], [-0.21451042592525482, -0.21610751748085022, 0.13440340757369995, 0.25264039635658264, -0.11359099298715591, -0.12464103102684021, -0.17831037938594818, -0.21444983780384064, -0.19054940342903137, 0.09284187108278275, -0.24334454536437988, 0.11778651922941208, -0.032910123467445374, -0.14178939163684845, -0.05027901753783226], [0.16837631165981293, -0.06591430306434631, 0.17236758768558502, -0.1654052883386612, -0.1016378253698349, -0.24874871969223022, -0.10207056999206543, -0.010754818096756935, 0.2095997929573059, 0.03943229839205742, 0.20019187033176422, 0.12546740472316742, -0.18258990347385406, -0.02650095336139202, 0.17857486009597778], [0.06015630066394806, -0.04027482494711876, -0.18817448616027832, 0.12025303393602371, 0.027446886524558067, 0.1549542397260666, -0.012644646689295769, 0.16955430805683136, 0.07380322366952896, 0.13424575328826904, 0.024279745295643806, 0.15103335678577423, 0.009540601633489132, -0.5950727462768555, 0.04272659868001938], [0.07049521058797836, 0.10765756666660309, 0.15603336691856384, -0.12594950199127197, 0.14076586067676544, -0.22279894351959229, 0.09416238218545914, 0.2405756413936615, 0.13428020477294922, -0.007855262607336044, -0.2425680309534073, -0.10698651522397995, -0.0314890518784523, 0.08919433504343033, 0.18985521793365479], [0.07130580395460129, 0.2049640417098999, -0.1270744502544403, 0.13962671160697937, -0.1180025190114975, 0.1602625846862793, -0.006588582415133715, -0.12113536149263382, -0.06406176835298538, 0.06453850120306015, -0.12177207320928574, 0.2902025878429413, 0.22246454656124115, -0.09193354099988937, 0.17200057208538055], [-0.2549947202205658, -0.1558331549167633, 0.08268333971500397, -0.031056076288223267, 0.20947131514549255, 0.17801550030708313, 0.06597968190908432, -0.08517920225858688, 0.00802251510322094, 0.12066727876663208, -0.2017240971326828, -0.2084003984928131, 0.14808233082294464, 0.11605614423751831, -0.04540323466062546], [-0.1546083241701126, -0.19198216497898102, 0.06393066793680191, 0.14470180869102478, 0.24475087225437164, -0.04943137615919113, 0.27814406156539917, -0.0451819933950901, -0.3968215584754944, -0.1566043198108673, 0.011666800826787949, 0.15696115791797638, 0.284297376871109, -0.10444483160972595, -0.15469089150428772], [-0.02418401464819908, -0.24557936191558838, -0.18531547486782074, -0.1925744265317917, 0.036078184843063354, 0.23595097661018372, -0.16051580011844635, -0.04043997824192047, -0.24038679897785187, -0.14190568029880524, 0.030667144805192947, 0.23938851058483124, -0.005979204084724188, -0.20703713595867157, -0.03406962379813194], [0.2017967402935028, -0.08382736146450043, 0.006647000554949045, 0.17406046390533447, -0.09754417836666107, -0.2402368038892746, 0.04139011725783348, -0.12934066355228424, -0.08974333852529526, -0.2479921579360962, -0.06184769421815872, 0.14248722791671753, -0.24482479691505432, -0.2092047929763794, -0.18294250965118408], [0.05063268914818764, 0.1814921349287033, -0.16739656031131744, -0.18609631061553955, 0.06379346549510956, -0.24179258942604065, 0.25179988145828247, 0.2766268849372864, -0.35878264904022217, -0.03357641026377678, -0.11018970608711243, -0.014831873588263988, -0.12833665311336517, 0.22854232788085938, -0.2187955379486084], [0.011543708853423595, 0.12229123711585999, 0.31978243589401245, -0.1030011847615242, -0.23915614187717438, 0.16427907347679138, 0.11866412311792374, 0.026443514972925186, -0.246920645236969, -0.17934951186180115, 0.2927316725254059, -0.14248962700366974, 0.08138442039489746, 0.2833341360092163, 0.034248996526002884], [-0.1412147581577301, 0.18322007358074188, 0.1420179307460785, 0.21739992499351501, 0.20692898333072662, -0.1965261995792389, -0.21497443318367004, -0.18085558712482452, 0.10359206795692444, 0.2542857825756073, 0.1608901470899582, 0.014748974703252316, 0.12964005768299103, -0.2471838742494583, -0.2372298687696457], [-0.19573773443698883, 0.0887332335114479, 0.2692883312702179, 0.06313621997833252, 0.08434797078371048, 0.08581595122814178, -0.029278257861733437, 0.07659859210252762, 0.10194366425275803, -0.08219610899686813, 0.04786919057369232, 0.10062988102436066, 0.11283484846353531, -0.08474026620388031, 0.23843322694301605], [-0.08771125972270966, 0.14072901010513306, -0.05187566205859184, -0.022174574434757233, 0.2576671540737152, 0.24641694128513336, -0.17420808970928192, 0.24521374702453613, 0.11002172529697418, -0.12447050958871841, -0.07165199518203735, 0.2391439825296402, -0.14605997502803802, 0.26518386602401733, 0.04010816663503647], [-0.14296135306358337, 0.16437119245529175, -0.0004165645223110914, 0.11586229503154755, 0.10243093222379684, -0.21822679042816162, -0.03564790263772011, -0.37815263867378235, 0.346292108297348, 0.12442619353532791, 0.005955352447926998, -0.11729887127876282, -0.01107093971222639, -0.00416610250249505, 0.018137438222765923], [-0.18947836756706238, -0.22858700156211853, -0.1791355311870575, -0.1360299289226532, -0.11885688453912735, -0.24619822204113007, -0.10966891050338745, -0.07173547893762589, -0.05167295038700104, 0.0226573646068573, 0.20165309309959412, 0.077574722468853, 0.11231588572263718, 0.02064961940050125, -0.22041335701942444]], "linear_relu_stack.0.bias": [0.07917556911706924, 0.5164231061935425, -0.013448209501802921, -0.29998838901519775, 0.07008606195449829, 0.025008443742990494, -0.05350034311413765, -0.1812898814678192, -0.13238638639450073, 0.07957425713539124, -0.1454647332429886, 0.3413431942462921, -0.26063963770866394, -0.18964578211307526, -0.07545452564954758, -0.22787360846996307, -0.13727271556854248, 0.22624853253364563, -0.20655730366706848, 0.24279014766216278, 0.06490068137645721, -0.2691848576068878, 0.10818511247634888, 0.16426612436771393, -0.18274489045143127, -0.06130203977227211, -0.21009473502635956, -0.1660616546869278, 0.07457801699638367, -0.1030704453587532, -0.20062528550624847, 0.04071653634309769, 0.04408198967576027, -0.17236456274986267, 0.16781054437160492, -0.21928629279136658, 0.1578298807144165, -0.2786717414855957, 0.2314438670873642, 0.0433734729886055, -0.089311383664608, -0.14602349698543549, 0.12911731004714966, 0.10282166302204132, -0.12195300310850143, -0.11718486249446869, -0.2533876597881317, -0.1478053331375122, -0.23400409519672394, 0.22047559916973114, 0.0752309188246727, -0.254515141248703, 0.12122219055891037, -0.16213732957839966, -0.08712639659643173, 0.16531454026699066, -0.13449989259243011, 0.0006364144501276314, -0.2357657104730606, -0.09046338498592377, -0.13702993094921112, -0.011586607433855534, 0.45039403438568115, 0.19339734315872192], "linear_relu_stack.2.weight": [[0.09109610319137573, 0.056170012801885605, 0.15087281167507172, -0.05539049953222275, 0.038192007690668106, -0.05922134220600128, 0.011942029930651188, 0.05382721126079559, -0.11595313251018524, 0.07256311923265457, -0.05061069130897522, -0.017452167347073555, -0.10538876056671143, -0.06440082937479019, 0.05002553388476372, -0.07850569486618042, 0.07600156217813492, 0.10944920033216476, -0.1007099375128746, -0.0403444841504097, 0.015331579372286797, 0.07087171077728271, 0.08649154752492905, -0.04943346232175827, -0.03165131062269211, -0.02337479777634144, -0.14694608747959137, 0.064254991710186, -0.09336666762828827, 0.10090912133455276, -0.06923499703407288, -0.08150020986795425, 0.09427368640899658, 0.09543251991271973, 0.01468557771295309, -0.07342278957366943, -0.03431946039199829, -0.05110340565443039, 0.085233174264431, 0.009340695105493069, 0.07845702022314072, -0.014145183376967907, 0.025717468932271004, 0.12021397799253464, 0.10176483541727066, 0.000897526741027832, -0.08308303356170654, 0.07522830367088318, -0.10779693722724915, 0.0647217407822609, 0.1154695674777031, 0.04000435769557953, 0.041805002838373184, 0.07173971831798553, -0.07620280236005783, 0.028434202075004578, 0.045806899666786194, 0.05819621682167053, -0.18542641401290894, 0.06309150904417038, -0.12641578912734985, -0.045308396220207214, -0.054394226521253586, 0.07509464770555496], [0.05460740253329277, 0.11699528247117996, 0.07165461033582687, -0.12195275723934174, -0.03479532152414322, -0.10585396736860275, 0.10837256908416748, -0.01742619276046753, -0.2770460546016693, 0.141293004155159, -0.020111337304115295, 0.007347914390265942, -0.19990405440330505, 0.1103605255484581, 0.09057797491550446, 0.1065148413181305, 0.0665307492017746, -0.01592158153653145, -0.15029805898666382, 0.16737663745880127, 0.02919839508831501, -0.034621577709913254, -0.06808844953775406, 0.03611920028924942, -0.10835181921720505, 0.03523750603199005, -0.14119893312454224, 0.0068005966022610664, -0.011820714920759201, 0.09908144921064377, -0.09443466365337372, 0.08922941982746124, 0.10874941200017929, 0.08063028752803802, 0.0929524376988411, 0.11009366810321808, 0.017612002789974213, 0.018212297931313515, 0.23896226286888123, 0.005743406713008881, -0.01286386139690876, -0.09191010147333145, 0.05823309347033501, 0.11514740437269211, 0.036994874477386475, -0.09425587952136993, 0.008170492947101593, -0.06326618045568466, -0.11114087700843811, 0.15127091109752655, 0.07599377632141113, 0.054843027144670486, 0.0876600593328476, 0.12446719408035278, -0.17656603455543518, 0.1128958910703659, 0.09221073985099792, 0.03919968381524086, -0.05217526853084564, -0.08737694472074509, 0.09069886058568954, 0.11237607151269913, 0.21607571840286255, 0.02339346706867218], [0.03522096574306488, -0.011926032602787018, 0.07748662680387497, -0.096387580037117, -0.06268591433763504, -0.0011867133434861898, -0.008588606491684914, -0.11483681201934814, -0.04669107124209404, 0.05752947926521301, 0.0674494057893753, -0.010015562176704407, -0.11657261103391647, -0.04649364575743675, 0.10950564593076706, -0.04087133705615997, -0.0895092636346817, 0.041799917817115784, 0.02879205346107483, -0.11010915040969849, -0.05299069732427597, 0.12566667795181274, 0.014426199719309807, -0.09906867146492004, -0.05205966532230377, 0.05092065408825874, -0.014116663485765457, 0.06593281775712967, -0.025274042040109634, 0.019711876288056374, 0.08836650848388672, -0.028810352087020874, -0.1186404675245285, 0.052879974246025085, 0.10210173577070236, 0.03893953561782837, -0.11959921568632126, 0.08422357589006424, -0.10505938529968262, 0.031215183436870575, -0.02694224938750267, -0.06262104958295822, -0.041951507329940796, 0.0001115080522140488, 0.07083155959844589, 0.10839177668094635, -0.018684158101677895, 0.022988494485616684, 0.1142309159040451, -0.10890047252178192, -0.03656400367617607, -0.10790213197469711, -0.11946263164281845, 0.0058949291706085205, -0.06802333146333694, 0.06904968619346619, -0.03801998496055603, -0.035626139491796494, -0.018778136000037193, -0.007348731160163879, 0.08458619564771652, -0.0998268723487854, 0.0075145564042031765, -0.08638285100460052], [-0.07697301357984543, -0.10968086868524551, 0.04732434079051018, -0.014704127795994282, 0.10391352325677872, -0.09514719992876053, -0.08667679876089096, 0.10127444565296173, 0.00205603102222085, -0.10878557711839676, 0.09269845485687256, -0.10225638747215271, -0.03382537513971329, 0.01126627903431654, -0.08747418969869614, 0.09462425112724304, 0.046313297003507614, -0.03161192685365677, -0.07088298350572586, -0.11475033313035965, -0.0019493068102747202, -0.02018468640744686, -0.10107235610485077, -0.10848697274923325, 0.12244021147489548, -0.12718810141086578, 0.04448191076517105, -0.025535080581903458, 0.054335009306669235, 0.058434680104255676, -0.06438811868429184, 0.002276500454172492, -0.10352544486522675, 0.03535151481628418, 0.11463668197393417, 0.10049240291118622, 0.09969115257263184, 0.0070806834846735, 0.04152999818325043, 0.07721351832151413, 0.048466481268405914, 0.07558578252792358, 0.09292145818471909, 0.09554429352283478, 0.0024848729372024536, 0.11507628858089447, -0.0934830904006958, 0.015132112428545952, -0.002065226435661316, -0.033382657915353775, 0.108729787170887, -0.0684472993016243, -0.08965034782886505, -0.08163617551326752, 0.06680895388126373, -0.043737396597862244, 0.01535673439502716, -0.019563239067792892, -0.06830409169197083, 0.11271767318248749, 0.0515267550945282, -0.027582291513681412, -0.010171561501920223, -0.11823241412639618], [0.04006044939160347, 0.11975409835577011, 0.13192251324653625, -0.10641878098249435, 0.05356621369719505, -0.07456810027360916, -0.0629928857088089, -0.0906946212053299, -0.05283479019999504, 0.10928719490766525, -0.01345023512840271, -0.0881468653678894, 0.0010055493330582976, 0.07333891093730927, -0.13376642763614655, -0.08293403685092926, -0.12119447439908981, -0.08126751333475113, -0.16956095397472382, 0.20107409358024597, -0.09440448880195618, -0.13121168315410614, 0.03349652513861656, 0.11718693375587463, -0.034031108021736145, -0.055553287267684937, -0.11915150284767151, 0.031198354437947273, 0.0759621188044548, 0.11990974843502045, 0.09678035974502563, 0.07031220942735672, 0.0782163143157959, -0.12451235949993134, -0.03719708323478699, -0.03730344772338867, -0.03275175020098686, -0.04389480501413345, 0.09132839739322662, 0.148895263671875, 0.0087508549913764, 0.0722712054848671, 0.09050504118204117, 0.07826413214206696, -0.034893523901700974, 0.06259603798389435, 0.06004256382584572, -0.008571558631956577, 0.07779210805892944, 0.14947646856307983, -0.10792941600084305, -0.022809123620390892, 0.10745584219694138, -0.07996770739555359, -0.008046751841902733, 0.11516912281513214, 0.11401349306106567, 0.0657322034239769, -0.10532359778881073, 0.11375689506530762, 0.12287476658821106, 0.004414721392095089, 0.13073772192001343, 0.07228539139032364], [-0.039936311542987823, -0.19368542730808258, -0.10793153941631317, 0.04022933170199394, 0.14724992215633392, 0.09738008677959442, 0.1163065955042839, 0.07324156165122986, 0.1694452315568924, -0.019621891900897026, -0.06587155163288116, -0.12006349116563797, 0.07944657653570175, -0.07269547879695892, 0.0768701508641243, -0.01788000762462616, 0.05080459639430046, -0.08417214453220367, 0.15707598626613617, -0.0805082842707634, 0.0901317149400711, 0.01869082637131214, -0.02034551091492176, -0.05430231988430023, 0.15921714901924133, 0.005084888078272343, 0.07485903799533844, -0.10233334451913834, 0.021428722888231277, 0.16186118125915527, -0.03643086180090904, 0.01935744658112526, -0.05409741774201393, -0.05423848330974579, -0.06722497940063477, -0.006596237421035767, 0.10287003219127655, 0.13168524205684662, -0.21980524063110352, 0.08395502716302872, -0.06832410395145416, -0.0497673898935318, -0.04611698165535927, -0.09681501984596252, -0.12094620615243912, -0.09634146094322205, 0.0662519559264183, 0.06890219449996948, 0.017765983939170837, 0.02691071107983589, -0.16826757788658142, 0.09550794959068298, 0.06672999262809753, 0.03799283504486084, -0.029347293078899384, -0.01638178527355194, -0.11348721385002136, 0.013467871583998203, 0.04829063266515732, 0.10383806377649307, 0.12371974438428879, 0.08540073037147522, -0.02154199406504631, 0.09397774934768677], [-0.10590752959251404, -0.05103716254234314, 0.10280930995941162, 0.041354820132255554, -0.11675752699375153, -0.09078918397426605, -0.052395522594451904, -0.015305638313293457, 0.07214389741420746, -0.07209081947803497, -0.100013867020607, 0.005691856145858765, -0.019516795873641968, -0.008878856897354126, -0.013105183839797974, -0.06941474974155426, -0.04778943955898285, -0.11231091618537903, -0.07347002625465393, 0.12464188039302826, 0.03472587466239929, 0.034487202763557434, 0.10050152242183685, 0.04246743023395538, 0.0793335884809494, 0.0581723153591156, -0.0718940943479538, -0.010660916566848755, 0.08272096514701843, -0.07946445047855377, -0.010808318853378296, 0.07425379753112793, 0.04496578872203827, 0.0021263062953948975, 0.004435926675796509, -0.08488805592060089, 0.01112295687198639, -0.11435304582118988, -0.10436435043811798, 0.05752968788146973, 0.07822881639003754, 0.08413968980312347, -0.02326388657093048, -0.11827811598777771, 0.03861182928085327, 0.015106096863746643, -0.12389309704303741, 0.04413051903247833, 0.11702093482017517, -0.07851395010948181, -0.08351817727088928, 0.028882339596748352, -0.040606945753097534, 0.03515821695327759, 0.04296097159385681, -0.04923030734062195, -0.10901328921318054, 0.05980828404426575, -0.008201122283935547, 0.042653679847717285, -0.021016493439674377, 0.12072993814945221, 0.07104766368865967, 0.08718396723270416], [-0.09640824794769287, -0.00864371657371521, 0.017831578850746155, -0.05390414595603943, -0.07401138544082642, -0.011196985840797424, 0.016774550080299377, -0.008160591125488281, 0.027829423546791077, 0.06479108333587646, -0.08161158859729767, 0.005160421133041382, 0.07202751934528351, -0.04373437166213989, -0.030602335929870605, -0.04082733392715454, 0.07900965213775635, -0.005519598722457886, 0.07563048601150513, -0.02686166763305664, 0.09861920773983002, 0.03405021131038666, 0.0027142763137817383, -0.0738973468542099, 0.09148837625980377, -0.08483099937438965, -0.033710598945617676, -0.023656025528907776, 0.037835583090782166, -0.10288573801517487, -0.05761826038360596, -0.0026535093784332275, 0.10188497602939606, -0.11490772664546967, 0.05916149914264679, 0.05997903645038605, -0.10344201326370239, -0.08740010857582092, -0.019649893045425415, -0.09507469832897186, 0.11261825263500214, 0.09655240178108215, -0.02480889856815338, 0.11105860769748688, -0.06103578209877014, -0.05939777195453644, -0.008018776774406433, -0.05932416021823883, -0.014384090900421143, -0.08119566738605499, 0.011910155415534973, -0.07288089394569397, 0.07737798988819122, 0.11285488307476044, 0.08199328184127808, -0.06393192708492279, -0.03526286780834198, -0.0807935893535614, -0.014667481184005737, -0.005506455898284912, -0.07625578343868256, 0.08470606803894043, -0.05021248757839203, 0.04868192970752716], [0.011293958872556686, 0.10651085525751114, -0.05020473152399063, 0.11642447113990784, -0.08688820153474808, 0.12638360261917114, -0.12800027430057526, -0.11439697444438934, 0.15131226181983948, 0.08635099232196808, -0.00917699933052063, -0.04333522543311119, 0.13498616218566895, -0.05850076302886009, 0.10886213928461075, -0.10804294049739838, 0.012294446118175983, 0.04577731341123581, -0.05941872298717499, -0.02877492643892765, 0.09402850270271301, -0.024721337482333183, 0.0458344966173172, -0.020721999928355217, -0.13338454067707062, 0.13831381499767303, 0.09902127832174301, 0.07467208802700043, -0.04746454581618309, 0.03310096636414528, -0.06115769222378731, -0.05744362622499466, 0.11568929255008698, 0.041645348072052, -0.04092590510845184, -0.11283636093139648, 0.009098767302930355, 0.06116725131869316, 0.0064003425650298595, 0.0405384786427021, 0.07011605054140091, 0.04552614688873291, -0.005251654889434576, -0.0021515307016670704, 0.1288498044013977, -0.11399240791797638, 0.021550681442022324, -0.011486126109957695, 0.11068972945213318, -0.07730996608734131, -0.0442562997341156, -0.10115426033735275, 0.0596492774784565, -0.012399569153785706, 0.006407515611499548, -0.066393181681633, 0.047805771231651306, 0.05939456447958946, 0.03338375315070152, 0.09396645426750183, -0.1013578474521637, 0.0507727786898613, 0.07459217309951782, -0.001749955234117806], [-0.10561410337686539, 0.061838988214731216, -0.013912765309214592, 0.06607846915721893, 0.12050721794366837, -0.10715696960687637, 0.008910909295082092, -0.07208548486232758, -0.0849561020731926, -0.026846326887607574, -0.06666223704814911, 0.019909895956516266, 0.09306256473064423, -0.07382337003946304, 0.07067941874265671, -0.10122580826282501, 0.0583219975233078, -0.023028885945677757, 0.02488997019827366, 0.09856296330690384, 0.07753030955791473, 0.1382870227098465, -0.07632673531770706, -0.04745025560259819, 0.13743740320205688, 0.04760897159576416, 0.12223784625530243, -0.030547164380550385, -0.07486692070960999, 0.052649810910224915, -0.026438647881150246, -0.06352029740810394, 0.058844275772571564, 0.0055861324071884155, 0.01084370631724596, -0.09919163584709167, -0.009584026411175728, -0.00524498475715518, -0.0947241559624672, 0.0717817172408104, 0.08453267812728882, 0.041801728308200836, -0.08297772705554962, -0.006472408771514893, -0.11734260618686676, -0.049227938055992126, 0.12112506479024887, -0.04787181317806244, -0.09214098751544952, -0.003160768188536167, 0.10738315433263779, 0.0505426786839962, 0.08271243423223495, -0.07146798074245453, -0.03769543021917343, 0.07389684021472931, -0.06966628134250641, 0.010358821600675583, 0.09332908689975739, -0.002266868017613888, -0.06047561764717102, -0.10314439982175827, -0.08345647901296616, 0.005866800434887409], [0.04523969814181328, -0.03152183070778847, 0.01559029333293438, -0.07340662181377411, -0.0272555910050869, -0.0033823696430772543, -0.041009701788425446, -0.08566559851169586, -0.08032882213592529, 0.06080254539847374, -0.035877108573913574, -0.09149916470050812, 0.03114023059606552, 0.030803075060248375, 0.01956350915133953, 0.11856725811958313, -0.039246849715709686, -0.1297311782836914, -0.06353040784597397, 0.12533175945281982, -0.005138822831213474, 0.12434298545122147, 0.06189153715968132, 0.14456436038017273, 0.16960766911506653, -0.10757174342870712, -0.03937211632728577, -0.11046519875526428, -0.04093251749873161, 0.15651065111160278, 0.007038347888737917, 0.05416639521718025, 0.06993396580219269, 0.07751530408859253, 0.12019842118024826, 0.04770314693450928, 0.017132561653852463, 0.00788075290620327, -0.12707869708538055, 0.05232299864292145, 0.05277421325445175, 0.08510228991508484, -0.10544714331626892, 0.03197450190782547, 0.05439113825559616, -0.0020455867052078247, 0.03813311457633972, 0.16249938309192657, -0.11593186855316162, 0.06411464512348175, -0.14236900210380554, 0.12295683473348618, -0.003581237280741334, 0.03237195312976837, -0.07393236458301544, 0.10326363146305084, -0.11863814294338226, -0.12156395614147186, 0.04245875030755997, 0.04484065994620323, 0.0937071144580841, -0.04379827529191971, -0.10459207743406296, 0.06228257343173027], [-0.10156546533107758, 0.013866514898836613, -0.07757171988487244, -0.058163389563560486, 0.09160426259040833, 0.13051995635032654, -0.03907683864235878, -0.028472676873207092, 0.21833713352680206, -0.11288126558065414, -0.09197238087654114, 0.0906769186258316, 0.016138307750225067, 0.042374078184366226, 0.1691356897354126, -0.10695217549800873, -0.02806892804801464, -0.05193736404180527, 0.12422510236501694, -0.017764534801244736, 0.11246168613433838, 0.2515735328197479, 0.06499405950307846, -0.05368582904338837, 0.15624791383743286, -0.06264043599367142, 0.11060678213834763, -0.027571119368076324, -0.18410749733448029, 0.10405512154102325, 0.13627482950687408, 0.007103151176124811, -0.09168548882007599, 0.05848170816898346, 0.04557032883167267, 0.05354531109333038, 0.14569097757339478, 0.16503146290779114, -0.19566166400909424, -0.0871739387512207, -0.022919917479157448, 0.16444101929664612, -0.11456148326396942, -0.12336953729391098, 0.014565978199243546, -0.04585567116737366, -0.043213848024606705, 0.014103912748396397, -0.08319944143295288, 0.12222865968942642, 0.01949246972799301, -0.02047499641776085, 0.050751689821481705, -0.028834819793701172, 0.12852142751216888, -0.05687005817890167, 0.0716288834810257, 0.24793271720409393, -0.05203824117779732, -0.11215884238481522, 0.08995258063077927, -0.06018403545022011, -0.12173956632614136, -0.062302641570568085], [0.07954518496990204, -0.012121750973165035, 0.013362937606871128, 0.06625229865312576, -0.0721438005566597, 0.00782774668186903, 0.07551909983158112, 0.10529109835624695, 0.05768829584121704, -0.08917588740587234, 0.05549830198287964, 0.01807808130979538, 0.002182973315939307, -0.04088558256626129, 0.062204208225011826, -0.04282881319522858, -0.10014170408248901, -0.07743880897760391, -0.10689224302768707, -0.1111350804567337, -0.11123698949813843, 0.005120329093188047, -0.08178674429655075, 0.045295581221580505, -0.12491670250892639, 0.02822740375995636, 0.08396752178668976, -0.029491418972611427, 0.02357088215649128, -0.06799393147230148, -0.045851584523916245, -0.0884837806224823, -0.008247910998761654, -0.040172696113586426, -0.04762828350067139, -0.04855278134346008, 0.10656458139419556, -0.04708098992705345, -0.07198567688465118, 0.12042474746704102, 0.09586822986602783, 0.04850076884031296, -0.1139061376452446, -0.11243097484111786, -0.11057251691818237, -0.02266255021095276, 0.05484774336218834, 0.049854207783937454, -0.05947268009185791, 0.10288025438785553, -0.05048273503780365, 0.02387026697397232, -0.07301856577396393, -0.060312166810035706, 0.05163944885134697, -0.08361726999282837, 0.08788570761680603, 0.0026305734645575285, -0.09879715740680695, 0.09423729032278061, -0.08163778483867645, -0.09207423031330109, -0.002427845960482955, -0.10612384974956512], [0.06728377938270569, 0.12976574897766113, 0.029610106721520424, 0.023212747648358345, -0.10110724717378616, -0.15582714974880219, 0.10640627890825272, 0.0019242018461227417, -0.018611744046211243, -0.015039430931210518, 0.12067511677742004, 0.12772199511528015, 0.05822303518652916, -0.033197011798620224, -0.08473727107048035, 0.07445268332958221, 0.013839061371982098, 0.13271169364452362, -0.16868066787719727, 0.11702170222997665, 0.10301939398050308, -0.002249341458082199, -0.08607196062803268, 0.019202502444386482, -0.07415664941072464, 0.10009709000587463, -0.02074766904115677, -0.004117215517908335, 0.009744001552462578, 0.058158356696367264, 0.0152245182543993, 0.07968336343765259, 0.02189605124294758, -0.002315416932106018, 0.0024570212699472904, -0.038234516978263855, 0.121810682117939, 0.018657149747014046, 0.13397763669490814, 0.06709075719118118, 0.08381865173578262, -0.08825887739658356, 0.08714383840560913, 0.07694327086210251, -0.048265501856803894, -0.0433628112077713, -0.10914327204227448, 0.03669170290231705, 0.1044706404209137, 0.08158596605062485, -0.014030559919774532, -0.09959355741739273, 0.06483317166566849, 0.013503894209861755, -0.014647780917584896, 0.09698860347270966, -0.064664825797081, -0.1375555396080017, -0.016871871426701546, 0.11844660341739655, -0.1229475811123848, -0.04749317839741707, 0.08407992124557495, 0.11886194348335266], [-0.005421772599220276, 0.11862090229988098, -0.10170809924602509, 0.10103818774223328, -0.055443890392780304, 0.12369406968355179, 0.06044255569577217, -0.030022263526916504, -0.04682314768433571, -0.0948026031255722, 0.110057532787323, -0.05896957218647003, 0.06274767220020294, -0.0025397082790732384, 0.02605348266661167, -0.05629701912403107, 0.10886206477880478, -0.06079234182834625, 0.053753867745399475, -0.096706822514534, -0.11164712905883789, 0.07094559818506241, -0.03191129490733147, 0.04140558838844299, 0.10899335145950317, -0.11884334683418274, -0.020400503650307655, -0.014881208539009094, -0.002680335659533739, -0.03395366296172142, -0.09427955001592636, 0.08505476266145706, -0.09613512456417084, -0.0323510468006134, 0.10561571270227432, -0.07153287529945374, 0.02138781175017357, 0.05079441890120506, -0.027691610157489777, 0.04617594555020332, -0.08156216144561768, -0.07969219982624054, 0.05527462065219879, -0.03937815874814987, -0.08259956538677216, -0.09174984693527222, -0.0439259335398674, -0.031007319688796997, 0.1168326586484909, -0.028320349752902985, 0.07720862329006195, -0.0009347938466817141, 0.002869837684556842, -0.11807796359062195, -0.0032045363914221525, -0.04793943464756012, 0.07829131186008453, -0.11305588483810425, 0.09927891194820404, 0.04193738102912903, -0.0268914345651865, -0.011071783490478992, -0.09863981604576111, -0.06784701347351074], [0.0608859583735466, 0.0035343708004802465, -0.05952800065279007, 0.16162249445915222, 0.08781121671199799, -0.007421073969453573, 0.0441216416656971, -0.0025404393672943115, 0.10951913148164749, 0.10370603948831558, -0.09311376512050629, -0.07993407547473907, -0.048568014055490494, -0.09397131949663162, 0.04265815392136574, -0.058564797043800354, 0.03396863862872124, -0.08908402174711227, 0.2141379565000534, 0.1485481858253479, 0.028382474556565285, 0.12965618073940277, 0.00749420328065753, -0.008811055682599545, 0.14380395412445068, -0.028829168528318405, -0.0690542459487915, 0.0647658035159111, 0.001384225906804204, 0.135639026761055, -0.03843359276652336, 0.09411878883838654, -0.02316020056605339, -0.10891595482826233, 0.14135026931762695, -0.03591462969779968, 0.037402812391519547, 0.11432570964097977, -0.1611468493938446, 0.005683001596480608, -0.005438768304884434, 0.053488343954086304, -0.0990438163280487, 0.10546798259019852, 0.07988525927066803, 0.021598979830741882, 0.08020167797803879, 0.18427599966526031, -0.005003541707992554, 0.0041765011847019196, -0.19442901015281677, -0.02285842038691044, -0.11175993829965591, -0.006382167339324951, 0.05001606047153473, -0.025886252522468567, 0.09815286099910736, -0.10716332495212555, -0.10520344972610474, -0.11937118321657181, 0.14153827726840973, -0.07874409109354019, 0.0007962104282341897, -0.026857499033212662], [-0.06800616532564163, -0.06329523026943207, 0.09373503178358078, -0.0015618402976542711, 0.02681885100901127, 0.09808115661144257, 0.09679044783115387, -0.00544150173664093, -0.0962124764919281, -0.07817387580871582, 0.02138395607471466, 0.0817253589630127, -0.08946280926465988, 0.06356967985630035, 0.05077873542904854, 0.09642550349235535, 0.12161120027303696, 0.03171538561582565, -0.11115197837352753, 0.1284233033657074, 0.05893413722515106, -0.10918426513671875, -0.08787820488214493, -0.06247517094016075, -0.05334828421473503, 0.00862259604036808, -0.04893739894032478, -0.093008853495121, -0.06540229171514511, 0.11684323102235794, -0.048894286155700684, -0.1089295819401741, -0.056304823607206345, 0.07878059148788452, -0.09179901331663132, 0.04248283803462982, 0.024196045473217964, 0.0505671501159668, 0.03678528964519501, -0.04899121820926666, 0.11654182523488998, -0.01731344871222973, -0.11032739281654358, 0.10654377192258835, 0.12539835274219513, -0.0073712170124053955, -0.047676630318164825, 0.04964914545416832, 0.028537511825561523, 0.09091541171073914, 0.11976712197065353, -0.10305866599082947, -0.07343439012765884, 0.07266044616699219, -0.040083467960357666, 0.07841832935810089, 0.1163228452205658, 0.04563849791884422, -0.09449975937604904, 0.03067367523908615, -0.0017021975945681334, -0.1096373200416565, 0.033811282366514206, -0.1017320305109024], [0.0895087867975235, 0.03744377940893173, -0.051971156150102615, -0.08532602339982986, -0.04569287225604057, 0.09153521060943604, 0.09441626071929932, 0.08318556845188141, -0.043216437101364136, -0.022827018052339554, 0.10132148861885071, 0.07518011331558228, -0.07450403273105621, -0.08135496079921722, 0.002742071868851781, 0.10887052118778229, -0.10480725765228271, -0.07786346226930618, -0.06682789325714111, 0.06156228482723236, -0.08670186996459961, -0.08485884219408035, 0.07953636348247528, 0.060220520943403244, 0.047678835690021515, -0.0528898611664772, 0.03357364982366562, -0.029352780431509018, -0.04985334724187851, 0.054845333099365234, -0.07810607552528381, 0.06222633272409439, 0.117588572204113, -0.07475109398365021, -0.0816141813993454, 0.10239261388778687, -0.0427166186273098, 0.061591874808073044, -0.10045730322599411, -0.08447393029928207, 0.09031903743743896, -0.05439580976963043, -0.08083833009004593, 0.1044367104768753, -0.05799507349729538, 0.0402434766292572, -0.07855577021837234, 0.06324627995491028, -0.07883691787719727, -0.006507245823740959, -0.02315942384302616, -0.02582508884370327, -0.10297906398773193, -0.06393603980541229, 0.11209587007761002, -0.05776713788509369, -0.10981442034244537, 0.012386723421514034, -0.09631487727165222, 0.001371726393699646, 0.0039311908185482025, -0.07503531128168106, 0.12233778834342957, 0.035201817750930786], [0.0411045141518116, -0.007137080188840628, -0.1483456939458847, -0.007115107495337725, 0.022538160905241966, 0.15880581736564636, -0.01341340970247984, 0.01963096857070923, 0.19046877324581146, 0.07577323168516159, -0.07600133121013641, -0.06752805411815643, -0.031185071915388107, -0.1094476506114006, 0.013218954205513, -0.11399833858013153, -0.1000719889998436, -0.05654750391840935, -0.034900255501270294, 0.02479560300707817, 0.03671181946992874, 0.08406123518943787, -0.10425316542387009, 0.10324858874082565, 0.19336728751659393, -0.07677506655454636, 0.17557799816131592, 0.001990747870877385, -0.005271164234727621, 0.0870288610458374, -0.010219425894320011, -0.05719795450568199, -0.12443030625581741, -0.018440604209899902, -0.050687842071056366, -0.04609896242618561, -0.018428709357976913, 0.008535888977348804, -0.036784328520298004, -0.11487776786088943, 0.05843266844749451, 0.029446614906191826, -0.02867799811065197, -0.1399753838777542, 0.13997280597686768, 0.06534689664840698, 0.03295629099011421, 0.018774744123220444, -0.07959164679050446, 0.03705739229917526, 0.08690546452999115, -0.05030661076307297, -0.01371119637042284, -0.060094550251960754, -0.002427516272291541, 0.05525796115398407, 0.039133742451667786, 0.15634635090827942, 0.040582623332738876, 0.03048010542988777, -0.020321689546108246, -0.08337266743183136, -0.05796830728650093, -0.1039576306939125], [-0.09791312366724014, 0.027300609275698662, 0.0070717898197472095, 0.15268532931804657, 0.13083860278129578, -0.0033322833478450775, 0.1523587852716446, -0.025418713688850403, 0.02242100052535534, 0.08217450231313705, 0.010591983795166016, 0.06878206133842468, 0.050934288650751114, -0.12183654308319092, -0.08406907320022583, 0.018202975392341614, -0.09227621555328369, -0.09498182684183121, 0.02626812271773815, 0.03953472152352333, -0.13694748282432556, 0.0011186491465196013, -0.0344395749270916, 0.1032458245754242, 0.20902182161808014, -0.034032370895147324, 0.09568359702825546, 0.038730423897504807, 0.10758443176746368, 0.1514216512441635, 0.01275492925196886, 0.05350971221923828, 0.040262725204229355, 0.12341062724590302, 0.08993835747241974, -0.044567495584487915, -0.006806048098951578, 0.07847804576158524, -0.09640835225582123, 0.0756862461566925, -0.0491911843419075, -0.03409826382994652, -0.015246570110321045, 0.09015726298093796, 0.06489115208387375, -0.10855980217456818, 0.0880156010389328, -0.010251792147755623, -0.04839298129081726, -0.02142256684601307, -0.2109421044588089, 0.04003622382879257, -0.019795186817646027, 0.08739253878593445, 0.10593362897634506, -0.008382320404052734, -0.03561215102672577, -0.04907628521323204, 0.028919778764247894, -0.10600563138723373, 0.05509374663233757, 0.032843053340911865, 0.008713937364518642, 0.0687793418765068], [-0.04339657723903656, 0.0629831925034523, 0.009370807558298111, 0.13728590309619904, 0.0029493162874132395, 0.07236579060554504, 0.07819759100675583, 0.044380828738212585, 0.028245732188224792, -0.060062456876039505, -0.11530755460262299, -0.06847906112670898, 0.16618186235427856, -0.1077696904540062, -0.048215433955192566, -0.018869251012802124, 0.1020384430885315, -0.04227135702967644, 0.15593454241752625, -0.08805990219116211, -0.14361146092414856, 0.07706831395626068, -0.09284146130084991, -0.043970197439193726, 0.031074784696102142, -0.03544849529862404, -0.012343195267021656, 0.11516878008842468, 0.040631409734487534, -0.015788881108164787, 0.028292693197727203, 0.043848682194948196, -0.06265723705291748, -0.038670554757118225, -0.09704158455133438, 0.1128205955028534, 0.09572511911392212, -0.0406121090054512, -0.08795313537120819, 0.12233810871839523, 0.05866861715912819, 0.028668539598584175, -0.14562863111495972, 0.10592924058437347, 0.09665350615978241, 0.013574451208114624, 0.03633226081728935, 0.11682897061109543, -0.01988448202610016, 0.10227897018194199, -0.15104909241199493, 0.04745573177933693, -0.13870452344417572, 0.04543942213058472, 0.08135473728179932, -0.10072226822376251, -0.10840465128421783, -0.0636947751045227, 0.12828107178211212, 0.010635162703692913, -0.02123560942709446, 0.11484707146883011, 0.06877978891134262, -0.12451042979955673], [-0.05150343477725983, 0.010430872440338135, 0.07574088871479034, -0.09799742698669434, 0.05694770812988281, -0.11284399032592773, 0.05313591659069061, -0.07977965474128723, -0.024412542581558228, -0.05210155248641968, 0.002905800938606262, 0.05375620722770691, -0.014943331480026245, -0.020711570978164673, -0.03444148600101471, 0.02308739721775055, -0.08051705360412598, 0.07019807398319244, 0.01153506338596344, -0.005768299102783203, -0.061557918787002563, 0.10522313416004181, -0.014003738760948181, 0.01862742006778717, -0.025501593947410583, -0.07213705778121948, 0.10279695689678192, -0.06522606313228607, -0.04186369478702545, -0.050327226519584656, -0.07993780076503754, -0.02270577847957611, 0.12165865302085876, 0.057676687836647034, -0.08436812460422516, -0.002085864543914795, -0.12274649739265442, -0.11409759521484375, -0.08871135115623474, -0.10059218108654022, -0.10713021457195282, -0.03961785137653351, -0.12459126114845276, -0.11457888782024384, 0.05357402563095093, -0.09798526763916016, 0.09724268317222595, -0.1248149424791336, 0.031500160694122314, 0.00462593138217926, -0.08297091722488403, -0.0871497243642807, 0.051538437604904175, -0.10420361161231995, -0.031897857785224915, 0.11935529112815857, 0.0970287173986435, -0.10464939475059509, -0.05339531600475311, -0.02162681519985199, -0.08393590152263641, -0.03371724486351013, 0.04170651733875275, -0.02625727653503418], [-0.11200655996799469, 0.07798521965742111, -0.026813380420207977, 0.007932901382446289, 0.018194949254393578, 0.021855400875210762, -0.05830218270421028, 0.0722590833902359, -0.03750672563910484, 0.009528951719403267, -0.08203630149364471, 0.09681718796491623, 0.11423366516828537, -0.11863747239112854, -0.1117050051689148, 0.03469423949718475, 0.06322520226240158, 0.06218407303094864, -0.05028051137924194, -0.10950825363397598, -0.09882929176092148, 0.09987347573041916, -0.01878083497285843, -0.11166241765022278, 0.10102484375238419, -0.12217321991920471, 0.08051756769418716, 0.07665926218032837, -0.0047531891614198685, 0.0017090464243665338, 0.10049537569284439, -0.05145340412855148, -0.10575374215841293, 0.08816005289554596, -0.06867878884077072, 0.04688867926597595, -0.032401151955127716, 0.06085595488548279, 0.05061597377061844, 0.054171670228242874, -0.05420149862766266, -0.08060219138860703, 0.03508586063981056, 0.0434802807867527, -0.06373310089111328, -0.044489964842796326, -0.06590743362903595, 0.00767713226377964, 0.07682088017463684, -0.10354600101709366, 0.004448294639587402, -0.005499313119798899, 0.06462472677230835, -0.020110219717025757, -0.01026308536529541, -0.03838074207305908, 0.12101560831069946, -0.02729332074522972, -0.08284395933151245, 0.017453819513320923, 0.06573177129030228, 0.06487281620502472, 0.09677320718765259, -0.018387824296951294], [0.021418560296297073, 0.031557027250528336, 0.010659623891115189, -0.008707402274012566, 0.13056732714176178, 0.0002086440217681229, 0.005322106182575226, -0.0395515114068985, -0.14908863604068756, 0.08788684010505676, 0.09483036398887634, 0.08137186616659164, 0.044262152165174484, -0.057823266834020615, -0.011390144936740398, 0.09386986494064331, -0.10854464769363403, -0.016947422176599503, 0.033942319452762604, 0.13481681048870087, 0.08196310698986053, -0.040989018976688385, -0.03329649195075035, -0.0169854536652565, 0.042050231248140335, -0.032571304589509964, -0.011124991811811924, 0.057692572474479675, 0.03916825354099274, 0.087786003947258, 0.025033481419086456, -0.030208053067326546, -0.025427870452404022, 0.04895825684070587, -0.03763531893491745, -0.12158618867397308, 0.05098680779337883, 0.014683516696095467, -0.0022130319848656654, -0.10987915843725204, 0.05270349606871605, -0.04330425709486008, -0.00241095176897943, -0.04812144860625267, -0.04155789688229561, 0.07918547093868256, -0.01118522323668003, -0.054856542497873306, -0.1219826191663742, -0.0803675428032875, 0.10021719336509705, -0.11186417937278748, 0.05162327364087105, -0.10981935262680054, -0.11182998865842819, 0.026324808597564697, -0.07203087210655212, -0.10092633962631226, -0.011539912782609463, 0.08026837557554245, 0.0878591313958168, -0.07483281195163727, 0.05992237105965614, -0.07928730547428131], [-0.022275805473327637, 0.1210128664970398, -0.051078423857688904, -0.006637126207351685, -0.0645071417093277, 0.12106308341026306, 0.05177608132362366, 0.013096407055854797, 0.11653909087181091, 0.10731008648872375, -0.08973020315170288, 0.03267703950405121, 0.06562811136245728, 0.001133069396018982, -0.1029849648475647, -0.04736199975013733, 0.010512158274650574, -0.08771097660064697, 0.0004676729440689087, -0.06759855151176453, 0.03793066740036011, -0.04451410472393036, -0.10638159513473511, 0.11669529974460602, -0.12047749757766724, -0.12426835298538208, -0.03245165944099426, -0.03127172589302063, -0.06463046371936798, -0.09369358420372009, 0.0644257515668869, -0.01151624321937561, -0.0926714837551117, -0.08901864290237427, -0.008740618824958801, 0.0879962146282196, 0.11809051036834717, -0.06309576332569122, -0.07233034074306488, -0.0322517454624176, 0.006146639585494995, -0.008769482374191284, 0.10610346496105194, 0.10373853147029877, 0.11745421588420868, 0.10606224834918976, -0.04754997789859772, -0.09529219567775726, 0.059955134987831116, -0.008203208446502686, -0.06524373590946198, 0.0008047521114349365, 0.038084372878074646, 0.04990197718143463, -0.05302658677101135, -0.12296715378761292, 0.10198470950126648, 0.07635794579982758, -0.10023550689220428, -0.00957179069519043, -0.052772387862205505, 0.009766235947608948, -0.04250633716583252, -0.08168977499008179], [0.07148437947034836, 0.12049882113933563, 0.14306142926216125, 0.06449936330318451, 0.11507347226142883, -0.10950875282287598, -0.0909578800201416, 0.006479308009147644, -0.08006740361452103, 0.0612960048019886, 0.09315855801105499, -0.028358865529298782, -0.026515398174524307, 0.02802322432398796, 0.0855485200881958, 0.09644229710102081, 0.07108850032091141, 0.006169967819005251, -0.06926620751619339, 0.02308344841003418, 0.10074729472398758, 0.019788455218076706, 0.07381056249141693, -0.10077900439500809, -0.15894179046154022, 0.052126314491033554, 0.06817498058080673, 0.006218012422323227, 0.029619814828038216, -0.00908853393048048, -0.12052350491285324, -0.08851487189531326, -0.10695870220661163, -0.028870314359664917, 0.0019775968976318836, -0.0025765597820281982, -0.04935605823993683, 0.08120865374803543, 0.051814496517181396, -0.10719357430934906, -0.05366162210702896, -0.07875646650791168, 0.1135520413517952, -0.0402035266160965, 0.10077137500047684, 0.018555939197540283, 0.06327570974826813, -0.0029442955274134874, -0.06349509954452515, 0.08906788378953934, -0.04411071166396141, 0.09263986349105835, -0.02806282788515091, -0.041750043630599976, -0.1511356085538864, -0.11402055621147156, -0.054705530405044556, -0.008706475608050823, -0.10838432610034943, -0.023936865851283073, 0.08699537068605423, -0.0332719124853611, 0.02148238569498062, -0.047744546085596085], [-0.026524389162659645, 0.16262201964855194, 0.09622170776128769, -0.12452953308820724, -0.049912288784980774, 0.01480143703520298, -0.09133819490671158, -0.11558464169502258, -0.0025418957229703665, 0.13862590491771698, -0.034616827964782715, -0.039100755006074905, -0.15180142223834991, 0.10809765011072159, 0.0048662759363651276, -0.01992034912109375, -0.11209610849618912, -0.06928829103708267, -0.12004431337118149, 0.1622389554977417, 0.025072744116187096, -0.02787754125893116, 0.014394682832062244, -0.01183394342660904, -0.20565780997276306, -0.12453457713127136, -0.09568564593791962, -0.07274464517831802, 0.020062144845724106, 0.10683165490627289, 0.033080264925956726, 0.009316513314843178, 0.08578711003065109, 0.018494978547096252, 0.06311412155628204, 0.051589787006378174, -0.030293317511677742, -0.035449232906103134, 0.008658913895487785, 0.08481232076883316, 0.01297016441822052, 0.07078153640031815, 0.00637506740167737, 0.14313583076000214, 0.006206844467669725, 0.04043959081172943, -0.09943706542253494, 0.12099477648735046, -0.009025990962982178, 0.035965822637081146, 0.0010673949727788568, -0.037372179329395294, 0.07035285979509354, -0.03839106857776642, -0.13035684823989868, -0.12276670336723328, 0.01201048493385315, -0.08956040441989899, -0.11635519564151764, 0.1108914241194725, 0.03249426931142807, -0.07685960829257965, -0.010612096637487411, -0.008412920869886875], [-0.0816718339920044, 0.12108592689037323, 0.028663530945777893, -0.09796015918254852, 0.01158827543258667, -0.10031864047050476, -0.06979809701442719, -0.02346380054950714, 0.025754660367965698, -0.11039657890796661, -0.10626687109470367, 0.11985953152179718, -0.10609443485736847, -0.07437324523925781, -0.07874563336372375, -0.009769096970558167, 0.025467321276664734, -0.07989044487476349, -0.022076547145843506, -0.12061494588851929, 0.06827642023563385, -0.05585081875324249, 0.08695653080940247, 0.021574214100837708, 0.07182168960571289, 0.023522138595581055, -0.10064369440078735, 0.06259408593177795, -0.00920364260673523, 0.08294005692005157, 0.1177964061498642, -0.07405133545398712, -0.12118245661258698, -0.10814565420150757, 0.0353802889585495, -0.004589185118675232, 0.06120961904525757, 0.003394991159439087, 0.0690847635269165, 0.04038935899734497, -0.03646060824394226, 0.010048151016235352, 0.002485230565071106, 0.0017023682594299316, -0.016019001603126526, 0.08465895056724548, -0.09447209537029266, 0.029445499181747437, 0.011110261082649231, -0.09495383501052856, -0.11716268956661224, -0.04174637794494629, 0.11437620222568512, 0.08655494451522827, -0.028466641902923584, -0.0017299652099609375, -0.10364559292793274, 0.019750729203224182, -0.11385105550289154, -0.11263857781887054, 0.005133599042892456, 0.014060765504837036, -0.12030860781669617, -0.01660671830177307], [-0.02993924170732498, -0.12659519910812378, -0.07772630453109741, 0.1674482822418213, 0.007555057294666767, 0.02553406171500683, 0.13043850660324097, -0.08531022071838379, 0.17744775116443634, 0.1010226309299469, -0.08059993386268616, -0.04046640917658806, 0.1162838414311409, -0.16951707005500793, 0.15325072407722473, -0.09346204996109009, 0.05747140944004059, -0.18023206293582916, 0.14335574209690094, -0.07634726166725159, -0.07787133753299713, 0.07792697101831436, 0.06253322958946228, -0.08171217143535614, 0.26378196477890015, 0.059505026787519455, 0.1221901997923851, -0.057651907205581665, 0.03284280747175217, -0.04319165647029877, 0.14402329921722412, 0.0555657222867012, 0.10239532589912415, -0.10827265679836273, -0.03657449781894684, -0.05387267470359802, -0.1308746188879013, 0.20976749062538147, -0.27685120701789856, 0.07602525502443314, 0.03471538424491882, 0.10139003396034241, -0.1194269061088562, 0.07533291727304459, 0.014923949725925922, -0.11247090995311737, 0.1575063169002533, 0.09313785284757614, -0.035001739859580994, 0.05121941864490509, -0.14071451127529144, 0.16312596201896667, -0.08573183417320251, 0.08099342882633209, 0.08991102129220963, 0.0710124671459198, -0.05327850580215454, 0.1313043087720871, 0.12101006507873535, 0.06680380553007126, -0.038698699325323105, -0.07376764714717865, -0.0716095045208931, -0.10071206837892532], [0.08439061790704727, -0.03790760412812233, 0.14674009382724762, 0.029063934460282326, 0.09769988805055618, 0.015355619601905346, 0.12196658551692963, -0.07071350514888763, -0.005667282734066248, 0.2473212480545044, -0.11698223650455475, 0.11322922259569168, -0.05378248542547226, 0.10988335311412811, -0.039425741881132126, -0.0852084755897522, 0.05414183437824249, -0.009605000726878643, 0.051559872925281525, 0.13308000564575195, 0.0019526423420757055, 0.042519185692071915, -0.05900656059384346, -0.047770142555236816, 0.10302124172449112, -0.04046754911541939, -0.09378723800182343, 0.0004867146199103445, 0.1452828049659729, 0.06387505680322647, -0.0033419772516936064, 0.08467932045459747, 0.15832199156284332, -0.11578390002250671, 0.1282270848751068, -0.06775099039077759, 0.08850664645433426, -0.04548617824912071, -0.05646365508437157, -0.03261147066950798, 0.09780728816986084, -0.1164691224694252, 0.10815860331058502, 0.10549259185791016, -0.18579527735710144, 0.07150517404079437, 0.1790505349636078, 0.06746244430541992, -0.09558148682117462, 0.14500059187412262, -0.21626955270767212, 0.08647288382053375, -0.052361179143190384, 0.08528432250022888, -0.03075743466615677, 0.0013056695461273193, -0.03746625781059265, -0.17208582162857056, -0.20102961361408234, -0.11189989000558853, 0.04653036221861839, 0.03815462440252304, -0.025221310555934906, -0.055283598601818085], [0.07995514571666718, -0.047866448760032654, 0.11410383880138397, 0.10866153240203857, -0.07690805196762085, -0.06879854202270508, 0.026113539934158325, 0.08328770101070404, -0.09908436238765717, -0.11203455924987793, 0.04664209485054016, -0.03426410257816315, 0.10339005291461945, 0.026110097765922546, -0.012430399656295776, -0.024410724639892578, 0.01636713743209839, -0.11756588518619537, -0.009272575378417969, 0.00910206139087677, -0.068600594997406, -0.09438925981521606, 0.07672175765037537, -0.002483740448951721, 0.02939380705356598, -0.05256330966949463, 0.09548921883106232, 0.016867443919181824, 0.043977200984954834, -0.04324157536029816, 0.010787099599838257, 0.030355751514434814, -0.027617529034614563, 0.023050352931022644, 0.09247776865959167, 0.000644683837890625, 0.09948764741420746, -0.1109287291765213, -0.09821847081184387, 0.09939661622047424, 0.08682486414909363, 0.08888722956180573, -0.1102183610200882, -0.09922203421592712, -0.12353774905204773, -0.08331677317619324, 0.10041424632072449, 0.05052967369556427, -0.11477416753768921, 0.0009983628988265991, -0.10439532995223999, -0.09530191123485565, -0.008090540766716003, 0.07950253784656525, -0.07466086745262146, -0.10829050838947296, 0.01235392689704895, 0.06191857159137726, -0.11109264194965363, 0.032206252217292786, -0.08973656594753265, -0.06711255013942719, 0.020358338952064514, -0.12123830616474152], [-0.06730321049690247, -0.003451854456216097, -0.048657819628715515, -0.008475164882838726, -0.0863317996263504, -0.09265761077404022, -0.08841685950756073, -0.10376109182834625, -0.09212721884250641, 0.02083722874522209, -0.008875072002410889, 0.011733044870197773, -0.012486869469285011, -0.03327151760458946, -0.056913651525974274, 0.006143808364868164, 0.11278031021356583, -0.11464066058397293, -0.012840970419347286, -0.04004771262407303, -0.01157667487859726, 0.11505287885665894, -0.12043160945177078, 0.0702756941318512, 0.029406815767288208, 0.036912597715854645, -0.08240556716918945, -0.02269349992275238, -0.03238978609442711, -0.082329161465168, 0.11794696003198624, 0.10925035178661346, 0.11099447309970856, -0.04909667372703552, -0.04314259812235832, -0.05298514664173126, 0.09104263037443161, -0.04460170492529869, 0.0037917643785476685, 0.07455510646104813, 0.10238850116729736, 0.046160489320755005, 0.0858292430639267, -0.0933869257569313, 0.03147155046463013, 0.02622474730014801, -0.02934839203953743, 0.04891492426395416, -0.0651945024728775, -0.08251827210187912, -0.11737529933452606, -0.0709225982427597, -0.052528128027915955, 0.10065823793411255, -0.11329890787601471, 0.0020591765642166138, -0.08514650166034698, 0.035473667085170746, 0.0857326090335846, -0.037580639123916626, 0.10255922377109528, 0.04960153251886368, -0.12484075874090195, -0.11735691130161285], [-0.0034094639122486115, -0.19919508695602417, 0.02860490046441555, 0.1543261855840683, -0.039907198399305344, 0.0750829353928566, 0.10365208238363266, -0.026465371251106262, 0.050028979778289795, 0.10664273053407669, -0.04181678593158722, -0.15043579041957855, 0.10943475365638733, -0.058948010206222534, 0.022059448063373566, 0.09387195110321045, -0.07384252548217773, 0.08716758340597153, 0.1272973120212555, -0.11075585335493088, 0.10480878502130508, 0.06430037319660187, 0.04196755960583687, 0.07913600653409958, 0.042733483016490936, -0.10783890634775162, 0.15675850212574005, -0.1087893471121788, 0.0532289557158947, 0.13971103727817535, -0.035920463502407074, -0.09685268998146057, 0.09281505644321442, 0.040791839361190796, -0.07784474641084671, -0.07858896255493164, -0.023679086938500404, -0.017322542145848274, -0.13426080346107483, -0.09652211517095566, -0.02042781189084053, -0.05964137241244316, -0.11109235882759094, -0.053822264075279236, -0.040302325040102005, -0.11104843020439148, 0.13513942062854767, -0.07765897363424301, -0.07001431286334991, 0.06949583441019058, -0.13825386762619019, 0.1578281819820404, -0.1197945699095726, -0.018398970365524292, 0.1409110426902771, 0.060794636607170105, 0.027675464749336243, 0.10548017919063568, -0.05153289809823036, -0.008883673697710037, -0.08306637406349182, 0.04926936700940132, -0.06125206872820854, -0.08800109475851059], [-0.10045640170574188, -0.11754085123538971, -0.031611181795597076, -0.04598631709814072, 0.09675253927707672, 0.09030669182538986, 0.08469489961862564, -0.052253663539886475, 0.06449126452207565, 0.053729716688394547, -0.038859665393829346, -0.13559243083000183, 0.0664026141166687, 0.08923637866973877, 0.0071619292721152306, 0.08590914309024811, 0.038069114089012146, -0.04161309078335762, 0.10127972811460495, -0.08811195194721222, 0.08219088613986969, 0.0645352154970169, 0.07902530580759048, 0.05592638626694679, -0.052670568227767944, -0.05708328261971474, -0.04065919667482376, -0.01950855366885662, 0.04487258940935135, 0.041059114038944244, 0.04886053502559662, -0.11500874161720276, -0.10658340901136398, 0.031654760241508484, 0.0068023791536688805, -0.029394254088401794, 0.04503187909722328, -0.0335952565073967, -0.07822304219007492, -0.03961443156003952, -0.08056191354990005, 0.12108635157346725, 0.06100308522582054, 0.04406515881419182, 0.021978722885251045, 0.10846960544586182, -0.07312009483575821, 0.08935264497995377, -0.11256149411201477, -0.042898811399936676, 0.06675416976213455, 0.09352395683526993, 0.10613247752189636, -0.04599352180957794, 0.06293251365423203, 0.005974620580673218, 0.11305885016918182, 0.1114903911948204, 0.13841889798641205, -0.007134252227842808, -0.0491003654897213, -0.02299877256155014, -0.1031312644481659, 0.09564093500375748], [0.0658101737499237, 0.07642664760351181, -0.1021585687994957, 0.02670811116695404, -0.0874108150601387, 0.08506613969802856, 0.12044402211904526, 0.12048052251338959, -0.0754641741514206, -0.09929071366786957, -0.017379939556121826, 0.07389332354068756, -0.0784125030040741, -0.1071191355586052, 0.09113799780607224, 0.10114410519599915, 0.04924958944320679, 0.05336572602391243, 0.12432138621807098, 0.029825476929545403, 0.054906174540519714, -0.07018497586250305, -0.080600306391716, -0.03022806905210018, 0.029536064714193344, -0.012575238011777401, -0.044273123145103455, 0.07771861553192139, -0.12115757912397385, 0.010343410074710846, -0.06516433507204056, 0.025236044079065323, 0.04682363569736481, -0.09181718528270721, -0.12206023931503296, 0.028534531593322754, -0.10530772060155869, 0.08148839324712753, 0.06060579791665077, -0.05847155302762985, -0.03507101535797119, -0.00940487626940012, 0.03338821232318878, 0.08104358613491058, -0.11501573771238327, -0.03327500820159912, -0.05997515097260475, -0.009286623448133469, -0.11861160397529602, -0.06494078785181046, 0.057481031864881516, 0.11902496218681335, 0.08715960383415222, -0.1006605327129364, 0.09568868577480316, -0.06068342924118042, -0.03665836155414581, -0.11993636935949326, 0.04162617400288582, -0.10245591402053833, -0.08883675932884216, -0.07842317223548889, 0.05019374191761017, -0.052888110280036926], [0.007319907657802105, 0.04562997445464134, 0.06941191852092743, 0.09917914867401123, -0.04120684042572975, -0.010501817800104618, -0.06016923859715462, 0.07517018914222717, 0.05129051208496094, -0.027713490650057793, -0.0728444755077362, 0.02021944522857666, 0.06845385581254959, -0.0882740169763565, -0.08495384454727173, -0.03718900680541992, 0.10793571174144745, 0.009752454236149788, 0.10898006707429886, -0.06054319441318512, 0.012879532761871815, 0.1510782539844513, 0.02462857961654663, -0.06663330644369125, 0.05331680178642273, -0.02966400235891342, 0.03065703995525837, 0.042561646550893784, -0.07739539444446564, -0.11789824068546295, 0.06979423016309738, -0.09294221550226212, -0.11984550207853317, 0.028653353452682495, 0.07192133367061615, -0.03868667781352997, 0.10596710443496704, 0.036559320986270905, -0.013049195520579815, -0.033664580434560776, -0.08119501918554306, 0.07719934731721878, -0.002076161792501807, -0.004026947543025017, 0.09646304696798325, 0.11917899549007416, 0.1337301880121231, -0.061251454055309296, 0.03769133985042572, 0.004667344037443399, -0.05323805287480354, 0.13971328735351562, 0.07821372151374817, 0.03882913291454315, -0.061083197593688965, 0.02913004159927368, -0.11520545184612274, 0.09592436999082565, 0.12717357277870178, -0.034804943948984146, 0.02718890830874443, -0.08083730936050415, -0.0763574168086052, 0.11705507338047028], [0.06779547035694122, -0.025406494736671448, -0.09600488841533661, -0.07068893313407898, -0.0441211462020874, -0.09615391492843628, -0.008935317397117615, -0.06040698289871216, 0.0542428195476532, -0.07725411653518677, -0.03989394009113312, -0.07420292496681213, 0.02321493625640869, 0.07401426136493683, 0.06419962644577026, -0.04046972095966339, 0.06999383866786957, 0.08918607234954834, 0.09803692996501923, -0.07614077627658844, 0.023910358548164368, 0.007403343915939331, 0.1104574203491211, 0.05210070312023163, -0.04181358218193054, 0.027332738041877747, 0.04857651889324188, -0.11423708498477936, -0.09642477333545685, -0.04914690554141998, -0.08114130795001984, 0.0494237095117569, -0.09542462229728699, -0.05626586079597473, -0.04558788239955902, 0.07820288836956024, -0.11103600263595581, 0.1158163845539093, -0.002141997218132019, 0.053455740213394165, -0.04641556739807129, -0.11756560206413269, -0.00671154260635376, -0.09454488754272461, 0.06505638360977173, -0.12451855838298798, -0.031607091426849365, -0.06191408634185791, 0.01094605028629303, -0.11044298112392426, -0.11363831162452698, 0.05757933855056763, 0.1005004346370697, 0.0676533430814743, -0.01615069806575775, 0.05187016725540161, 0.06210261583328247, 0.004931837320327759, 0.008396565914154053, 0.08526633679866791, -0.06028394401073456, -0.11746092140674591, 0.05201007425785065, 0.0977160781621933], [-0.10473223775625229, 0.07701419293880463, -0.0029750012326985598, -0.008481224998831749, 0.07614076137542725, -0.057925354689359665, 0.060635410249233246, -0.08069226145744324, 0.026649247854948044, -0.09533380717039108, -0.03183768689632416, 0.010858768597245216, -0.05772002413868904, -0.09069779515266418, 0.13858768343925476, -0.10627864301204681, -0.010810863226652145, -0.01971605233848095, -0.041443366557359695, 0.026694906875491142, -0.15464013814926147, 0.023947302252054214, -0.17613065242767334, -0.025255683809518814, 0.19323362410068512, -0.04051881283521652, 0.1386244148015976, 0.11053307354450226, -0.09151099622249603, 0.02712416835129261, -0.13522352278232574, -0.019904708489775658, -0.11192937195301056, -0.04494333267211914, -0.042362820357084274, -0.11248220503330231, 0.04781584441661835, 0.15700563788414001, 0.01831619255244732, -0.012835745699703693, -0.11906576156616211, -0.15364941954612732, -0.06355268508195877, -0.06671646982431412, 0.11923187971115112, 0.031026482582092285, 0.0032957843504846096, 0.07640749216079712, 0.05611720681190491, -0.0654243677854538, -0.016757704317569733, 0.16133926808834076, -0.018292488530278206, 0.06199391186237335, 0.08128092437982559, -0.12346352636814117, -0.10033850371837616, 0.1249353215098381, -0.010962066240608692, -0.009978599846363068, -0.060895491391420364, -0.08355004340410233, -0.061423055827617645, 0.020650556311011314], [0.07152765244245529, -0.08183205127716064, 0.13304120302200317, -0.06685252487659454, -0.003205543151125312, 0.0032451290171593428, 0.15845878422260284, 0.12311059236526489, 0.058330290019512177, 0.13243095576763153, -0.0732770711183548, 0.0965426117181778, -0.07101947069168091, -0.05042644590139389, 0.02043471485376358, 0.05757945775985718, 0.10208549350500107, -0.011383083648979664, 0.08597888797521591, 0.04924342781305313, 0.08685598522424698, -0.11257465183734894, -0.08822736889123917, -0.05455024540424347, -0.10931864380836487, 0.010969197377562523, -0.05092369392514229, -0.0792948380112648, -0.010229838080704212, 0.07195237278938293, -0.009531459771096706, 0.11427132040262222, 0.010735944844782352, -0.008109524846076965, -0.10822267085313797, 0.09742961823940277, 0.007389655336737633, 0.016710808500647545, 0.1141819953918457, -0.09521739184856415, -0.0045399852097034454, -0.09893296658992767, 0.10722764581441879, 0.03462016209959984, -0.013079163618385792, 0.05258992314338684, -0.056170351803302765, 0.054624736309051514, 0.07223722338676453, 0.14440178871154785, -0.08825469762086868, -0.08171751350164413, 0.07089965045452118, 0.12077027559280396, 0.07737383246421814, -0.12316921353340149, 0.10514402389526367, 0.005443216767162085, 0.07724743336439133, -0.017493609338998795, -0.012944545596837997, 0.06144334003329277, 0.02949192188680172, 0.11565960198640823], [0.07048367708921432, 0.050803761929273605, -0.10948000103235245, -0.05377697944641113, 0.09765857458114624, -0.018880441784858704, 0.04895281419157982, 0.05479809641838074, -0.03728482499718666, -0.06834489852190018, 0.08906975388526917, 0.09208529442548752, -0.11247822642326355, 0.09314234554767609, -0.05942586436867714, -0.04971194267272949, -0.04380297288298607, 0.04427986592054367, -0.0175443384796381, -0.024141214787960052, -0.075124591588974, 0.026795005425810814, 0.03323187679052353, 0.1190585345029831, 0.038622353225946426, -0.009878760203719139, -0.10172193497419357, 0.04148877039551735, -0.043003570288419724, 0.1556105613708496, -0.13318239152431488, 0.021068884059786797, 0.09906118363142014, 0.02184879779815674, 0.11988116800785065, 0.043371930718421936, -0.010509305633604527, 0.029651030898094177, 0.01785593293607235, 0.09335123002529144, 0.04621623456478119, 0.06913675367832184, -0.052684344351291656, -0.0027145727071911097, 0.08073125779628754, 0.057560235261917114, 0.05637554079294205, 0.011721039190888405, 0.03611700236797333, 0.11364900320768356, -0.06948225200176239, 0.005743796471506357, 0.023342449218034744, 0.04917114973068237, -0.08629227429628372, -0.053211286664009094, -0.02293817698955536, -0.15185077488422394, 0.004579560831189156, 0.06294676661491394, 0.121851846575737, 0.07260789722204208, -0.09054624289274216, -0.032193176448345184], [-0.11665225028991699, 0.05393090844154358, 0.014830484986305237, -0.05397626757621765, -0.10308423638343811, 0.010960891842842102, -0.05203603208065033, 0.00042939186096191406, 0.004218608140945435, -0.09352397918701172, -0.0889015793800354, -0.03728090226650238, 0.11814312636852264, 0.03148628771305084, -0.10628433525562286, -0.08917181193828583, 0.023985862731933594, 0.04629833996295929, -0.09302115440368652, -0.08858388662338257, 0.04669751226902008, -0.09919622540473938, 0.025533154606819153, 0.010652914643287659, 0.12291046977043152, -0.002909541130065918, 0.04034741222858429, -0.0012387633323669434, 0.03690193593502045, 0.01844729483127594, -0.1105559915304184, 0.003689393401145935, -0.09157060086727142, 0.002178981900215149, -0.07923458516597748, 0.005609288811683655, -0.12317174673080444, 0.09810136258602142, -0.1183028519153595, -0.07480189204216003, -0.09860993921756744, -0.0842403918504715, -0.032789766788482666, 0.10875290632247925, 0.07321009039878845, -0.1097194254398346, -0.1054539680480957, 0.04437536001205444, -0.10304740071296692, 0.06703467667102814, -0.11112479865550995, -0.09407228231430054, -0.12283900380134583, 0.09358508884906769, -0.04405534267425537, 0.08654843270778656, -0.029385268688201904, 0.007285699248313904, -0.1137561947107315, -0.056478455662727356, 0.1062299907207489, -0.05201271176338196, 0.013352558016777039, -0.11261773109436035], [0.033096980303525925, 0.021532254293560982, 0.20239314436912537, 0.07243108749389648, 0.10372534394264221, -0.06678857654333115, 0.14806336164474487, -0.09253503382205963, -0.2478232979774475, 0.18813692033290863, -0.0883760154247284, 0.021759014576673508, -0.048384588211774826, -0.09284788370132446, 0.06809410452842712, 0.01828429102897644, -0.0963936522603035, -0.07608436793088913, -0.20359830558300018, 0.18304848670959473, -0.02570565603673458, -0.0032991738989949226, 0.02760244533419609, -0.02871524728834629, -0.0010693985968828201, -0.09059421718120575, -0.13610954582691193, 0.10405341535806656, -0.024929631501436234, -0.007886732928454876, -0.08816316723823547, 0.09640787541866302, 0.1369825005531311, -0.007471844553947449, -0.07687944173812866, 0.11200669407844543, 0.027753733098506927, 0.023372488096356392, 0.1749023199081421, 0.011071250773966312, -0.012973613105714321, -0.16560764610767365, 0.05227825418114662, -0.04430237039923668, -0.03111535683274269, -0.0026074498891830444, 0.03051345981657505, 0.09190497547388077, 0.05968019366264343, 0.09593217074871063, -0.04668974503874779, 0.10101061314344406, 0.04313647747039795, 0.06681758165359497, 0.0038049365393817425, -0.07679732143878937, 0.046874985098838806, -0.07792752236127853, -0.009043646976351738, -0.052806295454502106, 0.051945678889751434, 0.04415067285299301, 0.028015371412038803, 0.09522649645805359], [-0.12103930115699768, -0.10739300400018692, -0.11090286076068878, 0.05907106399536133, -0.12261985242366791, -0.08903216570615768, 0.005940611939877272, -0.09523001313209534, -0.06071659177541733, -0.07503466308116913, 0.039393872022628784, -0.10611958801746368, 0.11862398684024811, 0.05597597733139992, -0.018997924402356148, 0.009155035018920898, -0.0606420524418354, 0.015869738534092903, 0.09050345420837402, 0.019052978605031967, 0.027295095846056938, -0.03773041442036629, -0.10561883449554443, 0.023336663842201233, -0.12474288046360016, -0.08671040087938309, 0.03158223256468773, 0.0017192214727401733, 0.046321991831064224, 0.07434654235839844, -0.07957492023706436, 0.09350237250328064, 0.12377651035785675, -0.02346476912498474, -0.06251388043165207, 0.07032442092895508, -0.027589784935116768, -0.10637795925140381, -0.06969824433326721, 0.12102249264717102, -0.020448654890060425, 0.03277580067515373, -0.03559596836566925, -0.06005340442061424, 0.08820850402116776, 0.11955197155475616, -0.041497912257909775, -0.01222182810306549, -0.016260534524917603, 0.08296409994363785, -0.10172676295042038, -0.0602610781788826, 0.0651126429438591, -0.09796606004238129, -0.08210493624210358, -0.0214679092168808, -0.08242079615592957, -0.00876795407384634, -0.09606774896383286, -0.08923585712909698, 0.10460244864225388, 0.08827491104602814, -0.05968248471617699, -0.07043711841106415], [-0.001249656081199646, 0.07891111075878143, -0.004570126533508301, -0.10652805864810944, -0.11049707233905792, -0.05034208297729492, 0.058340683579444885, 0.11765626072883606, -0.05072399973869324, 0.0011698752641677856, 0.12044119834899902, 0.10575005412101746, -0.07488679885864258, 0.10389344394207001, -0.07912220060825348, 0.11275434494018555, 0.011026114225387573, -0.01532474160194397, 0.022547870874404907, -0.04471889138221741, 0.09659506380558014, -0.11811162531375885, -0.09567970037460327, -0.03523498773574829, 0.016932785511016846, -0.04040469229221344, -0.029497385025024414, 0.021904930472373962, -0.06365443766117096, -0.11317478120326996, -0.06008222699165344, -0.00473397970199585, 0.043911129236221313, -0.049337103962898254, 0.039686694741249084, -0.1222582757472992, -0.050755634903907776, 0.0929202288389206, 0.10011795163154602, 0.04012523591518402, -0.08014118671417236, -0.02352994680404663, 0.03608027100563049, -0.10188116133213043, -0.1198524683713913, -0.09197874367237091, -0.005929663777351379, -0.015548139810562134, -0.056499481201171875, -0.06428560614585876, -0.039683565497398376, -0.009312152862548828, -0.05574621260166168, -0.097388356924057, -0.02837197482585907, 0.09741337597370148, 0.0009695142507553101, 0.08984260261058807, -0.06317420303821564, 0.05482226610183716, -0.002423390746116638, -0.010928601026535034, 0.10219283401966095, 0.054959774017333984], [-0.002293005585670471, 0.0860426127910614, -0.012107178568840027, 0.07884694635868073, -0.04938282072544098, 0.08499488234519958, 0.09967993199825287, 0.03081458806991577, 0.040471866726875305, -0.11077961325645447, -0.08143854141235352, -0.07727135717868805, -0.0989181399345398, 0.023838043212890625, -0.05769185721874237, 0.10637077689170837, -0.07383188605308533, -0.07821990549564362, 0.010602742433547974, -0.05743184685707092, -0.053897395730018616, -0.11244049668312073, -0.10769040882587433, -0.030730605125427246, -0.018802568316459656, 0.01273202896118164, -0.00887531042098999, 0.12264873087406158, -0.04984411597251892, 0.12385453283786774, -0.06208348274230957, -0.10459937155246735, -0.018401890993118286, 0.05162523686885834, -0.11159662902355194, -0.05839109420776367, -0.10646462440490723, 0.043058887124061584, 0.07788832485675812, 0.08490970730781555, 0.0628165751695633, 0.008231893181800842, 0.03068108856678009, 0.07620586454868317, 0.0020652413368225098, -0.024684369564056396, 0.09416383504867554, 0.009434983134269714, -0.07423986494541168, 0.1173253208398819, 0.07343797385692596, -0.03113509714603424, 0.06437478959560394, -0.055791258811950684, -0.11337921023368835, 0.07388433814048767, -0.030494436621665955, 0.08268161118030548, -0.05454148352146149, -0.041752204298973083, -0.1226569414138794, 0.08135735988616943, -0.0625762790441513, 0.034164220094680786], [0.07324199378490448, 0.05872555077075958, -0.10382498800754547, -0.0005972385406494141, -0.00030857324600219727, -0.09714433550834656, 0.0479990690946579, 0.060739487409591675, 0.11440785229206085, -0.012020349502563477, 0.03148961067199707, -0.0029726624488830566, -0.11996239423751831, -0.06732644140720367, -0.11684298515319824, -0.07078133523464203, 0.04339957237243652, -0.010139554738998413, 0.020986825227737427, -0.040441498160362244, -0.011440560221672058, -0.07192710041999817, -0.09047442674636841, 3.844499588012695e-06, -0.08784207701683044, -0.02677716314792633, -0.0691264420747757, 0.07127632200717926, -0.06948024034500122, 0.09507745504379272, 0.0941874235868454, -0.10555620491504669, 0.047432705760002136, -0.09913027286529541, 0.016433820128440857, -0.12188683450222015, 0.015237227082252502, -0.10197193920612335, -0.11236527562141418, 0.06730347871780396, -0.06115014851093292, -0.09202513098716736, -0.0876317024230957, 0.037308141589164734, 0.07268433272838593, -0.0696563571691513, -0.05930490791797638, -0.08254559338092804, -0.007058292627334595, -0.1018395721912384, 0.10946381092071533, 0.06462143361568451, -0.03060033917427063, 0.10439164936542511, 0.04652206599712372, -0.0653458833694458, 0.11988459527492523, 0.0728488564491272, 0.06532445549964905, -0.047637805342674255, 0.04000379145145416, 0.0934666246175766, 0.09031280875205994, 0.0505768358707428], [0.08402184396982193, -0.13068945705890656, 0.017017392441630363, -0.043446432799100876, 0.008018042892217636, -0.10521464049816132, -0.027129214257001877, 0.05452035367488861, -0.09290755540132523, 0.06712570786476135, 0.1243208646774292, -0.026935167610645294, 0.03850594907999039, 0.059286173433065414, -0.061932314187288284, 0.09788699448108673, -0.06834005564451218, -0.09307833760976791, 0.01765812560915947, -0.1008429154753685, 0.08254873752593994, 0.10095886886119843, -0.08261456340551376, 0.09148256480693817, 0.004907562397420406, -0.04079311713576317, 0.06871052831411362, 0.11850710213184357, -0.041210997849702835, 0.12437956035137177, -0.07392516732215881, 0.06472382694482803, 0.06882457435131073, 0.08311609923839569, 0.0595673993229866, 0.098319411277771, 0.10625246912240982, 0.07910363376140594, -0.02937270700931549, -0.08153591305017471, -0.04913904890418053, 0.017673760652542114, 0.06657158583402634, 0.08976282179355621, 0.05333608761429787, -0.1022147536277771, 0.15235313773155212, -0.06845024973154068, -0.09093521535396576, 0.0973522961139679, -0.1019759327173233, -0.07192178070545197, 0.0476854033768177, -0.012929007411003113, -0.03990022838115692, -0.0824059247970581, -0.014371991157531738, 0.08270992338657379, 0.05211395025253296, 0.07831646502017975, 0.08301059156656265, 0.02003643661737442, 0.03136420249938965, -0.022902624681591988], [-0.03774522244930267, -0.03951751068234444, 0.04429520666599274, -0.01619938760995865, 0.07309034466743469, -0.012546317651867867, 0.049936261028051376, 0.06647083163261414, 0.011431669816374779, 0.12399961054325104, 0.08862291276454926, 0.07879256457090378, -0.0060518961399793625, -0.0010639652609825134, -0.0015358531381934881, 0.0037336647510528564, -0.0948650911450386, 0.04630816727876663, 0.03699633851647377, 0.0694747343659401, -0.11236242204904556, -0.028664402663707733, 0.018690967932343483, -0.1041075736284256, 0.16114625334739685, 0.08944705128669739, 0.10657113790512085, -0.020787369459867477, 0.09539336711168289, 0.05847298726439476, -0.09914391487836838, -0.0006090753595344722, 0.0918123796582222, 0.10939866304397583, 0.025170352309942245, -0.06682206690311432, 0.10700207203626633, 0.08200539648532867, -0.1156836748123169, 0.05902180075645447, 0.02798960544168949, 0.07255291193723679, 0.00862171221524477, 0.13093984127044678, -0.008474431931972504, 0.005952045321464539, -0.042518146336078644, -0.07423130422830582, 0.09132421016693115, -0.026424041017889977, -0.057315584272146225, -0.04237029701471329, -0.00039978523273020983, -0.037375807762145996, 0.07613330334424973, -0.1158694177865982, 0.07479436695575714, 0.07287226617336273, 0.08421698957681656, -0.005020551849156618, 0.004117153584957123, -0.08484522253274918, 0.1283145397901535, 0.015921462327241898], [0.08363154530525208, -0.12896572053432465, 0.07368935644626617, 0.014015977270901203, 0.05998339504003525, 0.045755207538604736, 0.11301311105489731, -0.036640480160713196, 0.015879401937127113, 0.12339463084936142, -0.06189996004104614, 0.0020565262529999018, 0.054025501012802124, -0.0452711284160614, 0.04713984951376915, 0.08757354319095612, -0.12475842237472534, -0.039003584533929825, 0.08231300115585327, -0.07503652572631836, -0.03793562203645706, 0.1088145449757576, 0.09181462228298187, 0.004017969593405724, 0.19302305579185486, 0.13040845096111298, 0.0632629469037056, -0.04152839258313179, -0.048139940947294235, 0.13086484372615814, -0.07009182870388031, -0.060702428221702576, 0.0009550844551995397, -0.1166224330663681, 0.08973442763090134, -0.11332032084465027, 0.016099123284220695, -0.0003939885355066508, -0.031009797006845474, 0.09218264371156693, -0.0606185682117939, 0.01899252086877823, -0.1187727302312851, -0.08409470319747925, 0.10998182743787766, -0.04462713003158569, -0.056529805064201355, 0.08600611984729767, 0.09049589931964874, -0.1110251247882843, -0.0001109313961933367, 0.021139295771718025, 0.08933375775814056, 0.01222488284111023, 0.07876764982938766, -0.028478771448135376, -0.06618162989616394, 0.07792143523693085, -0.11151034384965897, 0.09720530360937119, 0.08474123477935791, -0.046123482286930084, -0.09325022995471954, 0.05175058916211128], [0.06793733686208725, 0.1183510571718216, 0.048194799572229385, -0.06687983870506287, -0.10298816114664078, -0.16312900185585022, 0.011898176744580269, 0.09711109101772308, -0.016148949041962624, 0.006468174047768116, 0.06786416471004486, 0.05329097434878349, -0.09013594686985016, 0.09805130958557129, -0.0064345900900661945, 0.02806273102760315, -0.07379136234521866, 0.12400337308645248, -0.2283361256122589, -0.061949778348207474, -0.05732691287994385, -0.03523651510477066, 0.07307782024145126, -0.07774459570646286, -0.0031183722894638777, -0.04691469296813011, 0.044396307319402695, -0.13106229901313782, 0.09168799966573715, 0.05588769167661667, -0.10568644851446152, 0.03795051574707031, 0.06925304979085922, -0.07415148615837097, 0.07442070543766022, -0.09912052750587463, 0.027951614931225777, 0.05671633780002594, 0.2667863667011261, -0.08971745520830154, 0.04611741006374359, 0.07277445495128632, 0.1518811732530594, 0.13714393973350525, -0.022982478141784668, -0.010459870100021362, 0.07156238704919815, 0.08749356120824814, -0.053210511803627014, 0.04137853905558586, 0.18329650163650513, 0.05587702617049217, 0.12220984697341919, 0.027616247534751892, -0.09983132779598236, 0.10964620113372803, -0.04033370316028595, -0.09628676623106003, -0.17295174300670624, -0.07908640801906586, -0.09588806331157684, -0.050509337335824966, 0.03740883618593216, -0.03038078173995018], [0.12314779311418533, -0.09268619120121002, -0.025551171973347664, 0.020154070109128952, 0.08047772943973541, -0.07256811857223511, -0.03202248364686966, -0.1044873297214508, -0.007652611471712589, -0.001426085364073515, 0.10572747886180878, 0.09396829456090927, -0.036625731736421585, -0.12603779137134552, 0.10427524894475937, -0.048720091581344604, -0.003879736876115203, -0.10649134963750839, -0.04526557773351669, -0.09499186277389526, 0.12810763716697693, -0.05907522886991501, 0.074407197535038, 0.0806993693113327, 0.12185113877058029, 0.043090205639600754, 0.0753532126545906, 0.020363563671708107, -0.029933970421552658, 0.09855449199676514, -0.034366220235824585, 0.01161353662610054, 0.10355087369680405, -0.021989047527313232, 0.04345407336950302, 0.05732528865337372, 0.12591403722763062, 0.059442367404699326, -0.08548403531312943, 0.027221256867051125, -0.04933628812432289, 0.039596039801836014, -0.12205890566110611, -0.04556232690811157, 0.0605679489672184, -0.07417738437652588, -0.046543706208467484, -0.09239595383405685, 0.04867801070213318, -0.06110186502337456, -0.030023546889424324, -0.007033935282379389, -0.028442393988370895, 0.08932332694530487, -0.0006487242644652724, 0.035601213574409485, 0.06181412935256958, 0.10708102583885193, 0.0031421545427292585, 0.042884767055511475, -0.05633295327425003, -0.12054108828306198, 0.002448705257847905, 0.023809680715203285], [0.09494712203741074, 0.05980364605784416, 0.04637261480093002, -0.06590111553668976, 0.06274391710758209, 0.051959820091724396, -0.016421999782323837, 0.12162205576896667, 0.05895113945007324, 0.014046012423932552, 0.1115526407957077, -0.07247937470674515, 0.01344351563602686, 0.07954900711774826, 0.14282839000225067, 0.10203464329242706, 0.0005116308457218111, 0.011165724135935307, -0.00452183885499835, -0.03453035652637482, -0.12134599685668945, 0.10489023476839066, 0.018889984115958214, -0.11349163949489594, 0.19352400302886963, 0.03828246518969536, 0.1420576125383377, -0.04783109948039055, -0.1383027583360672, -0.0372169092297554, 0.13705720007419586, 0.04435630887746811, -0.046313680708408356, 0.03595823049545288, -0.048906322568655014, 0.04229789972305298, 0.0558280423283577, -0.07321533560752869, -0.08090490847826004, 0.06241707503795624, 0.06924072653055191, 0.006146387197077274, -0.12889915704727173, -0.10909907519817352, -0.05059880018234253, -0.05478516221046448, 0.13871319591999054, 0.14885003864765167, -0.0706343948841095, -0.05298542231321335, -0.0395396463572979, 0.15305833518505096, -0.12418388575315475, -0.1245562732219696, -0.026505913585424423, -0.09513218700885773, 0.10963369905948639, -0.0546303354203701, 0.051531340926885605, 0.10101514309644699, 0.07280439883470535, 0.08629605174064636, -0.06719862669706345, 0.12073894590139389], [0.0766134113073349, 0.12261264771223068, -0.04999168962240219, 0.0944591760635376, -0.10875561088323593, -0.014725437387824059, -0.11804983019828796, -0.10640811920166016, -0.00478128157556057, -0.0775640681385994, 0.12298807501792908, 0.019326101988554, -0.10940387099981308, 0.11022945493459702, 0.10441017895936966, -0.08291061222553253, -0.07076720893383026, 0.10614404827356339, 0.009493048302829266, -0.003729648422449827, -0.021783804520964622, -0.0032115194480866194, -0.053708575665950775, 0.05269545316696167, 0.05831911414861679, -0.00541053619235754, 0.11017225682735443, -0.07809285819530487, 0.003972048405557871, -0.09772956371307373, 0.03681540861725807, 0.0860687792301178, -0.011841454543173313, -0.04643508791923523, 0.05967133492231369, -0.09769986569881439, 0.03420089930295944, 0.0913039967417717, -0.08662664145231247, 0.0412946492433548, -0.0418756827712059, -0.0636027529835701, -0.10191589593887329, 0.10713987797498703, -0.10760942846536636, -0.015524014830589294, 0.019908050075173378, -0.0551881305873394, 0.10291951894760132, 0.08307509869337082, 0.10420223325490952, -0.022570455446839333, 0.023883014917373657, -0.09333446621894836, -0.032948531210422516, 0.10712386667728424, 0.1155676394701004, 0.10135635733604431, 0.014291309751570225, -0.047862935811281204, 0.0074951499700546265, 0.009374112822115421, 0.09734450280666351, -0.019946787506341934], [0.08181541413068771, 0.14748446643352509, 0.059579648077487946, -0.017317868769168854, 0.13642127811908722, -0.1454036980867386, 0.12688389420509338, 0.0277785062789917, -0.09230360388755798, 0.061698395758867264, 0.013160660862922668, 0.10269630700349808, -0.15670426189899445, 0.05586191639304161, 0.03610622510313988, 0.045778825879096985, -0.05036301538348198, -0.034673575311899185, -0.22139309346675873, 0.06948722153902054, -0.050416216254234314, -0.11307165026664734, -0.059079211205244064, -0.08556170761585236, -0.21714428067207336, -0.06153402850031853, -0.04272231459617615, -0.00749038765206933, 0.08358483016490936, -0.06664524227380753, 0.06315550208091736, 0.061139848083257675, 0.07796237617731094, 0.12067247927188873, -0.021578552201390266, 0.019871041178703308, 0.09602353721857071, 0.06258061528205872, 0.28556129336357117, 0.11555270850658417, -0.03649888560175896, -0.04442817345261574, 0.12444842606782913, -0.00831078365445137, -0.13427504897117615, 0.11385248601436615, -0.025791697204113007, -0.020655298605561256, -0.02064487338066101, 0.16995537281036377, 0.09834488481283188, 0.05195191875100136, 0.03618193417787552, 0.10790295898914337, -0.03895387426018715, 0.0716446042060852, -0.10554911196231842, -0.13413256406784058, -0.1438640058040619, -0.07269289344549179, 0.053555406630039215, -0.1155230775475502, 0.20311394333839417, 0.029958708211779594], [-0.060650866478681564, -0.05381522700190544, -0.0791797861456871, 0.06248229742050171, 0.12215396016836166, 0.0921323150396347, -0.13602495193481445, -0.08665402233600616, -0.17471098899841309, 0.0828959196805954, -0.07096579670906067, 0.09690405428409576, 0.038262803107500076, -0.07295195013284683, -0.10271061211824417, -0.11210669577121735, -0.057707611471414566, -0.04232276603579521, 0.020670127123594284, -0.12060355395078659, 0.13154956698417664, 0.08957400172948837, 0.028407905250787735, -0.008083785884082317, -0.2677672803401947, 0.1285603940486908, -0.16228222846984863, -0.05778605118393898, 0.05046883597970009, -0.04471461847424507, 0.16511233150959015, -0.10666409879922867, 0.008160279132425785, -0.08896325528621674, 0.10480905324220657, 0.1028168648481369, -0.06867478042840958, 0.03061640076339245, 0.06879069656133652, 0.09929227828979492, -0.025318115949630737, 0.016266731545329094, 0.1416783630847931, -0.051553063094615936, -0.07886108011007309, 0.050159528851509094, 0.07133489847183228, 0.03255811333656311, 0.06789202988147736, 0.08381703495979309, 0.07129063457250595, -0.1370270699262619, -0.11742635071277618, 0.009430363774299622, -0.12721359729766846, -0.00045099854469299316, -0.0004340708255767822, -0.059614021331071854, 0.16862942278385162, -0.04744245857000351, -0.10149107873439789, -0.09023304283618927, 0.10236848890781403, -0.12171172350645065], [-0.02539035677909851, -0.010043814778327942, 0.034941017627716064, -0.039421483874320984, -0.013925313949584961, -0.03359943628311157, 0.042397335171699524, 0.02993142604827881, 0.09205281734466553, -0.1137976348400116, -0.06095932424068451, 0.006567895412445068, 0.10726036131381989, 0.00465768575668335, -0.004712402820587158, -0.0015581846237182617, -0.10204367339611053, -0.0056028813123703, -0.008478820323944092, -0.08780182898044586, 0.02869287133216858, -0.10421827435493469, -0.08216248452663422, 0.07400038838386536, 0.12244971096515656, 0.05683957040309906, -0.1050644963979721, 0.004804566502571106, -0.01424860954284668, -0.00849275290966034, 0.08545614778995514, -0.0057732462882995605, -0.0968853235244751, -0.07485046982765198, -0.01923719048500061, -0.06348472833633423, -0.007949933409690857, 0.05325140058994293, 0.03701619803905487, -0.028634145855903625, 0.07265615463256836, -0.1190343052148819, 0.10072745382785797, 0.08192914724349976, -0.05222827196121216, -0.11878298223018646, 0.03076489269733429, -0.018220677971839905, 0.018648356199264526, 0.011925101280212402, -0.06972457468509674, 0.033375486731529236, -0.04681910574436188, 0.05529962480068207, -0.00317990779876709, 0.030722394585609436, -0.03467173874378204, -0.0699097216129303, -0.09555734694004059, 0.09793393313884735, -0.02448694407939911, 0.027086347341537476, -0.04239702224731445, -0.0080939382314682], [0.09184964746236801, -0.11636513471603394, 